tree
version=v4
num_class=1
num_tree_per_iteration=1
label_index=0
max_feature_idx=13
objective=regression
feature_names=cur lag1 lag2 lag3 lag_day roll_mean roll_std delta hour_sin hour_cos dow is_weekend occ otemp
feature_infos=[0.00053144983643999997:101.43249203282281] [0.00053144983643999997:101.75236236476951] [0.00053144983643999997:101.75236236476951] [0.00053144983643999997:101.67695080650239] [0.00053144983643999997:101.67695080650239] [0.00059790346127999998:103.30247319468731] [0:39.248555270094329] [-49.226714693046262:50.699802032654134] [-1:1] [-1:1] [0:6] [0:1] [0.00047600000000000002:352.65235000000001] [11.1:35.200000000000003]
tree_sizes=5456 5499 5542 5553 5551 5570 5571 5536 5546 5565 5562 5541 5553 5580 5568 5569 5551 5594 5552 5625 5583 5645 5521 5557 5627 5580 5614 5628 5605 5606 5621 5665 5651 5630 5662 5594 5617 5644 5671 5632 5662 5647 5644 5675 5629 5587 5651 5673 5602 5744 5627 5707 5659 5654 5722 5628 5658 5664 5702 5608 5654 5654 5643 5643 5733 5641 5721 5705 5677 5710 5736 5703 5656 5703 5742 5685 5685 5702 5677 5726 5658 5643 5768 5745 5765 5709 5663 5719 5774 5739 5726 5716 5782 5720 5758 5670 5688 5719 5723 5824 5758 5829 5652 5671 5693 5829 5771 5773 5706 5723 5652 5755 5769 5707 5723 5700 5698 5696 5702 5712 5631 5801 5677 5687 5718 5849 5712 5640 5802 5800 5831 5694 5744 5766 5689 5734 5696 5767 5754 5702 5767 5792 5718 5796 5676 5725 5778 5701 5700 5837 5752 5750 5665 5790 5822 5791 5815 5797 5745 5731 5720 5670 5753 5740 5869 5705 5754 5641 5737 5703 5709 5840 5759 5800 5707 5861 5782 5765 5672 5759 5753 5723 5768 5640 5788 5643 5755 5773 5651 5896 5711 5663 5851 5649 5791 5612 5705 5736 5713 5665 5671 5658 5784 5664 5772 5660 5720 5686 5662 5636 5683 5662 5766 5738 5790 5750 5857 5790 5842 5734 5751 5788 5821 5776 5728 5709 5684 5679 5740 5687 5755 5768 5689 5772 5643 5700 5708 5705 5873 5757 5702 5678 5709 5707 5703 5750 5775 5759 5744 5864 5759 5801 5671 5840 5822 5708 5689 5798 5691 5755 5761 5700 5684 5690 5680 5782 5721 5675 5700 5686 5666 5735 5764 5672 5687 5758 5777 5783 5670 5818 5776 5830 5764 5642 5734 5687 5742 5780 5678 5837 5904 5777 5717 5772 5703 5662 5741 5704 5780 5662 5711 5673 5747 5676 5697 5727 5715 5675 5713 5747 5839 5687 5818 5730 5844 5689 5694 5706 5768 5741 5725 5723 5732 5890 5755 5704 5807 5748 5776 5720 5697 5800 5735 5860 5768 5733 5719 5729 5827 5927 5716 5764 5822 5818 5756 5703 5715 5737 5700 5803 5767 5774 5753 5725 5688 5700 5720 5734 5740 5766 5707 5689 5738 5735 5746 5836 5742 5712 5797 5755 5740 5733 5783 5926 5717 5754 5734 5728 5813 5759 5811 5756 5738 5741 5719 5972 5721 5706 5735 5750 5674 5745 5753 5719 5704 5779 5758 5779 5796 5831 5710 5781 5755 5749 5702 5833 5749 5708 5824 5698 5802 5897 5747 5768 5690 5761 5799 5719 5715 5758 5757 5900 5789 5799 5746 5791 5826 5752 5736 5813 5864 5941 5889 5749 5711 5808 5706 5820 5698 5801 5735 5745 5734 5726 5809 5726 5789 5841 5752 5745 5780 5713 5866 5912 5886 5734 5774 5772 5756 5774 5774 5741 5745 5713 5755 5739 5757 5898 5787 5786 5745 5700 5734 5782 5880 5790 5950 5752 5847 5735 5919 5744 5766 5818 5767 5730 5718 5855 5811 5774 5787 5726 5772 5709 5730 5729 5750 5722 5889 5851 5751 5837 5736 5849 5930 5774 5723 5794 5713 5844 5894 5750 5790 5766 5867 5726 5737 5769 5754 5832 5733 5717 5711 5805 5757 5741 5736 5748 5743 5713 5771 5791 5720 5747 5696 5770 5784 5876 5728 5731 5727 5741 5723 5777 5673 5910 5702 5862 5771 5919 5742 5736 5749 5743 5735 5772 5783 5738 5774 5734 5746 5741 5724 5733 5830 5699 5710 5776 5757 5834 5739 5791 5781 5763 5906 5793 5750 5899 5988 5713 5745 5931 5825 5768 5751 5736 5750 5836 5747 5786 5792 5777 5709 5737 5760 5801 5739 5748 5872

Tree=0
num_leaves=63
num_cat=0
split_feature=1 12 1 4 1 13 4 9 4 10 4 4 4 7 7 9 4 7 4 13 1 9 4 4 10 1 13 7 4 13 8 10 4 1 8 8 4 4 4 4 4 4 1 4 4 10 7 13 1 7 5 1 13 4 1 8 9 1 4 4 6 1
split_gain=5.84528e+06 1.73977e+06 567487 175214 84556.9 74776 72681.5 71593.4 50478.4 40415.8 35683 31753.7 26623.7 21708 17159.3 12459 11566.4 11294.9 11056.6 9927.71 9815.88 8619.72 8023.98 9608.77 6573.62 6458.62 6372.44 5097.3 5088.99 6017.37 4924.7 4802.53 5735.66 4769.78 4515.7 3593.33 4692.46 3322.39 3105.83 2142.57 2067.58 1995.8 1948.81 1876.63 1769.82 1743.28 1705.73 1664.95 1643.1 1548.35 1479.57 1457.78 1438.61 1436.48 1361.48 1392.26 2035.6 1318.74 1234.99 1185.3 1134.76 1024.11
threshold=10.431043360719896 142.29847500000002 3.2685922508927976 18.836053235348963 0.74245988956547648 25.450000000000003 6.3000671277536133 -0.19467261866128607 6.3000671277536133 4.5000000000000009 20.791204750415478 13.200893697045872 0.68881228571875652 3.2155359797055065 0.99049037508245297 -0.19467261866128607 13.200893697045872 -0.27172193364249136 1.6136324129392432 28.350000000000005 0.32058937198182141 -0.97868534383143924 1.6136324129392432 0.34560031486581594 4.5000000000000009 20.790810277138977 21.050000000000004 0.063257310841388623 26.168977949418636 25.650000000000002 1.0000000180025095e-35 4.5000000000000009 3.7902221470961615 19.126417874503051 0.13052619222005182 0.89495246814786289 0.5254544486623427 9.7336448954333861 15.246400141668799 2.8213976237097542 10.163453615106274 13.200893697045872 1.3865481133220994 24.999084493816991 4.2621181050487769 1.0000000180025095e-35 3.2155359797055065 30.750000000000004 0.10456258341313129 0.99049037508245297 0.008355271558609054 13.4989875 29.750000000000004 8.0017861222714348 5.5593935420362186 -0.97868534383143924 0.065263096110025676 2.8216025945984615 0.93767452657207961 8.0017861222714348 5.7513016568731565e-05 26.142458224100974
decision_type=2 2 2 2 2 2 2 2 2 2 2 2 2 2 2 2 2 2 2 2 2 2 2 2 2 2 2 2 2 2 2 2 2 2 2 2 2 2 2 2 2 2 2 2 2 2 2 2 2 2 2 2 2 2 2 2 2 2 2 2 2 2
left_child=2 3 4 7 20 26 13 8 12 11 -5 37 51 15 18 22 40 -7 42 60 48 34 23 -4 28 47 -3 -28 43 -30 -11 32 -20 53 52 36 -25 59 -18 54 -10 61 -6 -12 -24 -44 -16 58 -1 -22 -29 -2 -14 -9 -17 56 -56 -33 -23 -8 -19 -35
right_child=1 5 6 10 14 17 9 33 16 30 24 -13 21 -15 46 39 38 19 31 -21 49 25 44 35 -26 -27 27 50 29 -31 -32 57 -34 41 -36 -37 -38 -39 -40 -41 -42 -43 45 -45 -46 -47 -48 -49 -50 -51 -52 -53 -54 -55 55 -57 -58 -59 -60 -61 -62 -63
leaf_value=0.71336020702177072 1.2927201033070146 3.5090186373108887 0.94976504840091192 1.7249362031195474 0.75920212394512154 4.4428729751613485 1.0744233155510099 1.0280910005559403 1.157422835958243 0.80331882342565086 1.8964172439059093 1.4823011576273055 1.3742441020927112 1.4086186409746522 0.89532922142636651 0.796846003383334 1.4299309786481009 4.7075270074227475 0.83486581109809932 5.5308662540584184 0.73973315143142726 1.7317476811998627 0.88941782967831839 1.154316984096966 1.4847801609739402 1.9602916446630165 3.7127660962247266 3.9981725472060443 2.6394983414260147 2.0611837944577589 1.0064808308270543 0.77320718095013441 0.97540989404991252 1.2093548720928737 1.8046077627760204 0.94841049621975382 1.4404153381548208 1.2296724768487932 1.5741114548800781 0.91646250509436311 1.316903245861027 1.4731917932014595 0.82091046982535887 1.9925899072393518 0.96538181948882784 0.76677653916619959 0.9971227610561253 1.9859574482728743 0.72170866744132711 0.82019439485723689 4.346598847841749 1.4675720588145111 1.6316383689741523 1.1992160396868918 0.86438924218530133 0.84546975136104185 1.1327184739442475 0.8576596358409303 1.9497556806824119 1.1583636050939985 5.0265381783095586 1.354771079203505
leaf_weight=493811 274 90 866 3990 19353 71 702 447 262 403 1095 1106 190 246 767 1109 899 63 6450 101 36032 1110 1198 593 70 585 86 50 50 448 1148 3712 818 939 133 140 189 1324 639 1347 906 90 2771 945 2130 3210 888 76 66925 608 78 211 76 169 186 1156 114 528 69 1049 50 139
leaf_count=493811 274 90 866 3990 19353 71 702 447 262 403 1095 1106 190 246 767 1109 899 63 6450 101 36032 1110 1198 593 70 585 86 50 50 448 1148 3712 818 939 133 140 189 1324 639 1347 906 90 2771 945 2130 3210 888 76 66925 608 78 211 76 169 186 1156 114 528 69 1049 50 139
internal_value=0.749841 1.74622 0.727796 1.63273 0.720624 4.4075 1.03171 1.46242 1.5527 1.17168 1.81894 1.25254 1.70465 0.945199 0.792448 0.932571 1.39975 4.98934 0.785372 5.17065 0.715995 1.7774 0.983934 1.06936 1.96277 1.82309 3.86202 4.01047 1.97595 2.11925 0.953693 0.826013 0.850684 1.18762 1.56673 1.1817 1.22346 1.1699 1.48983 0.8654 1.28113 1.24699 0.766911 1.94097 0.938037 0.791857 0.949947 1.75913 0.714357 0.741068 4.21049 1.36879 1.44779 1.07504 0.838585 0.870377 0.966354 0.783724 1.74451 1.12471 4.84868 1.22811
internal_weight=665280 14401 650879 13812 635873 589 15006 7214 5430 5732 6598 4181 2724 9274 38497 9028 2706 285 36842 214 597376 2239 5116 1788 2608 1840 304 214 2538 498 1551 11508 7268 1784 399 922 782 3075 1538 3912 1168 1168 25334 2040 3328 5981 1655 1255 560736 36640 128 485 266 616 2565 1456 300 4240 1179 1751 113 1078
internal_count=665280 14401 650879 13812 635873 589 15006 7214 5430 5732 6598 4181 2724 9274 38497 9028 2706 285 36842 214 597376 2239 5116 1788 2608 1840 304 214 2538 498 1551 11508 7268 1784 399 922 782 3075 1538 3912 1168 1168 25334 2040 3328 5981 1655 1255 560736 36640 128 485 266 616 2565 1456 300 4240 1179 1751 113 1078
is_linear=0
shrinkage=1


Tree=1
num_leaves=63
num_cat=0
split_feature=1 12 1 9 1 13 7 1 9 1 9 1 3 2 7 9 3 9 2 1 7 1 3 1 12 13 3 1 13 9 12 7 9 2 12 3 3 6 9 13 1 2 2 7 7 1 7 9 7 2 2 13 3 9 9 12 10 1 2 7 7 1
split_gain=5.27536e+06 1.57014e+06 512157 133221 76312.6 67611.2 60119.6 56500.8 33902 28415.9 24875.4 19768.4 18564.4 17888.4 15486.3 15283.5 15182.5 13155.2 13130.5 11091.9 10927 9519.06 9307.99 8884.46 7827.71 7682.57 6965.32 8648.7 6563.52 6201.69 5304.91 7056.44 4969.72 4414.48 4201.48 4107.6 3904.56 3664.08 3620.81 3044.65 2986.87 2852.81 2851.06 2795.23 2268.87 2321.05 2216.99 3721.99 2685.29 1953.15 1886.42 1734.53 1710.9 1681.88 1747.33 1845.64 2272.13 1646.12 1568.1 1539.42 1474.48 1290.29
threshold=10.431043360719896 142.29847500000002 3.2685922508927976 -0.19467261866128607 0.74245988956547648 25.550000000000004 3.2155359797055065 20.790810277138977 -0.97868534383143924 13.4989875 -0.19467261866128607 6.3135344021173285 1.806615028362635 3.1897773377980587 0.99049037508245297 -0.97868534383143924 15.323175000000001 -0.5 16.015900921193417 26.142458224100974 -0.27172193364249136 1.6154078920456425 20.792086507096954 0.27364563289073957 107.87120000000002 28.350000000000005 6.2442154337916582 19.126417874503051 23.950000000000003 -0.99572243068690514 109.95520000000002 -0.10837723545794893 -0.5 19.53305807097988 57.45552 6.2442154337916582 19.096771935404501 3.0317897337578318e-05 -0.97868534383143924 25.150000000000002 24.98599096865162 14.34426404791976 11.58342305004385 -0.35698359452898648 -0.35698359452898648 4.9903549889876704 -7.0456939999999983 -0.99572243068690514 -1.2782795902417434 10.023386077644597 3.6754271615002558 21.050000000000004 1.0764962597409549 -0.065263096110025884 -0.19467261866128607 1.7929475000000001 4.5000000000000009 15.326368900564143 2.3983298899895455 3.2155359797055065 0.73045002837303574 4.3295389231340122
decision_type=2 2 2 2 2 2 2 2 2 2 2 2 2 2 2 2 2 2 2 2 2 2 2 2 2 2 2 2 2 2 2 2 2 2 2 2 2 2 2 2 2 2 2 2 2 2 2 2 2 2 2 2 2 2 2 2 2 2 2 2 2 2
left_child=2 3 4 7 23 28 10 8 24 16 11 12 13 -4 21 46 35 -15 49 33 -7 53 26 -1 41 -22 32 36 37 -26 -21 -32 39 -5 -8 -10 57 51 -13 -11 -17 -2 50 -23 -14 -46 -9 -48 -49 -12 -40 -3 58 54 -6 56 -56 -28 -45 -16 -25 -19
right_child=1 5 6 19 14 20 34 15 9 22 18 38 44 17 59 40 -18 61 -20 30 25 43 -24 60 29 -27 27 -29 -30 -31 31 -33 -34 -35 -36 -37 -38 -39 42 -41 -42 -43 -44 52 45 -47 47 48 -50 -51 -52 -53 -54 -55 55 -57 -58 -59 -60 -61 -62 -63
leaf_value=-0.033848321334106951 0.39861838989739817 2.419229705810547 0.21891612726315338 0.2693103724248182 0.024725255326907121 3.507834978103638 0.50288143076679925 0.6739961462200813 0.8083294458389283 0.94279147927190232 0.097310457146797716 0.27988826182522081 0.067082693496553214 0.26197407397012862 0.13821383434914858 1.0824891312101295 0.92258672921080564 0.51451486387560441 0.40325871438958077 0.47971444863539481 3.9297322695071886 0.011051168298977202 1.1574454915494525 -0.011465688078536321 0.60269957255650242 4.5419738429607737 0.6754089845319009 0.93101600175269272 3.3285477658976683 0.93140106962786795 1.4218640435416745 0.67418857170985302 1.4604082615144793 0.45008793718425943 0.70204742510515949 0.52370006321111928 0.94388017780316558 3.0568753783235847 0.55623535558805992 1.1327721376419067 1.1998832086161975 0.58946925189323773 0.667925586444991 0.12015872261317972 0.16285042192774934 0.23727031982458602 0.76647026723828815 0.83689070091247564 1.1243663792980128 0.18943058472965849 0.39487937654934391 2.7994189643859864 0.074173729480039183 0.0064321411833559404 0.17667592649401995 -0.013827404010027584 0.0087167999219326751 0.79525462264088898 0.31566925142122354 0.2349176867319657 0.058488727101602023 0.69484036516758707
leaf_weight=554545 277 50 974 482 8398 70 440 106 150 710 3298 557 382 315 767 906 438 124 433 91 104 1648 411 42064 286 101 513 3158 92 288 53 78 62 1128 665 818 303 97 199 300 1348 668 112 948 2484 1812 232 125 232 697 2018 75 8846 15624 639 330 294 649 115 888 767 496
leaf_count=554545 277 50 974 482 8398 70 440 106 150 710 3298 557 382 315 767 906 438 124 433 91 104 1648 411 42064 286 101 513 3158 92 288 53 78 62 1128 665 818 303 97 199 300 1348 668 112 948 2484 1812 232 125 232 697 2018 75 8846 15624 639 330 294 649 115 888 767 496
internal_value=2.7887e-10 0.946559 -0.0209431 0.838746 -0.0277565 3.47477 0.267775 0.89947 0.837421 0.880983 0.239559 0.285288 0.237478 0.368877 0.0404763 1.08949 0.678328 0.525094 0.141729 0.441652 4.0472 0.0337549 0.927648 -0.0321537 0.621987 4.23137 0.911064 0.884436 2.97344 0.767623 0.772971 0.976683 1.02589 0.395967 0.622742 0.567806 0.784028 2.82628 0.394408 0.999221 1.1527 0.533527 0.421797 0.0713477 0.183856 0.19424 0.884502 0.922386 1.02371 0.113382 0.409363 2.64734 0.0813758 0.0165724 0.0329716 0.0878033 0.12375 0.742345 0.14131 0.190101 -0.010213 0.658775
internal_weight=665280 14401 650879 13812 635873 589 15006 11980 9031 7512 13901 9473 6587 1909 38497 2949 1406 935 4428 1832 275 36842 6106 597376 1519 205 5695 4623 314 574 222 131 1072 1610 1105 968 1465 222 2886 1010 2254 945 2329 11557 4678 4296 695 589 357 3995 2217 125 9909 25285 9661 1263 933 1162 1063 1655 42831 620
internal_count=665280 14401 650879 13812 635873 589 15006 11980 9031 7512 13901 9473 6587 1909 38497 2949 1406 935 4428 1832 275 36842 6106 597376 1519 205 5695 4623 314 574 222 131 1072 1610 1105 968 1465 222 2886 1010 2254 945 2329 11557 4678 4296 695 589 357 3995 2217 125 9909 25285 9661 1263 933 1162 1063 1655 42831 620
is_linear=0
shrinkage=0.05


Tree=2
num_leaves=63
num_cat=0
split_feature=0 12 0 4 0 4 8 0 10 4 8 8 8 4 10 0 2 0 0 0 4 4 0 0 4 4 10 4 3 4 0 4 8 4 12 5 0 4 8 0 5 0 4 2 3 4 8 2 4 10 8 2 3 8 2 4 0 4 4 4 1 4
split_gain=4.95731e+06 1.36752e+06 509424 87939.5 62126.4 46246.9 42459 32148.7 22060.6 16187.4 14443.7 20932.2 17562.7 12214.7 11843.5 11160.6 10277.3 7724.49 7473.83 6341.19 5558.92 11720.5 6073.62 5217.41 4021.9 3980.06 3892.29 4370.86 4035.82 2585.57 2448.05 2378.35 2321.65 2028.06 1820.92 1741.78 1698.86 1480.84 3464.5 1436.72 1353.13 1309.96 1201.93 1415.95 4617.31 1127.93 1089.42 2813.43 1041.59 1021.52 1001.07 1216.84 996.117 948.128 1098.65 943.996 923.385 920.146 896.054 1157.25 1396.41 834.395
threshold=11.542558673580068 142.29847500000002 3.2108255462797097 20.791204750415478 0.74245625615676769 6.3000671277536133 -0.97868534383143924 19.53345993531623 4.5000000000000009 13.200893697045872 -0.19467261866128624 -0.94490267940017747 0.13052619222005182 18.836053235348963 1.0000000180025095e-35 1.5953462409801407 26.134309669722764 4.8441821384056034 0.23534515247936852 14.34426404791976 2.8213976237097542 15.246400141668799 20.792086507096954 24.9924509138981 8.0017861222714348 3.7902221470961615 4.5000000000000009 26.168977949418636 15.323175000000001 8.0017861222714348 10.023511623231625 2.4398511723946377 1.0000000180025095e-35 13.200893697045872 57.45552 0.033354107536562899 24.9924509138981 1.226245975123893 0.82968937203783699 24.9924509138981 0.0047750855520800007 15.686069401117939 0.34560031486581594 1.5710122035493146 1.6119829226843629 9.7336448954333861 -0.94490267940017747 16.015900921193417 0.5254544486623427 1.5000000000000002 0.82968937203783699 1.5710122035493146 19.096771935404501 0.82968937203783699 3.1897773377980587 4.9893757139039261 0.069417852267830996 2.4398511723946377 3.2682289151922399 0.68881228571875652 15.326368900564143 2.7088153972745066
decision_type=2 2 2 2 2 2 2 2 2 2 2 2 2 2 2 2 2 2 2 2 2 2 2 2 2 2 2 2 2 2 2 2 2 2 2 2 2 2 2 2 2 2 2 2 2 2 2 2 2 2 2 2 2 2 2 2 2 2 2 2 2 2
left_child=2 3 4 6 18 14 23 13 9 24 11 -3 -12 19 17 37 -14 53 56 58 22 -22 -9 52 -7 57 27 36 -29 34 42 -17 -10 -31 -21 49 -5 -6 -39 -24 -18 -35 -19 -44 -45 -26 47 -46 -20 -13 -33 -52 -2 -4 -55 -27 -1 -16 59 -8 -61 -40
right_child=1 10 5 26 15 8 7 20 32 -11 12 35 16 -15 25 31 40 30 48 29 21 -23 39 -25 45 55 -28 28 -30 33 -32 50 -34 41 -36 -37 -38 38 61 -41 -42 -43 43 44 46 -47 -48 -49 -50 -51 51 -53 -54 54 -56 -57 -58 -59 -60 60 -62 -63
leaf_value=-0.033219516944941734 0.27737361806811711 2.7142030069904948 0.13616206087935759 1.0329577457285406 0.0093406538850345309 0.29455927759257672 0.54852650610067077 0.86910243710430535 0.066730296518653628 0.66163135600691092 2.2978796682050153 3.7697640664236887 2.7080218991925644 0.85901110288008908 0.04104629161997915 0.055264861179969843 3.2587482863781498 0.21959764705020557 -0.017496739292965729 0.96842359145482382 0.56803461794527421 0.88531240668087574 0.99403256024761832 0.69382556994285816 0.37248155885964002 0.15910416968128227 0.72973422620977679 1.6618801416135303 1.1924061662132042 0.46827705103322997 0.43258090849902059 0.092733881901518656 0.22853583489557031 0.65363261404438555 0.75560899759147793 3.9012202952167776 1.1244753363276592 0.019074925027141997 0.03916717928527675 1.1260170496427095 3.5731639293523934 0.75285891811637318 0.19446751858506883 0.66821309011809682 0.14180324807130232 0.43357869008692296 0.35491100813718451 0.38437176663596356 -0.0023545961798572858 3.5058530212996843 0.077893201157311409 0.23638288256942586 0.41712947423020363 0.13794769048690797 0.39367346252713886 0.20724804808165784 -0.027465364509441693 0.11569974889375101 0.54677118584844808 0.84595791933671483 0.5682453366774548 0.13172147619380459
leaf_weight=466287 165 62 878 1097 19205 985 177 797 268 595 62 70 62 1030 542 7018 51 392 31280 120 322 3031 397 169 1226 2316 70 51 447 109 409 4754 1283 856 619 101 943 5556 322 429 104 544 196 98 259 1968 596 222 17831 77 214 279 561 84 84 1817 81978 1731 900 106 79 999
leaf_count=466287 165 62 878 1097 19205 985 177 797 268 595 62 70 62 1030 542 7018 51 392 31280 120 322 3031 397 169 1226 2316 70 51 447 109 409 4754 1283 856 619 101 943 5556 322 429 104 544 196 98 259 1968 596 222 17831 77 214 279 561 84 84 1817 81978 1731 900 106 79 999
internal_value=1.00869e-10 0.944514 -0.019723 0.837901 -0.0267251 0.259379 0.772861 0.803828 0.364403 0.417628 3.30103 3.53593 3.04004 0.707614 0.190355 0.0349674 3.25209 0.268614 -0.0306853 0.663187 0.891611 0.854843 0.96757 0.443612 0.382887 0.151043 1.09754 1.10768 1.24048 0.713541 0.322372 0.0743029 0.200577 0.676015 0.790166 3.74136 1.07526 0.0164699 0.0363795 1.06258 3.46971 0.692189 0.296805 0.31888 0.339634 0.410127 0.309735 0.253758 -0.011999 3.63152 0.0997669 0.167586 0.385367 0.156985 0.265811 0.18027 -0.0323591 0.0978985 0.573491 0.639923 0.727367 0.109161
internal_weight=665280 13608 651672 13019 635723 15949 10411 9516 6325 4774 589 310 279 4540 9624 38347 217 3218 597376 3510 4976 3353 1623 895 4179 6406 2608 2538 498 2248 2172 12265 1551 1509 739 248 2040 26082 6877 826 155 1400 1763 1371 1175 3194 1077 481 49111 147 5247 493 726 1046 168 4133 548265 2273 1262 362 185 1321
internal_count=665280 13608 651672 13019 635723 15949 10411 9516 6325 4774 589 310 279 4540 9624 38347 217 3218 597376 3510 4976 3353 1623 895 4179 6406 2608 2538 498 2248 2172 12265 1551 1509 739 248 2040 26082 6877 826 155 1400 1763 1371 1175 3194 1077 481 49111 147 5247 493 726 1046 168 4133 548265 2273 1262 362 185 1321
is_linear=0
shrinkage=0.05


Tree=3
num_leaves=63
num_cat=0
split_feature=0 12 0 4 13 0 4 9 0 4 9 0 4 0 7 8 0 0 13 0 1 13 4 0 4 9 4 6 0 4 12 9 4 1 0 4 9 0 12 8 9 0 12 4 0 9 4 9 0 0 1 4 7 3 7 8 2 9 8 1 4 4
split_gain=4.47397e+06 1.23419e+06 459755 79445.8 60233.8 56069.1 41737.8 33533 27260.2 17158.1 14766.9 13461.6 10316.8 10072.5 9253.62 7611.03 14628.6 6751.68 6704.38 6394.89 5999.56 5697.72 4543.14 3983.63 3956.36 3613.04 2994.58 2980.69 2794.65 2704.09 3369.1 2274.86 2146.46 2093.81 1976.13 1655.42 1590.35 1465.74 1461.56 1360.29 3610.73 1318.3 1490.29 1266.35 1255.22 1254.85 5095.51 1086.97 1040.05 941.983 922.208 909.179 933.991 1575.82 904.043 903.467 1098.2 849.221 768.614 1191.23 735.835 982.174
threshold=11.542558673580068 142.29847500000002 3.2108255462797097 19.959533341799617 25.550000000000004 0.74245625615676769 6.3000671277536133 -0.19467261866128607 15.686069401117939 20.791204750415478 -0.99572243068690514 20.792086507096954 1.0783359169538462 1.5953462409801407 -0.27172193364249136 0.82968937203783699 7.3450086000000008 0.32469647762699977 28.350000000000005 4.8441821384056034 3.2685922508927976 23.950000000000003 13.200893697045872 24.9924509138981 18.836053235348963 0.19467261866128602 4.2621181050487769 3.0317897337578318e-05 7.3450086000000008 24.999084493816991 40.57231500000001 -0.99572243068690514 2.4398511723946377 24.98599096865162 14.34426404791976 9.7336448954333861 -0.75023006073889131 19.53345993531623 18.745132500000008 0.97868534383143946 1.0000000180025095e-35 19.53345993531623 72.958500000000015 2.8213976237097542 0.090195283691217223 -0.44134171618254464 0.68881228571875652 -0.97868534383143924 24.9924509138981 4.1814730375520233 19.126417874503051 10.163453615106274 0.049477098940872426 9.799885048556531 -0.065481300691658945 0.82968937203783699 1.5710122035493146 0.82968937203783688 1.0000000180025095e-35 8.4165862619990879 9.7336448954333861 0.68881228571875652
decision_type=2 2 2 2 2 2 2 2 2 2 2 2 2 2 2 2 2 2 2 2 2 2 2 2 2 2 2 2 2 2 2 2 2 2 2 2 2 2 2 2 2 2 2 2 2 2 2 2 2 2 2 2 2 2 2 2 2 2 2 2 2 2
left_child=2 3 5 7 21 17 12 8 24 -5 33 37 19 39 -6 16 38 44 -16 -4 -17 27 35 50 31 28 43 36 45 -11 -31 -2 57 -10 60 -18 -3 -12 -8 -7 -41 42 -32 -14 -1 46 -21 58 -13 -22 -9 52 53 -36 -25 -34 -57 -15 59 -40 61 -33
right_child=1 4 6 9 14 13 15 23 10 29 11 48 26 32 18 20 22 -19 -20 25 49 -23 -24 54 -26 -27 -28 -29 -30 30 41 34 55 -35 51 -37 -38 -39 47 40 -42 -43 -44 -45 -46 -47 -48 -49 -50 -51 -52 -53 -54 -55 -56 56 -58 -59 -60 -61 -62 -63
leaf_value=-0.031481295068041787 0.33360132967553491 2.509908920288086 0.14397518102605705 0.85520870364569379 3.1799281242915565 0.012173870621614277 0.14636878733747435 0.26367813389641898 0.53545945664042049 0.98281404024934127 0.7637107532345847 0.97394406763369834 0.069257645040354643 0.058063177875130968 3.5639786555216868 0.21537068605422977 0.33971220484923825 -0.0082393148670365009 4.1359164700649753 0.24051174533367159 0.47322455306425165 2.9936493915060294 0.64282748530892775 0.71773047401354872 0.81861259687514532 0.071737269321819411 0.18281889486486319 2.7336625679252076 0.38071096490314765 1.4409921646118165 1.0775939988154992 0.53054739765866976 0.088097184527544711 0.77030655529539471 0.92995903881228692 0.41051117653814739 2.1458628940582276 0.83241267919400741 -0.010568154727419218 0.14361759415250677 0.007981752351169354 1.0888196901066898 0.79676581296053806 0.13437930925277214 -0.024790169362203265 0.18549156760893806 0.63480244558684684 0.26862951511649297 1.0901014435023739 0.624335519472758 0.39525921832723299 0.62089217899842097 0.61836507139783925 0.63758626039000765 0.50495225116610531 0.073998538397739982 0.22456373553122244 -0.0018923330744485243 0.23545934747687372 0.25805444296668556 0.53160891666278975 0.69772055552956846
leaf_weight=479015 82 75 871 2295 70 23874 461 175 485 1095 1424 371 1054 6367 104 140 1534 36256 101 500 141 92 170 104 210 154 3024 97 1018 64 102 169 4754 118 98 1788 50 1707 105 736 1472 1259 88 2559 82105 346 98 1311 401 384 557 859 132 87 96 214 279 651 223 68 858 183
leaf_count=479015 82 75 871 2295 70 23874 461 175 485 1095 1424 371 1054 6367 104 140 1534 36256 101 500 141 92 170 104 210 154 3024 97 1018 64 102 169 4754 118 98 1788 50 1707 105 736 1472 1259 88 2559 82105 346 98 1311 401 384 557 859 132 87 96 214 279 651 223 68 858 183
internal_value=-1.29694e-10 0.897288 -0.0187369 0.796006 3.13598 -0.0253889 0.24641 0.700005 0.736611 0.954918 0.811698 0.847276 0.180837 0.033219 3.67628 0.346183 0.327383 -0.029151 3.84576 0.258005 0.506198 2.66279 0.39072 0.417835 0.610271 0.304942 0.146108 2.52568 0.323247 1.04266 1.08597 0.592544 0.0705878 0.581416 0.601443 0.377818 2.36429 0.801167 0.225367 0.0156464 0.0531937 1.07029 0.947526 0.115382 -0.0305022 0.261278 0.305128 0.246701 1.03428 0.583751 0.363802 0.647599 0.719969 0.792465 0.615597 0.0947785 0.159207 0.0525016 0.174105 0.0950176 0.556583 0.617458
internal_weight=665280 13608 651672 13019 589 635723 15949 8116 7184 4903 4506 3903 9624 38347 275 6325 5660 597376 205 2987 665 314 3492 932 2678 2116 6637 222 1962 2608 1513 2468 12265 603 2386 3322 125 3131 2168 26082 2208 1449 190 3613 561120 944 598 1707 772 525 732 1176 317 185 200 5247 493 7018 396 173 1210 352
internal_count=665280 13608 651672 13019 589 635723 15949 8116 7184 4903 4506 3903 9624 38347 275 6325 5660 597376 205 2987 665 314 3492 932 2678 2116 6637 222 1962 2608 1513 2468 12265 603 2386 3322 125 3131 2168 26082 2208 1449 190 3613 561120 944 598 1707 772 525 732 1176 317 185 200 5247 493 7018 396 173 1210 352
is_linear=0
shrinkage=0.05


Tree=4
num_leaves=63
num_cat=0
split_feature=0 12 0 4 13 0 4 9 0 10 4 9 4 0 0 10 7 0 13 9 9 13 0 0 4 4 4 10 4 13 9 4 9 4 8 1 0 0 4 8 0 0 0 9 0 4 4 10 8 1 7 4 7 8 8 4 4 8 4 4 9 4
split_gain=4.03776e+06 1.11386e+06 414929 71699.8 54361 50754.2 37668.4 30263.5 24602.3 18182.7 15485.1 13327.1 13210.7 12149.1 11540.1 9750.84 8351.39 6272.44 6050.7 5693.55 6513.56 4978.35 3640.21 3595.23 3570.62 3361.42 3306.73 3294.26 3782.45 4952.04 2516.58 3881.37 2053.06 1937.18 1897.13 1889.66 1783.46 1746.48 1413.7 2297.08 1392.1 1322.84 1115.81 1372.95 938.646 894.863 883.979 1125.49 860.834 832.293 822.395 820.534 842.927 1422.18 815.379 886.809 809.298 794.348 1485.95 774.323 766.422 664.091
threshold=11.542558673580068 142.29847500000002 3.2108255462797097 19.959533341799617 25.550000000000004 0.65345107413776204 6.3000671277536133 -0.19467261866128607 15.686069401117939 4.5000000000000009 20.791204750415478 -0.99572243068690514 13.200893697045872 20.792086507096954 1.5953462409801407 1.0000000180025095e-35 -0.27172193364249136 4.8441821384056034 28.350000000000005 -0.97868534383143924 -0.65793410509763406 22.550000000000004 0.18582103955281637 24.9924509138981 18.836053235348963 8.0017861222714348 3.7902221470961615 4.5000000000000009 26.168977949418636 25.650000000000002 -0.44134171618254464 0.5254544486623427 -0.99572243068690514 2.4398511723946377 1.0000000180025095e-35 24.98599096865162 14.34426404791976 7.3450086000000008 1.0783359169538462 0.89495246814786289 24.9924509138981 19.53345993531623 9.3327634327048603 0.19467261866128602 24.9924509138981 9.7336448954333861 4.2621181050487769 4.5000000000000009 0.82968937203783699 19.126417874503051 -0.020132465324211458 10.163453615106274 0.049477098940872426 0.65793410509763428 0.82968937203783699 5.2076691056028688 4.9893757139039261 0.94490267940017769 5.2076691056028688 2.4398511723946377 0.82968937203783688 9.7336448954333861
decision_type=2 2 2 2 2 2 2 2 2 2 2 2 2 2 2 2 2 2 2 2 2 2 2 2 2 2 2 2 2 2 2 2 2 2 2 2 2 2 2 2 2 2 2 2 2 2 2 2 2 2 2 2 2 2 2 2 2 2 2 2 2 2
left_child=2 3 5 7 19 22 15 8 24 12 -5 35 25 41 38 17 -6 48 -18 -3 21 -21 -1 49 32 -8 59 28 40 -30 31 37 -2 60 -11 -10 61 -19 -7 -40 -12 -13 -32 -44 -15 -27 -41 -48 -4 -9 -25 52 53 -38 -35 -56 -28 58 -49 -17 -16 -34
right_child=1 4 6 10 16 14 9 23 11 34 27 13 -14 44 33 26 18 30 -20 20 -22 -23 -24 50 -26 45 56 -29 29 -31 42 -33 36 54 -36 -37 51 -39 39 46 -42 -43 43 -45 -46 -47 47 57 -50 -51 -52 -53 -54 -55 55 -57 -58 -59 -60 -61 -62 -63
leaf_value=-0.02936787781165889 0.31692125535592802 2.0517448296913736 0.12237216375687571 0.81244831070661039 3.0209317956651964 0.0041315675788583381 0.26506009535135955 0.25049423129217968 0.50868648445483344 0.059149668471359496 0.93140649773798545 0.72552521208698828 0.59762386025500902 0.92524687042133513 0.055160019495455084 0.035531094777518091 3.3857797072483944 0.22637576632867984 3.9291205868862642 2.5342968686421714 2.2615966967173988 3.0631806048479948 -0.015251649151197758 0.67468973164047519 0.77768198603675476 0.33718206656893157 0.14316776513229793 0.65215756878256803 1.5953568344116213 1.0707273706793785 0.17386581688356806 0.51854244029822472 0.5865855054421858 0.083692327533567659 0.20541579060877849 0.73179122714673062 0.60570693290096589 0.35643449143590633 0.01657595387085703 0.041174179860403864 1.0142504979292384 0.79079206102971256 0.34976998137922255 0.16141378688974448 1.0355963813991023 0.39160199275588603 0.17996896505355836 0.25867418050765995 0.24590822699524106 0.37549627122587959 0.47043370929631323 0.58984755881312834 0.58744680989872333 0.88346110460709559 0.10324983263125449 0.24494058011534686 0.18774469920942005 -0.0032632382353767753 0.0011147608340252191 0.10401404890140863 -0.0017977164259978702 0.50502848514032261
leaf_weight=537555 82 52 878 2295 70 24543 985 175 485 268 1097 1424 595 371 6367 542 104 492 101 90 84 88 49910 112 210 1226 2316 70 50 448 469 238 352 4754 1283 118 87 543 9909 709 943 1707 283 147 401 1968 384 112 168 557 88 859 132 98 326 167 1817 224 112 1731 651 858
leaf_count=537555 82 52 878 2295 70 24543 985 175 485 268 1097 1424 595 371 6367 542 104 492 101 90 84 88 49910 112 210 1226 2316 70 50 448 469 238 352 4754 1283 118 87 543 9909 709 943 1707 283 147 401 1968 384 112 168 557 88 859 132 98 326 167 1817 224 112 1731 651 858
internal_value=2.47634e-11 0.852424 -0.0178 0.756206 2.97918 -0.0241194 0.234089 0.665005 0.699781 0.328874 0.907172 0.771113 0.377195 0.804912 0.0251728 0.171795 3.49246 0.242805 3.65347 2.52965 2.62451 2.79577 -0.0281686 0.396943 0.579758 0.345811 0.136125 0.990528 0.99986 1.1234 0.291248 0.336476 0.562916 0.0670584 0.180142 0.552345 0.571371 0.294609 0.0108998 0.0254076 0.969702 0.761108 0.227203 0.285378 0.982566 0.370713 0.0821973 0.117156 0.142214 0.345612 0.584817 0.615219 0.683971 0.752842 0.0900396 0.151246 0.162765 0.0633156 0.129894 0.0876842 0.0498765 0.528754
internal_weight=665280 13608 651672 13019 589 635723 15949 8116 7184 6325 4903 4506 4774 3903 48258 9624 275 3218 205 314 262 178 587465 932 2678 4179 6406 2608 2538 498 2172 1273 2468 12265 1551 603 2386 1035 35993 11450 2040 3131 899 430 772 3194 1541 832 1046 732 200 1176 317 185 5247 493 4133 448 224 2273 7018 1210
internal_count=665280 13608 651672 13019 589 635723 15949 8116 7184 6325 4903 4506 4774 3903 48258 9624 275 3218 205 314 262 178 587465 932 2678 4179 6406 2608 2538 498 2172 1273 2468 12265 1551 603 2386 1035 35993 11450 2040 3131 899 430 772 3194 1541 832 1046 732 200 1176 317 185 5247 493 4133 448 224 2273 7018 1210
is_linear=0
shrinkage=0.05


Tree=5
num_leaves=63
num_cat=0
split_feature=0 12 0 0 13 0 9 0 0 9 9 0 9 8 2 9 7 13 8 0 9 9 13 8 7 9 8 0 7 0 0 9 13 0 1 12 2 1 0 2 8 2 8 9 0 9 0 9 9 8 2 2 1 1 9 9 8 2 9 13 0 9
split_gain=3.64408e+06 1.00525e+06 374473 52820.3 49132.1 45860.7 32332.8 26354.9 14443.6 11005.3 10873.5 10854.9 9880.05 9193.53 23199.6 8404.09 8377.48 7598.58 6071.2 5064.95 4865.51 5836.42 4243.15 3753.31 3710.69 6080.02 3644.38 2962.13 2894.31 2889.39 2415.08 1882.18 1834.22 1766.11 1424.59 1313.29 1265.89 2563.46 1312.36 1807.92 1268.53 1223.59 1179.71 2853.18 1067.71 1007.7 828.297 803.955 798.075 870.73 1663.68 857.148 1207.4 767.024 739.102 727.211 855.135 648.417 646.044 604.646 598.205 594.905
threshold=11.542558673580068 142.29847500000002 3.2108255462797097 20.792086507096954 25.450000000000003 0.5914055425000001 -0.19467261866128607 7.3450086000000008 15.686069401117939 -0.99572243068690514 -0.19467261866128607 1.5953462409801407 0.19467261866128602 0.82968937203783699 4.1783351175217724 -0.99572243068690514 -0.48551001487321482 27.050000000000004 0.82968937203783699 5.1882135022282556 -0.97868534383143924 -0.65793410509763406 21.950000000000003 -0.94490267940017747 0.00040690070304896803 -0.97868534383143924 -0.25881904510252113 24.9924509138981 -0.059668996237946241 0.15562882500017253 9.3327634327048603 -0.44134171618254464 30.150000000000002 14.34426404791976 3.2685922508927976 82.450630000000018 20.428380000000001 19.959533341799617 19.53345993531623 9.46880399437668 0.75023006073889154 5.1970310741380201 0.97868534383143946 1.0000000180025095e-35 2.3983362211439343 0.82968937203783688 1.073618710305013 -0.19467261866128607 -0.99572243068690514 -0.97868534383143924 16.015900921193417 14.34426404791976 13.4989875 8.4165862619990879 0.19467261866128602 -0.99572243068690514 -0.97868534383143924 16.015900921193417 -0.97868534383143924 26.150000000000002 0.40095431551644128 -0.94490267940017736
decision_type=2 2 2 2 2 2 2 2 2 2 2 2 2 2 2 2 2 2 2 2 2 2 2 2 2 2 2 2 2 2 2 2 2 2 2 2 2 2 2 2 2 2 2 2 2 2 2 2 2 2 2 2 2 2 2 2 2 2 2 2 2 2
left_child=2 3 5 6 20 29 8 13 18 -10 15 42 30 19 31 59 -12 -6 24 47 -3 22 -22 -14 25 -2 -27 -17 -19 -1 55 34 -30 -26 -15 -28 38 -38 39 40 -11 53 46 -44 -13 -46 -7 -4 -43 50 -50 -51 -53 -32 58 -9 -57 -8 -21 -5 -31 -60
right_child=1 4 7 10 17 11 57 12 9 36 16 44 23 14 -16 27 -18 28 -20 54 21 -23 -24 -25 33 26 35 -29 32 60 41 -33 -34 -35 -36 -37 37 -39 -40 -41 -42 48 43 -45 45 -47 -48 -49 49 51 -52 52 -54 -55 -56 56 -58 -59 61 -61 -62 -63
leaf_value=-0.02808136916274975 0.48422450527548788 1.9372157344818117 0.1350201652988349 0.50637337748209643 2.9638328170776371 0.0031033709246086182 0.20697149981151927 0.16079823720455169 0.46882656724364669 0.98244619258614474 1.1915893628047063 0.048104775200573519 0.073889261650021756 0.19433134913444519 0.56813682365802032 0.87558028374803942 0.49954715945503936 3.2258167887490892 0.99400155313553362 0.16071672273571033 2.3696758099091357 2.1296889991295047 2.8685224086680314 0.33438195041430896 0.46392496290003388 0.52619498032497691 0.75949300509276052 0.977305254783156 3.4690999251145587 -0.019545835380514704 0.38450789923715123 0.15873197719716192 3.8675097318796015 0.57704221874802986 0.42705620258085192 0.55108641084418242 0.98641346676248909 0.76484581513516847 0.75516440839968513 0.67325260730678549 0.69102460182074354 0.22622676357492671 0.11033209964236046 0.0052525749744345715 0.083533150226600336 0.01145741814609871 0.021616809261971931 0.092430836023114249 0.14633288103601208 0.37230927200104347 0.34930166065188395 0.61849069541759716 0.35804621048187946 0.57661952125691929 0.058249961302198221 0.21103483068531959 0.31486091393851956 0.34009585525449471 0.27971402095244813 0.67877418662928335 -0.0082691140136465276 0.20784274310111775
leaf_weight=522204 480 50 3535 75 105 27673 110 100 378 86 52 5790 539 140 496 1221 275 63 93 627 78 82 94 186 656 251 847 1729 65 47292 101 1482 52 728 124 83 142 1618 2182 1246 66 111 969 1938 5947 528 7729 1614 115 1522 827 89 89 107 87 232 1366 543 333 158 15653 2127
leaf_count=522204 480 50 3535 75 105 27673 110 100 378 86 52 5790 539 140 496 1221 275 63 93 627 78 82 94 186 656 251 847 1729 65 47292 101 1482 52 728 124 83 142 1618 2182 1246 66 111 969 1938 5947 528 7729 1614 115 1522 827 89 89 107 87 232 1366 543 333 158 15653 2127
internal_value=-1.15704e-10 0.809802 -0.01691 0.718395 2.83022 -0.0229134 0.657207 0.222385 0.682243 0.729547 0.884161 0.0227665 0.312421 0.176502 0.266368 0.912368 0.609597 3.30186 0.596048 0.152294 2.38806 2.47681 2.6423 0.140719 0.583893 0.634277 0.695263 0.935201 3.49905 -0.0268615 0.33914 0.180643 3.64617 0.523426 0.303642 0.740893 0.748002 0.782722 0.730933 0.693112 0.855908 0.366401 0.00965954 0.0402791 0.0637055 0.0776558 0.00714524 0.12167 0.357566 0.363084 0.324523 0.384451 0.488268 0.483335 0.201973 0.291602 0.299787 0.317671 0.206024 0.62328 -0.0167416 0.217572
internal_weight=665280 13608 651672 13019 589 635723 9509 15949 8856 5718 3510 50574 5384 10565 2242 3183 327 285 3138 8323 304 254 172 725 3045 1661 1181 2950 180 585149 4659 1746 117 1384 264 930 5340 1760 3580 1398 152 2961 38309 2907 12265 6475 35402 5149 2753 2642 942 1700 178 208 3174 1698 1598 653 3087 233 62945 2460
internal_count=665280 13608 651672 13019 589 635723 9509 15949 8856 5718 3510 50574 5384 10565 2242 3183 327 285 3138 8323 304 254 172 725 3045 1661 1181 2950 180 585149 4659 1746 117 1384 264 930 5340 1760 3580 1398 152 2961 38309 2907 12265 6475 35402 5149 2753 2642 942 1700 178 208 3174 1698 1598 653 3087 233 62945 2460
is_linear=0
shrinkage=0.05


Tree=6
num_leaves=63
num_cat=0
split_feature=0 12 0 4 13 0 4 9 0 10 4 9 4 0 10 0 13 0 0 13 0 4 4 10 4 13 4 9 4 13 2 9 4 8 5 0 8 0 0 4 8 0 0 0 0 8 2 4 8 2 4 1 4 4 4 9 8 4 10 8 1 8
split_gain=3.28878e+06 907242 337962 58978.2 44341.7 41478.1 30951.6 24614.6 20204.5 15005.4 12680.5 10852.1 10792.2 9947.17 8034.09 7330.63 6857.71 5153.21 4989.24 4522.94 2955.55 2928.02 2824.61 2748 3260.07 4480.77 2720.88 2074.29 3172.81 1998.48 1885.07 1797.05 1651.16 1645.02 1633.88 1561.94 1480.28 1420.78 1402.19 1101.68 2527.82 1084.59 1074.79 786.934 766.92 743.933 966.315 741.107 702.233 927.656 695.337 685.415 684.315 669.689 669.257 646.555 598.188 591.127 694.983 1358.39 569.087 1410.78
threshold=11.542558673580068 142.29847500000002 3.2108255462797097 19.959533341799617 25.450000000000003 0.74245625615676769 6.3000671277536133 -0.19467261866128607 15.686069401117939 4.5000000000000009 20.791204750415478 -0.99572243068690514 13.200893697045872 20.792086507096954 1.0000000180025095e-35 1.5953462409801407 27.050000000000004 4.8441821384056034 0.26422287868399297 21.050000000000004 24.9924509138981 18.836053235348963 3.7902221470961615 4.5000000000000009 26.168977949418636 25.650000000000002 8.0017861222714348 -0.44134171618254464 0.5254544486623427 30.450000000000003 19.53305807097988 -0.99572243068690514 2.4398511723946377 1.0000000180025095e-35 0.006391601999996715 24.9924509138981 0.13052619222005182 14.34426404791976 7.3450086000000008 1.226245975123893 0.82968937203783699 24.9924509138981 19.53345993531623 0.059063300416779117 24.9924509138981 0.82968937203783699 1.5710122035493146 9.7336448954333861 0.82968937203783699 3.1897773377980587 10.163453615106274 19.126417874503051 0.5254544486623427 2.4398511723946377 4.9893757139039261 0.82968937203783688 -0.19467261866128624 2.7088153972745066 4.5000000000000009 0.94490267940017769 10.431043360719896 0.65793410509763428
decision_type=2 2 2 2 2 2 2 2 2 2 2 2 2 2 2 2 2 2 2 2 2 2 2 2 2 2 2 2 2 2 2 2 2 2 2 2 2 2 2 2 2 2 2 2 2 2 2 2 2 2 2 2 2 2 2 2 2 2 2 2 2 2
left_child=2 3 5 7 19 18 14 8 21 12 -5 35 26 42 17 39 -6 48 43 -3 51 31 53 24 41 -26 -8 28 38 -18 -29 -2 55 56 -21 -10 -36 -33 -19 -7 -41 -12 -13 -1 -15 -34 -47 -28 -4 -50 60 -9 -20 -16 -24 -17 -11 -42 -59 -60 -39 -62
right_child=1 4 6 10 16 15 9 20 11 33 23 13 -14 44 22 32 29 27 52 34 -22 -23 54 -25 25 -27 47 30 -30 -31 -32 37 45 -35 36 -37 -38 50 -40 40 57 -43 -44 -45 -46 46 -48 -49 49 -51 -52 -53 -54 -55 -56 -57 -58 58 59 -61 61 -63
leaf_value=-0.027177875286184636 0.27695761366588312 1.9712678750356039 0.11015739381633501 0.73367814419316313 2.8156411815824964 0.0075002247485922244 0.24006461633643525 0.22514863613673619 0.45887121452716156 0.12870610725312007 0.84154894323705443 0.65455578712934859 0.54031510633580826 0.83520552218763666 0.029147649159125738 0.049510175165785576 3.1848923795628101 0.20523274599052055 -0.013886911731258979 2.2075624152233728 0.52834973788261419 0.70158691156478159 0.12921999378679946 0.5857808096919741 1.4669800090789797 0.9679381711142403 0.30460486721253516 0.16517037427508396 0.46883602192421919 3.5234925966005068 0.3365723474174025 0.47697696299592329 0.075674295708142159 0.18560585226291618 2.3728212882171977 0.66236466953897066 2.7135084075927738 0.52224807966323128 0.32176903993385275 0.016040691776159056 0.034077613572850364 0.91467269946004282 0.71338628613606625 -0.022223099500199316 0.93495130919458858 0.06027259237576868 0.20150807093975792 0.35412936302704545 0.10424218575159711 0.33922646812030249 0.53079527043352581 0.33858589578145715 -0.0012157208592262199 0.092835720886321929 0.16975706132742885 -0.002804235230055502 -0.020961115617652647 0.14966055837544529 0.17067500237182109 -0.0063109690078387145 0.54155222660786395 0.79980520541125011
leaf_weight=455256 82 90 878 2295 105 19205 985 175 486 126 1097 1424 595 371 542 6367 106 492 27448 76 200 210 2316 70 50 448 1226 690 238 74 209 1210 4754 1283 88 117 50 105 543 5556 322 943 1707 97256 401 214 279 1968 84 84 859 557 17416 1731 1817 651 142 550 183 266 111 101
leaf_count=455256 82 90 878 2295 105 19205 985 175 486 126 1097 1424 595 371 542 6367 106 492 27448 76 200 210 2316 70 50 448 1226 690 238 74 209 1210 4754 1283 88 117 50 105 543 5556 322 943 1707 97256 401 214 279 1968 84 84 859 557 17416 1731 1817 651 142 550 183 266 111 101
internal_value=-5.10639e-11 0.769312 -0.0160645 0.682476 2.68871 -0.0217678 0.211266 0.59976 0.631123 0.297185 0.819396 0.695766 0.341082 0.726266 0.154798 0.0286407 3.13677 0.219254 -0.0250036 2.26866 0.358008 0.522355 0.122419 0.894826 0.903349 1.01804 0.312715 0.263163 0.304225 3.32409 0.205018 0.507105 0.0605202 0.162071 2.39373 0.498355 2.49626 0.515014 0.266372 0.0136495 0.030822 0.875351 0.68663 -0.0263057 0.887016 0.0817371 0.140201 0.33512 0.128078 0.221734 0.554151 0.311466 -0.00896801 0.0776492 0.147041 0.0446574 0.0494048 0.092991 0.11198 0.0658236 0.617441 0.664588
internal_weight=665280 13608 651672 13019 589 635723 15949 8116 7184 6325 4903 4506 4774 3903 9624 38347 285 3218 597376 304 932 2678 6406 2608 2538 498 4179 2172 1273 180 899 2468 12265 1551 214 603 138 2386 1035 26082 6877 2040 3131 552512 772 5247 493 3194 1046 168 1176 732 44864 2273 4133 7018 268 1321 999 449 317 212
internal_count=665280 13608 651672 13019 589 635723 15949 8116 7184 6325 4903 4506 4774 3903 9624 38347 285 3218 597376 304 932 2678 6406 2608 2538 498 4179 2172 1273 180 899 2468 12265 1551 214 603 138 2386 1035 26082 6877 2040 3131 552512 772 5247 493 3194 1046 168 1176 732 44864 2273 4133 7018 268 1321 999 449 317 212
is_linear=0
shrinkage=0.05


Tree=7
num_leaves=63
num_cat=0
split_feature=0 12 0 0 13 0 9 0 0 9 9 7 9 7 9 0 0 13 7 7 12 0 9 12 13 7 9 10 0 0 7 12 0 12 9 9 6 9 2 1 2 0 9 2 0 0 9 9 9 9 13 10 12 2 9 9 9 9 2 2 1 13
split_gain=2.96813e+06 818786 305011 42992 40052.4 37434 26393.7 21465 11726.9 9019.99 8879.87 8408.08 8152.45 6978.21 6768.83 6722.64 6615.89 5719.45 4600.87 6583.41 4973.78 4518.98 3576.59 13081.2 3141.18 3184.68 3131.95 2857.36 2413.43 2009.86 1678.5 1563.44 1434.17 1208.72 4566.07 1971.59 1198.5 1133.79 1067.38 2208.2 1065.4 1701.19 1184.56 994.15 929.871 901.039 864.618 826.62 813.229 1036.87 1229.36 963.401 908.168 800.76 796.687 764.515 680.143 733.297 1357.3 695.168 1024.29 646.138
threshold=11.542558673580068 142.29847500000002 3.2108255462797097 20.792086507096954 24.850000000000005 0.74245625615676769 -0.19467261866128607 7.3450086000000008 15.686069401117939 -0.99572243068690514 -0.19467261866128607 -0.48551001487321482 0.19467261866128602 -0.48551001487321482 -0.99572243068690514 4.8441821384056034 1.5953462409801407 27.950000000000003 0.00040690070304896803 -1.0000000180025095e-35 40.57231500000001 0.32469647762699977 -0.44134171618254464 13.531987500000001 21.050000000000004 0.063257310841388623 0.32075123873380501 4.5000000000000009 24.9924509138981 9.3327634327048603 1.3532684021768902 82.450630000000018 14.34426404791976 12.159750000000003 -0.44134171618254464 -0.5 0.00022018438948893449 -0.65793410509763406 20.428380000000001 19.959533341799617 9.46880399437668 19.53345993531623 -0.65793410509763406 5.1970310741380201 2.3983362211439343 0.086031533306284602 0.19467261866128602 0.82968937203783688 -0.065263096110025884 -0.19467261866128607 24.450000000000003 4.5000000000000009 1.7929475000000001 9.46880399437668 0.19467261866128602 -0.97868534383143924 -0.99572243068690514 -0.19467261866128607 16.015900921193417 14.34426404791976 13.4989875 30.650000000000002
decision_type=2 2 2 2 2 2 2 2 2 2 2 2 2 2 2 2 2 2 2 2 2 2 2 2 2 2 2 2 2 2 2 2 2 2 2 2 2 2 2 2 2 2 2 2 2 2 2 2 2 2 2 2 2 2 2 2 2 2 2 2 2 2
left_child=2 3 5 6 24 21 8 15 18 -10 14 -6 29 -12 -5 33 48 36 19 -2 -21 45 23 27 -3 -26 -14 -17 -16 -9 -27 37 -20 34 35 -4 -13 -22 40 -40 42 -42 -11 -31 -18 -1 -35 -46 49 -7 51 52 -51 55 -24 -25 -45 59 -59 -58 -61 -19
right_child=1 4 7 10 11 16 -8 12 9 38 13 17 26 -15 28 22 44 61 32 20 31 -23 54 53 25 30 -28 -29 -30 43 -32 -33 -34 46 -36 -37 -38 -39 39 -41 41 -43 -44 56 47 -47 -48 -49 -50 50 -52 -53 -54 -55 -56 -57 57 58 -60 60 -62 -63
leaf_value=-0.025700311248465516 0.46471494551141873 1.8727044370439316 0.12151875910551653 0.56395017149110716 2.4352619669987607 0.017994709035937754 0.28637781367732779 0.26286152561926873 0.4223577317106661 0.90109287641381719 1.0809504307233371 2.7251460149690705 0.064940360840928357 0.44934207179329616 0.79006807042574123 0.51147456718479989 0.04293531739064501 3.2281383791277487 0.41714823246002197 1.0495342800888834 0.68005539645189017 -0.0066452315189506218 0.15076794526116416 0.13260897235856747 1.9836249897354528 2.6070538502819134 0.30289575810073527 0.16722449094057085 0.88188922870634878 0.43649898595534842 2.2161659023217988 0.4705244882320001 0.51809123979098559 0.10934828423425308 0.11881169557207394 0.43446317052328465 3.0260977547744226 0.49554625941861064 0.89603294285250379 0.69039068062903708 0.60693096538608005 0.6802146770303501 0.62651544388602765 0.2018863301019411 0.075836059771068193 -0.020087972496369875 -0.0012688731113749167 0.010556563074615869 0.0058641671477037511 0.15121953959095069 -0.0037035399531985787 -0.0049873040074153857 -0.019489010402725805 0.2856104385852814 0.036059225927151384 0.1955514754154298 0.33690179999961806 0.13189238957736804 0.31522172656284136 0.56127322282683989 0.32138877263229887 3.468403561909994
leaf_weight=476992 633 90 69 233 65 8991 653 1698 378 93 52 77 539 275 1221 434 5790 62 656 79 795 36256 1529 613 76 53 186 70 1729 208 57 123 759 3515 1330 186 58 93 142 1618 1246 2173 68 111 5947 84128 186 528 15834 580 417 170 90 200 168 2265 1522 115 827 89 89 51
leaf_count=476992 633 90 69 233 65 8991 653 1698 378 93 52 77 539 275 1221 434 5790 62 656 79 795 36256 1529 613 76 53 186 70 1729 208 57 123 759 3515 1330 186 58 93 142 1618 1246 2173 68 111 5947 84128 186 528 15834 580 417 170 90 200 168 2265 1522 115 827 89 89 51
internal_value=1.27332e-10 0.730847 -0.0152613 0.648352 2.55428 -0.0206794 0.593149 0.200702 0.615769 0.658392 0.797903 2.94145 0.281957 0.549781 0.823393 0.159294 0.0272087 3.07413 0.538102 0.592967 0.667447 -0.0237534 0.199205 0.227532 2.1152 2.23253 0.125988 0.463662 0.843885 0.306228 2.4045 0.637591 0.471294 0.119436 0.155971 0.349784 2.85444 0.660732 0.6751 0.706982 0.659427 0.653508 0.785122 0.331097 0.0574942 -0.0248589 0.103789 0.0705129 0.012967 0.0239414 0.0664766 0.101316 0.128289 0.188868 0.139412 0.182145 0.323134 0.328228 0.292841 0.347836 0.441331 3.33658
internal_weight=665280 13608 651672 13019 589 635723 9509 15949 8856 5718 3510 313 5384 327 3183 10565 38347 248 3138 1723 1090 597376 5279 3582 276 186 725 504 2950 4659 110 1011 1415 5286 1585 255 135 888 5340 1760 3580 3419 161 2961 12265 561120 3701 6475 26082 10248 1257 840 670 3078 1697 2878 2753 2642 942 1700 178 113
internal_count=665280 13608 651672 13019 589 635723 9509 15949 8856 5718 3510 313 5384 327 3183 10565 38347 248 3138 1723 1090 597376 5279 3582 276 186 725 504 2950 4659 110 1011 1415 5286 1585 255 135 888 5340 1760 3580 3419 161 2961 12265 561120 3701 6475 26082 10248 1257 840 670 3078 1697 2878 2753 2642 942 1700 178 113
is_linear=0
shrinkage=0.05


Tree=8
num_leaves=63
num_cat=0
split_feature=0 12 0 4 13 0 4 4 4 11 0 4 0 4 4 9 9 7 9 13 0 4 13 4 9 11 3 9 4 0 9 4 4 4 9 2 3 4 7 12 4 4 0 11 4 4 4 0 0 4 0 4 13 3 2 12 0 9 0 13 9 9
split_gain=2.67873e+06 738954 275272 48571.9 36463.7 33889.8 25495.5 24766.8 16285.9 12356.1 9380.83 8907.41 8074.48 8057.7 6266.67 5739.5 6240.86 5539.41 5259.13 4666.41 3860.1 3449.61 3143.84 2659.59 2424.48 2292.14 2974.76 2276.28 2216.61 2148.26 2034.51 1964.79 1759.66 1712.19 1704.68 1544.83 1802.04 1531.74 1130.11 1158.51 856.469 830.793 799.608 654.582 2632.51 653.053 628.115 610.796 597.562 542.487 499.624 480.092 469.925 449.988 754.755 771.671 437.778 825.278 413.728 411.407 396.349 392.166
threshold=11.542558673580068 142.29847500000002 3.2108255462797097 18.836053235348963 26.050000000000004 0.5914055425000001 6.3000671277536133 3.2682289151922399 20.791204750415478 1.0000000180025095e-35 20.792086507096954 13.200893697045872 1.3760006201478194 10.163453615106274 1.0783359169538462 -0.97868534383143924 -0.65793410509763406 -0.48551001487321482 -0.19467261866128607 22.550000000000004 4.8441821384056034 0.68881228571875652 28.350000000000005 15.246400141668799 0.19467261866128602 1.0000000180025095e-35 4.2433425951253687 -0.97868534383143924 8.0017861222714348 0.13606698624893979 -0.19467261866128607 4.2621181050487769 2.4398511723946377 0.34560031486581594 -0.99572243068690514 1.5710122035493146 1.6119829226843629 24.999084493816991 6.9601677145343954 57.45552 0.93767452657207961 2.8213976237097542 9.3327634327048603 1.0000000180025095e-35 2.4398511723946377 13.200893697045872 10.163453615106274 14.34426404791976 24.9924509138981 8.0017861222714348 0.40095431551644128 19.959533341799617 30.650000000000002 1.0764962597409549 2.3983298899895455 5.8483000000000009 15.686069401117939 -0.99572243068690514 26.158515311968554 23.750000000000004 -0.97868534383143924 0.82968937203783688
decision_type=2 2 2 2 2 2 2 2 2 2 2 2 2 2 2 2 2 2 2 2 2 2 2 2 2 2 2 2 2 2 2 2 2 2 2 2 2 2 2 2 2 2 2 2 2 2 2 2 2 2 2 2 2 2 2 2 2 2 2 2 2 2
left_child=2 3 5 7 15 29 14 10 51 11 18 28 40 49 20 -3 19 -6 21 -17 -4 -2 -19 45 33 26 -10 56 -8 -1 34 41 61 -22 -12 -35 -37 59 39 47 -7 -16 -38 44 -42 -15 -30 -29 -36 -9 -31 -5 -24 54 55 -34 -23 -58 -39 -28 -11 -14
right_child=1 4 6 8 17 12 9 13 25 60 30 -13 32 23 31 16 -18 22 -20 -21 24 27 52 -25 -26 -27 37 38 46 50 -32 -33 53 35 48 36 42 58 -40 -41 43 -43 -44 -45 -46 -47 -48 -49 -50 -51 -52 -53 -54 -55 -56 -57 57 -59 -60 -61 -62 -63
leaf_value=-0.024170569577755791 0.44491136463460407 1.6129444034011275 0.11096684978815088 0.62754265295189227 2.4085165181159973 0.0020415446040668844 0.2171359465691039 0.18347407958365436 1.1941252633637072 0.10483169076472242 0.52522357781728113 0.48948168922873103 0.041420772185386229 0.39066914762575633 0.050103088881797465 2.081998994615343 1.8429702119624363 2.7923720359802249 0.27039008453382668 2.5806606351112835 0.15754522211821181 0.40402438688278197 3.0833437760670979 0.53099763296846292 0.044993108356153812 0.52608113425118586 0.7138243450189975 0.70136865460595432 0.29045619174457243 -0.017135020036860675 0.52218442824949707 0.14208699509146669 0.18644652607895079 0.143042756829943 0.75568786568837631 0.49971280973784782 0.23352207765371902 0.82415747074620682 0.51933763151854473 0.64380262858611503 0.018517440281945907 0.10284974053414737 0.31307221782020433 0.0069307890094516683 0.12730377719209002 0.45162330381699389 0.34233988750105104 0.90029040881565647 0.84410926100619121 0.29208024255467646 -0.0070294846641075302 0.66260557037552981 3.2949833439845664 0.067298999173300608 0.23965535899426077 0.066900199812225558 0.39927403215152113 0.62471798322733174 0.88234892427251577 0.78266415645873622 0.1615430258630966 0.0075738275644375228
leaf_weight=513547 349 54 871 1699 50 25202 985 151 51 424 60 595 7752 703 1054 90 94 98 141 98 392 100 54 963 154 70 303 86 2426 55949 83 3024 168 196 365 98 575 974 153 968 4799 2559 701 5766 629 1172 768 70 401 482 15653 2295 51 4515 94 687 67 103 445 765 1127 962
leaf_count=513547 349 54 871 1699 50 25202 985 151 51 424 60 595 7752 703 1054 90 94 98 141 98 392 100 54 963 154 70 303 86 2426 55949 83 3024 168 196 365 98 575 974 153 968 4799 2559 701 5766 629 1172 768 70 401 482 15653 2295 51 4515 94 687 67 103 445 765 1127 962
internal_value=-9.49979e-11 0.694304 -0.0144982 0.615934 2.42656 -0.0196454 0.190667 0.517975 0.711148 0.268647 0.624598 0.30848 0.0196227 0.427479 0.139418 2.08519 2.17562 2.87993 0.564996 2.34194 0.19956 0.586905 2.99605 0.463458 0.236027 0.808331 0.816116 0.618938 0.282709 -0.0230393 0.758161 0.112351 0.0516325 0.251022 0.781873 0.274361 0.293094 0.808364 0.646827 0.664181 0.00715335 0.0874623 0.277225 0.018662 0.0311237 0.42877 0.302932 0.790628 0.801976 0.266173 -0.0149258 0.64769 3.18614 0.0738774 0.105175 0.09039 0.487036 0.535867 0.842406 0.763134 0.14604 0.0376842
internal_weight=665280 13608 651672 13019 589 635723 15949 6417 6602 6325 2946 4774 50574 3471 9624 336 282 253 2037 188 2987 1896 203 2838 2116 2608 2538 1547 4179 585149 909 6637 14178 1962 826 1570 1374 2487 1277 1124 36396 3613 1276 11194 5428 1875 3194 156 766 633 71602 3994 105 5464 949 855 270 170 1419 1068 1551 8714
internal_count=665280 13608 651672 13019 589 635723 15949 6417 6602 6325 2946 4774 50574 3471 9624 336 282 253 2037 188 2987 1896 203 2838 2116 2608 2538 1547 4179 585149 909 6637 14178 1962 826 1570 1374 2487 1277 1124 36396 3613 1276 11194 5428 1875 3194 156 766 633 71602 3994 105 5464 949 855 270 170 1419 1068 1551 8714
is_linear=0
shrinkage=0.05


Tree=9
num_leaves=63
num_cat=0
split_feature=0 12 0 4 0 4 4 4 10 8 8 8 0 4 8 0 4 10 8 0 4 7 4 4 10 3 4 0 7 4 0 8 4 8 7 1 12 8 4 10 10 8 4 0 4 8 8 4 8 7 3 4 0 8 4 4 8 4 0 4 4 4
split_gain=2.41756e+06 666906 248433 43836.1 30585.6 23009.6 22352 14698 11151.4 8522.82 15866 14992.4 8466.2 8038.94 7552.84 7287.22 7272.07 6059.85 4551.86 3779.62 3085.52 2855.46 2400.28 2187.52 2068.66 2684.72 2000.49 1944.71 1709.34 1595.98 1447.69 1418.89 1382.39 1321.98 1211.55 1156.46 1147.6 834.562 1410.56 867.107 796.757 786.986 689.824 649.639 648.244 715.482 1289.37 1798.9 1016.62 644.163 631.839 589.38 587.564 583.244 570.333 531.124 523.396 510.302 495.898 489.594 433.283 428.123
threshold=11.542558673580068 142.29847500000002 3.2108255462797097 18.836053235348963 0.5914055425000001 6.3000671277536133 3.2682289151922399 20.791204750415478 4.5000000000000009 -0.94490267940017747 -0.19467261866128624 0.13052619222005182 20.792086507096954 13.200893697045872 0.65793410509763428 1.3760006201478194 10.163453615106274 1.0000000180025095e-35 -0.97868534383143924 4.8441821384056034 0.68881228571875652 0.43852438789653819 15.246400141668799 3.7902221470961615 4.5000000000000009 4.2433425951253687 8.0017861222714348 0.12268990375198696 0.0011417563273895712 2.1358309430220781 10.023511623231625 1.0000000180025095e-35 24.999084493816991 -0.97868534383143924 -0.69115036594537094 10.431043360719896 57.45552 0.97868534383143946 3.7902221470961615 4.5000000000000009 1.0000000180025095e-35 0.82968937203783699 5.2076691056028688 14.34426404791976 0.34560031486581594 -0.94490267940017747 0.89495246814786289 0.68881228571875652 -0.97868534383143924 -0.006079923827041674 19.096771935404501 13.200893697045872 24.9924509138981 0.82968937203783699 9.7336448954333861 2.1358309430220781 -0.25881904510252113 4.9893757139039261 0.40095431551644128 8.0017861222714348 19.959533341799617 1.226245975123893
decision_type=2 2 2 2 2 2 2 2 2 2 2 2 2 2 2 2 2 2 2 2 2 2 2 2 2 2 2 2 2 2 2 2 2 2 2 2 2 2 2 2 2 2 2 2 2 2 2 2 2 2 2 2 2 2 2 2 2 2 2 2 2 2
left_child=2 3 4 6 27 17 12 60 13 -3 21 -12 18 26 28 37 59 19 -2 53 -20 49 51 55 25 -9 -7 -1 -13 40 44 56 -27 -14 -22 -36 43 -6 -39 -40 -17 -31 -43 -37 -21 48 47 -47 50 -11 -46 -18 -35 -4 -28 -19 -10 -25 -29 -8 -5 -42
right_child=1 9 5 7 15 8 16 24 31 10 11 14 33 -15 -16 29 22 23 20 30 34 -23 -24 57 -26 32 54 58 -30 41 -32 -33 -34 52 35 36 -38 38 39 -41 61 42 -44 -45 45 46 -48 -49 -50 -51 -52 -53 -54 -55 -56 -57 -58 -59 -60 -61 -62 -63
leaf_value=-0.023037631683759878 0.26055496154929236 1.7507200094961353 0.094009371143400466 0.59616550543225466 0.0046128536924606531 0.20627915007208811 0.17430037820576044 1.134418982150508 0.11228847784154557 2.9335247598845386 1.426111678154238 2.3205776291924556 0.52062747823564626 0.46500759741839243 1.8413251323084676 0.053270320420471529 0.37113568626799931 0.015032928793947645 0.42266579972297214 0.14966796014068307 0.43732970337713922 2.4601581554968384 0.50444775132746711 0.11043280141753031 0.49977707999093196 0.72497707658939148 0.26101595242105147 -0.016595404045898109 2.6530006408691409 0.061495218630149256 0.31078062160965286 0.1605948506763738 0.80028604819289062 0.69445922212576683 0.46644902870572846 0.65117535518101333 0.59767147136882037 0.016545925766609133 0.14522720742970704 -0.012887639638834767 -0.0082993925318381994 0.087270469144929821 0.2084838198330588 0.85527590308870582 0.13110492780943897 0.24618031639758856 0.13589061668940955 0.46659985368902035 0.078184278612419722 2.7184059625384456 0.28203825133706112 0.42904213465521357 0.77853710438133383 0.19569489863656819 0.30446138249907073 0.07663552611256863 -0.028344108594343966 0.14583007393135236 -0.0066780107196108968 0.27747624147977079 0.62947530224951787 0.028283436192824987
leaf_weight=504767 139 62 878 1699 33603 985 151 51 119 58 62 74 76 595 62 2941 703 432 349 392 124 103 963 2316 70 1068 1226 64729 81 6193 409 1283 1419 397 145 88 1122 2297 384 112 1042 395 167 70 107 584 196 110 177 87 197 1172 436 168 1968 1841 149 1817 15653 482 2295 3440
leaf_count=504767 139 62 878 1699 33603 985 151 51 119 58 62 74 76 595 62 2941 703 432 349 392 124 103 963 2316 70 1068 1226 64729 81 6193 409 1283 1419 397 145 88 1122 2297 384 112 1042 395 167 70 107 584 196 110 177 87 197 1172 436 168 1968 1841 149 1817 15653 482 2295 3440
internal_value=-4.78883e-11 0.659589 -0.0137733 0.585138 -0.0186631 0.181134 0.492076 0.675591 0.255215 2.30524 2.37047 2.11182 0.593368 0.293056 2.30773 0.0186416 0.406105 0.132447 0.536746 0.188426 0.556973 2.66146 0.440285 0.104327 0.767915 0.77531 0.268574 -0.0218874 2.4943 0.0490509 0.22603 0.138738 0.767946 0.720253 0.587233 0.600277 0.615438 0.00679568 0.0330576 0.109524 0.033048 0.0666363 0.123289 0.7416 0.206369 0.222581 0.249135 0.281117 0.173448 2.80445 0.228914 0.407331 0.738466 0.110341 0.287785 0.0649275 0.034101 0.125995 -0.0146642 0.252864 0.615306 0.0197785
internal_weight=665280 13608 651672 13019 635723 15949 6417 6602 6325 589 527 279 2946 4774 217 50574 3471 9624 2037 3218 1898 248 2838 6406 2608 2538 4179 585149 155 14178 2172 1551 2487 909 1549 1425 1280 36396 2793 496 7423 6755 562 158 1763 1371 890 694 481 145 304 1875 833 1046 3194 2273 268 4133 80382 633 3994 4482
internal_count=665280 13608 651672 13019 635723 15949 6417 6602 6325 589 527 279 2946 4774 217 50574 3471 9624 2037 3218 1898 248 2838 6406 2608 2538 4179 585149 155 14178 2172 1551 2487 909 1549 1425 1280 36396 2793 496 7423 6755 562 158 1763 1371 890 694 481 145 304 1875 833 1046 3194 2273 268 4133 80382 633 3994 4482
is_linear=0
shrinkage=0.05


Tree=10
num_leaves=63
num_cat=0
split_feature=0 12 0 0 0 9 0 9 8 2 0 9 9 7 7 9 7 8 2 9 0 8 0 7 0 9 7 8 8 0 0 9 1 0 9 12 2 1 2 0 8 0 2 8 9 10 9 9 8 1 9 8 2 2 1 9 8 9 0 9 2 1
split_gain=2.18185e+06 601883 224211 31547.1 27713.9 19391.8 15920.4 9764.89 10718 11004.6 8776.63 6852.86 6469.03 6247.15 8421.41 5990.11 5664.33 5579.61 14105.4 5032.65 4847.05 4164.25 3334.35 3290.55 3228.38 2379.53 4081.41 2378.08 2300.83 1826.74 1516.77 1182.55 896.063 835.791 832.44 810.093 787.284 1623.6 881.362 1264.6 877.584 765.684 755.799 752.117 2060.11 1029.62 634.539 613.142 563.61 550.82 546.4 570.795 1054.28 533.447 815.421 525.639 581.776 516.701 500.509 500.061 622.824 565.689
threshold=11.542558673580068 142.29847500000002 3.2108255462797097 20.792086507096954 0.74245625615676769 -0.19467261866128607 7.3450086000000008 -0.97868534383143924 -0.94490267940017747 26.134309669722764 15.686069401117939 -0.99572243068690514 -0.19467261866128607 -1.0000000180025095e-35 0.0063592275260517537 0.19467261866128602 -0.48551001487321482 0.82968937203783699 4.1783351175217724 -0.99572243068690514 1.5953462409801407 0.82968937203783699 0.23534515247936852 0.43852438789653819 5.1882135022282556 -0.97868534383143924 0.00018567612948252463 -0.94490267940017747 -0.25881904510252113 24.9924509138981 9.3327634327048603 -0.44134171618254464 3.2685922508927976 14.34426404791976 -0.99572243068690514 82.450630000000018 20.428380000000001 19.959533341799617 9.46880399437668 19.53345993531623 0.75023006073889154 2.3983362211439343 5.1970310741380201 0.97868534383143946 1.0000000180025095e-35 4.5000000000000009 0.82968937203783688 -0.89495246814786256 -0.94490267940017747 8.4165862619990879 -0.99572243068690514 -0.97868534383143924 16.015900921193417 14.34426404791976 13.4989875 -0.99572243068690514 -0.97868534383143924 0.19467261866128602 0.045873725878850913 -0.19467261866128607 7.4844500181959015 8.4165862619990879
decision_type=2 2 2 2 2 2 2 2 2 2 2 2 2 2 2 2 2 2 2 2 2 2 2 2 2 2 2 2 2 2 2 2 2 2 2 2 2 2 2 2 2 2 2 2 2 2 2 2 2 2 2 2 2 2 2 2 2 2 2 2 2 2
left_child=2 3 4 5 22 10 17 -3 -9 -10 21 -12 19 -11 -15 30 -14 24 31 -5 43 25 58 -16 48 34 28 -17 -27 -21 55 32 -19 -28 -2 -30 38 -38 40 -40 -13 -22 49 -6 45 -45 -43 -25 57 -32 -44 52 -52 -53 -55 -8 -57 -4 -1 60 -26 -62
right_child=1 7 6 12 20 -7 15 8 9 13 11 36 16 14 23 27 -18 18 -20 29 41 -23 -24 47 59 26 33 -29 35 -31 42 -33 -34 -35 -36 -37 37 -39 39 -41 -42 46 50 44 -46 -47 -48 -49 -50 -51 51 53 -54 54 -56 56 -58 -59 -60 -61 61 -63
leaf_value=-0.022264249976513394 0.21098355868967569 1.7198138144708448 0.080979577820067081 0.48203623141341967 0.0087021448209781693 0.24564280391743504 0.11397907453775408 1.6631840017534072 1.7492588412377144 2.8571320663263773 0.35912050961186648 0.78010246881874667 0.95076892926142775 1.8096561789512635 2.7625862799192733 0.05516549430663157 0.38171937006170098 0.15038287490606309 0.44172769784927368 0.67659355764209395 0.036185857727781857 0.79037344019900091 -0.0078937619407658515 2.5054939868403419 0.15696664895852128 0.40457698822021487 0.36670066229556331 0.26251404557817726 0.59008169427831125 0.75647833618971572 0.29261786725261424 0.12221404179307292 0.33495511047301757 0.44726382980883966 0.38323392111001559 0.42639209419847979 0.7689059025804762 0.5925732183515362 0.52041678899363952 0.58360077245302378 0.54376568654004265 0.065874472986713367 0.16884576544031368 0.13704923463191565 0.005052872011994781 -0.010872191971415007 0.008680111214970098 2.2951392906683465 0.10206299104448549 0.4554176575669619 0.10901623342348182 0.28980750212061579 0.27059036928624314 0.48830335756366178 0.27427028243461354 0.15894058449514981 0.24457865104319235 0.0024877793247383225 -0.018533837797826552 0.10233281756007705 0.31368220246682954 0.16444672271022648
leaf_weight=434914 82 93 893 233 23874 653 100 62 62 81 378 93 52 56 76 539 275 140 496 1221 5790 93 49111 51 2553 250 589 186 846 1729 101 1482 124 710 485 83 142 1618 1246 2173 68 5947 111 589 1472 147 528 108 3982 107 115 1522 827 89 89 232 1366 274 113351 367 127 127
leaf_count=434914 82 93 893 233 23874 653 100 62 62 81 378 93 52 56 76 539 275 140 496 1221 5790 93 49111 51 2553 250 589 186 846 1729 101 1482 124 710 485 83 142 1618 1246 2173 68 5947 111 589 1472 147 528 108 3982 107 115 1522 827 89 89 232 1366 274 113351 367 127 127
internal_value=4.91399e-12 0.62661 -0.0130847 0.555881 -0.01773 0.508593 0.172077 2.18997 2.27813 2.36598 0.527982 0.564856 0.683988 2.46876 2.36066 0.242055 0.47221 0.136416 0.206426 0.705745 0.0234744 0.460791 -0.020375 2.49197 0.117557 0.450725 0.471868 0.108361 0.539223 0.723414 0.26286 0.139581 0.237076 0.410734 0.358323 0.575457 0.579419 0.6068 0.565958 0.560574 0.680283 0.049397 0.284464 0.0112843 0.0392036 0.107505 0.0612106 2.36261 0.0931076 0.376366 0.27752 0.282086 0.250865 0.299386 0.381287 0.225186 0.232146 0.0625505 -0.021493 0.157219 0.164396 0.239064
internal_weight=665280 13608 651672 13019 635723 9509 15949 589 496 434 8856 5718 3510 372 291 5384 327 10565 2242 3183 38347 3138 597376 235 8323 3045 2478 725 1179 2950 4659 1746 264 1299 567 929 5340 1760 3580 3419 161 12265 2961 26082 2208 736 6475 159 5149 208 2753 2642 942 1700 178 1698 1598 1167 548265 3174 2807 254
internal_count=665280 13608 651672 13019 635723 9509 15949 589 496 434 8856 5718 3510 372 291 5384 327 10565 2242 3183 38347 3138 597376 235 8323 3045 2478 725 1179 2950 4659 1746 264 1299 567 929 5340 1760 3580 3419 161 12265 2961 26082 2208 736 6475 159 5149 208 2753 2642 942 1700 178 1698 1598 1167 548265 3174 2807 254
is_linear=0
shrinkage=0.05


Tree=11
num_leaves=63
num_cat=0
split_feature=0 12 0 13 0 0 9 0 0 9 0 9 9 7 7 8 2 9 8 13 13 0 9 9 7 8 8 8 0 0 0 13 9 9 0 1 0 9 12 2 1 2 0 8 8 9 10 2 9 1 9 8 2 2 1 2 9 8 13 9 9 2
split_gain=1.96912e+06 543199 202350 31197.7 28471.3 25046.9 17501.1 14368.2 7920.91 6184.71 5948.95 5838.3 5406.08 5335.68 5112.06 5035.6 12730.1 4541.96 3758.24 3437.98 3365.29 2934.85 2185.23 2147.52 3683.48 2146.21 2123.79 2076.5 1648.63 1585.83 1368.89 1204.83 1067.25 961.678 902.539 808.697 754.301 751.277 731.109 710.523 1465.3 795.429 1141.3 792.019 686.78 1703.21 1411.35 682.108 572.672 497.115 493.126 515.142 951.488 481.436 735.917 478.34 474.39 525.053 448.017 446.835 575.482 633.946
threshold=11.542558673580068 142.29847500000002 3.2108255462797097 25.550000000000004 20.792086507096954 0.5914055425000001 -0.19467261866128607 7.3450086000000008 15.686069401117939 -0.99572243068690514 1.3760006201478194 -0.19467261866128607 0.19467261866128602 -0.27172193364249136 -0.48551001487321482 0.82968937203783699 4.1783351175217724 -0.99572243068690514 0.82968937203783699 23.950000000000003 28.350000000000005 4.8441821384056034 -0.65793410509763406 -0.97868534383143924 0.00018567612948252463 -0.94490267940017747 0.13052619222005182 -0.25881904510252113 24.9924509138981 0.16739635415067219 9.3327634327048603 20.850000000000005 -0.44134171618254464 0.19467261866128602 2.3983362211439343 3.2685922508927976 14.34426404791976 -0.99572243068690514 82.450630000000018 20.428380000000001 19.959533341799617 9.46880399437668 19.53345993531623 0.75023006073889154 0.97868534383143946 1.0000000180025095e-35 4.5000000000000009 5.1970310741380201 0.82968937203783688 8.4165862619990879 -0.99572243068690514 -0.97868534383143924 16.015900921193417 14.34426404791976 13.4989875 16.015900921193417 -0.99572243068690514 -0.97868534383143924 26.150000000000002 -0.97868534383143924 -0.94490267940017736 7.4844500181959015
decision_type=2 2 2 2 2 2 2 2 2 2 2 2 2 2 2 2 2 2 2 2 2 2 2 2 2 2 2 2 2 2 2 2 2 2 2 2 2 2 2 2 2 2 2 2 2 2 2 2 2 2 2 2 2 2 2 2 2 2 2 2 2 2
left_child=2 4 5 19 6 29 8 15 18 -10 44 17 30 -5 -13 21 32 58 23 22 -15 -4 26 37 27 -14 -3 -25 -19 -1 56 -28 35 59 -12 -17 -26 -2 -29 41 -41 43 -43 -11 -7 46 -46 49 -36 -32 -49 52 -52 -53 -55 -8 -9 -58 -6 -23 61 -61
right_child=1 3 7 13 11 10 55 12 9 39 34 14 25 20 -16 16 -18 28 -20 -21 -22 33 -24 24 36 -27 31 38 -30 -31 47 -33 -34 -35 48 -37 -38 -39 -40 40 -42 42 -44 -45 45 -47 -48 50 -50 -51 51 53 -54 54 -56 -57 57 -59 -60 60 -62 -63
leaf_value=-0.020627869624563391 0.20043438396802765 1.5010627760815978 0.084033284416803411 2.0924155526501793 0.35730221652984623 0.0042317771412596376 0.1382815333692865 0.1082801204919815 0.34116448876718997 0.74109734309616915 0.032824411380421671 0.90323048004737272 0.052407219491774605 2.3983731205646808 0.36263340542533185 0.14286373615264894 0.41964131430272134 0.6427638770516636 0.75085477687979263 1.9969328963238262 2.8035838325424951 0.11395799313806383 1.349784936813208 0.38434813327789308 0.34836563133019549 0.24938834304771118 1.6866554145812989 0.56057762434578395 0.71865441952226072 -0.011943468017046238 0.27798696059991818 2.0288147818367435 0.11610333941243439 0.026567883161450957 0.062580746490250236 0.3182073497003125 0.42490064312034931 0.36407222162816943 0.40507250004504103 0.73046060951662739 0.56294456004212312 0.49439596385481271 0.5544207373468546 0.51657739456962137 0.12562769741140387 0.0024262511510158508 -0.0086155291932768063 0.16040348007872299 0.0082461056708725122 0.43264676588718026 0.10356541851292488 0.27531712830614952 0.25706085148284341 0.46388819458779323 0.2605567747287536 0.25262161813827294 0.15099355298383485 0.23234972561086431 0.50570288142071496 0.15542457087974718 0.14860445578891807 0.27903486796074517
leaf_weight=526754 82 67 4458 70 75 33603 110 100 378 93 7703 52 539 104 275 140 496 1221 93 92 101 734 52 250 589 186 50 846 1729 58395 101 53 1482 168 5947 124 710 485 83 142 1618 1246 2173 68 651 1862 280 111 528 107 115 1522 827 89 89 543 232 1366 158 227 2545 191
leaf_count=526754 82 67 4458 70 75 33603 110 100 378 93 7703 52 539 104 275 140 496 1221 93 92 101 734 52 250 589 186 50 846 1729 58395 101 53 1482 168 5947 124 710 485 83 142 1618 1246 2173 68 651 1862 280 111 528 107 115 1522 827 89 89 543 232 1366 158 227 2545 191
internal_value=3.11308e-11 0.595279 -0.0124304 2.08047 0.528087 -0.0168435 0.483163 0.163473 0.501583 0.536613 0.016915 0.649789 0.229952 2.46932 0.4486 0.129595 0.196104 0.670458 0.437751 1.73993 2.59801 0.111679 1.63342 0.428189 0.448274 0.102943 1.72018 0.512262 0.687243 -0.0197612 0.249717 1.86272 0.132602 0.143566 0.0443905 0.225222 0.390198 0.340407 0.546684 0.550448 0.57646 0.53766 0.532546 0.646269 0.00621193 0.0300354 0.0852538 0.270241 0.0581501 0.357548 0.263644 0.267982 0.238322 0.284417 0.362222 0.233361 0.213927 0.220538 0.457934 0.148883 0.157535 0.211907
internal_weight=665280 13608 651672 589 13019 635723 9509 15949 8856 5718 50574 3510 5384 275 327 10565 2242 3183 3138 314 205 8323 222 3045 2478 725 170 1179 2950 585149 4659 103 1746 3865 14178 264 1299 567 929 5340 1760 3580 3419 161 36396 2793 931 2961 6475 208 2753 2642 942 1700 178 653 1698 1598 233 3697 2963 418
internal_count=665280 13608 651672 589 13019 635723 9509 15949 8856 5718 50574 3510 5384 275 327 10565 2242 3183 3138 314 205 8323 222 3045 2478 725 170 1179 2950 585149 4659 103 1746 3865 14178 264 1299 567 929 5340 1760 3580 3419 161 36396 2793 931 2961 6475 208 2753 2642 942 1700 178 653 1698 1598 233 3697 2963 418
is_linear=0
shrinkage=0.05


Tree=12
num_leaves=63
num_cat=0
split_feature=0 12 0 4 13 0 4 4 4 10 0 4 4 13 10 0 9 0 13 0 9 4 6 4 4 9 10 3 4 9 9 8 9 4 9 1 4 4 8 10 12 0 6 0 4 9 8 8 1 8 9 4 9 8 4 4 8 0 0 4 3 8
split_gain=1.77713e+06 490237 182621 32892.8 28271.8 22701.3 17181.1 16828.1 10940.9 8356.56 6244 5946.22 5352.76 4832.92 4563.16 3602.02 3508.44 3110.34 2867.45 2809.53 2438.3 2386.68 2057.85 1795 1769.01 1646.29 1601.38 2473.66 1417.87 1387.54 1277.12 1217.88 1190.34 1827.83 1143.19 1139.09 1074.39 997.734 842.436 883.224 806.893 769.684 712.95 689.777 666.074 637.957 2200.39 610.763 549.001 501.923 488.751 487.193 469.937 487.002 442.908 433.697 432.004 421.057 396.302 394.319 375.347 507.15
threshold=11.542558673580068 142.29847500000002 3.2108255462797097 18.836053235348963 26.250000000000004 0.83725199982302756 6.3000671277536133 3.2682289151922399 20.791204750415478 4.5000000000000009 20.792086507096954 13.200893697045872 10.163453615106274 23.950000000000003 1.0000000180025095e-35 1.5953462409801407 -0.19467261866128607 0.37305314458343153 29.750000000000004 4.8441821384056034 -0.65793410509763406 0.68881228571875652 3.0317897337578318e-05 15.246400141668799 4.2621181050487769 -0.97868534383143924 4.5000000000000009 4.2433425951253687 8.0017861222714348 -0.19467261866128607 -0.99572243068690514 1.0000000180025095e-35 -0.44134171618254464 0.5254544486623427 -0.75023006073889131 10.431043360719896 2.7088153972745066 24.999084493816991 0.82968937203783699 4.5000000000000009 57.45552 7.3450086000000008 0.004050000227537748 0.061121026043060994 2.7088153972745066 -0.065263096110025884 0.82968937203783699 0.13052619222005182 8.4165862619990879 -0.19467261866128624 0.19467261866128602 10.163453615106274 0.82968937203783688 -0.94490267940017747 13.200893697045872 0.93767452657207961 0.82968937203783699 14.34426404791976 24.9924509138981 8.0017861222714348 0.83717615022219327 0.94490267940017769
decision_type=2 2 2 2 2 2 2 2 2 2 2 2 2 2 2 2 2 2 2 2 2 2 2 2 2 2 2 2 2 2 2 2 2 2 2 2 2 2 2 2 2 2 2 2 2 2 2 2 2 2 2 2 2 2 2 2 2 2 2 2 2 2
left_child=2 3 5 7 13 17 14 10 -5 11 16 28 59 22 19 45 21 43 20 56 -6 -2 34 54 44 47 27 -10 -8 30 -12 49 33 41 -3 -27 52 -29 -38 -40 57 -21 -15 -1 -16 46 -7 -23 -34 -11 -50 -30 53 -17 -14 -52 -4 -37 -32 -9 -48 -62
right_child=1 4 6 8 18 15 9 12 26 31 29 -13 23 42 24 36 -18 -19 -20 32 -22 25 -24 -25 -26 35 -28 37 51 -31 58 -33 48 -35 -36 40 38 -39 39 -41 -42 -43 -44 -45 -46 -47 60 -49 50 -51 55 -53 -54 -55 -56 -57 -58 -59 -60 -61 61 -63
leaf_value=-0.020027899318943682 0.36011813185618058 1.541112107594808 0.080427152490729126 0.52802338671791715 2.4156990758488686 0.011046633134300109 0.17857144781780729 0.14449566768494665 1.0109017512377572 0.094182691403797703 0.41536400755246483 0.3999578276001105 0.31592415549168379 1.8430575579041388 0.02139043609037353 0.0081201273497925087 0.21970678656659226 -0.0032452391052649127 2.6136400187642952 0.15130426866320396 1.9820908595935682 0.34692014219797201 1.724562249724398 0.4312847913611344 0.11661349024485659 0.39664395085696519 0.42377286468233377 0.6226240793863933 0.23620229759495415 0.42304862392954085 0.61721262513774722 0.13873378494151942 0.10291935229036089 0.35027335000639204 1.2324606099128723 0.57696825848069311 0.059485479962693204 0.68660322815032815 0.20355667378063555 0.039774954128534275 0.5286129026139369 0.23764462971555594 2.0826065969467162 -0.015620731406360153 0.075541697483145653 0.004818350199606013 0.038914029522460293 0.51623447039355974 0.21265785061018005 -0.042913835107440679 0.043957834067393321 0.28189660208299755 -0.0059036376964752939 0.043370003058681279 0.36612210694840336 0.22042952731803611 0.16794119534038365 0.74212810822895603 0.68922030515504307 0.23708981433844667 0.17933176681399346 0.080610309554895204
leaf_weight=457274 349 75 878 3994 89 7506 985 151 51 126 60 595 703 82 722 1145 141 32404 95 492 51 197 97 963 3024 145 70 1068 2426 83 365 1283 365 238 50 86 3327 1419 216 133 976 543 50 110174 2660 14701 407 73 382 142 98 768 651 6793 1172 54 168 70 401 482 154 838
leaf_count=457274 349 75 878 3994 89 7506 985 151 51 126 60 595 703 82 722 1145 141 32404 95 492 51 197 97 963 3024 145 70 1068 2426 83 365 1283 365 238 50 86 3327 1419 216 133 976 543 50 110174 2660 14701 407 73 382 142 98 768 651 6793 1172 54 168 70 401 482 154 838
internal_value=1.22902e-11 0.565515 -0.0118089 0.501682 1.97645 -0.0160013 0.1553 0.42107 0.580036 0.219314 0.508958 0.252072 0.346475 1.69421 0.113229 0.0226364 0.460332 -0.0183118 2.40162 0.161805 2.25774 0.478226 1.55175 0.375799 0.0888267 0.504871 0.65969 0.666197 0.231016 0.617926 0.637508 0.118484 0.194226 0.225332 1.41765 0.528589 0.0446175 0.659128 0.0672379 0.141141 0.54549 0.196602 1.9338 -0.0191722 0.0639813 0.0112157 0.0217768 0.392698 0.15018 0.021542 0.182484 0.24719 0.0349362 0.0382855 0.347301 0.106652 0.0944829 0.651078 0.654909 0.215002 0.0793471 0.095936
internal_weight=665280 13608 651672 13019 589 635723 15949 6417 6602 6325 2946 4774 3471 354 9624 35871 2037 599852 235 3218 140 1896 222 2838 6406 1547 2608 2538 4179 909 826 1551 2172 1273 125 1277 12265 2487 3676 349 1132 1035 132 567448 3382 23606 8905 270 899 268 534 3194 8589 7938 1875 152 1046 156 766 633 1399 992
internal_count=665280 13608 651672 13019 589 635723 15949 6417 6602 6325 2946 4774 3471 354 9624 35871 2037 599852 235 3218 140 1896 222 2838 6406 1547 2608 2538 4179 909 826 1551 2172 1273 125 1277 12265 2487 3676 349 1132 1035 132 567448 3382 23606 8905 270 899 268 534 3194 8589 7938 1875 152 1046 156 766 633 1399 992
is_linear=0
shrinkage=0.05


Tree=13
num_leaves=63
num_cat=0
split_feature=0 0 0 7 1 0 9 8 0 0 9 7 9 7 0 9 9 8 2 3 0 8 9 7 0 7 0 13 8 7 7 8 13 0 10 2 9 8 0 0 0 0 0 2 1 2 0 8 2 9 8 2 8 9 2 5 9 9 8 3 1 9
split_gain=1.60386e+06 254093 164816 39909.3 38981.8 20487.9 19724.7 19374 15324 11701.3 9142.11 9061.02 7234.11 16290.7 6505.08 5085.38 4401.8 4116.01 10435.2 3986.03 3263.39 3199.58 3113.21 3067.78 2809.59 2638.42 2459.37 2195.79 1780.94 1768.61 2856.71 1756.43 1607.47 1161.05 1063.74 919.543 2176.51 839.776 824.743 776.341 720.075 712.566 659.189 601.315 1181.5 692.728 935.418 644.977 547.662 505.746 1872.55 552.486 471.321 469.419 443.579 427.95 422.894 422.759 422.947 806.123 420.044 408.822
threshold=11.542558673580068 26.158515311968554 3.2108255462797097 0.052535355517685879 26.142458224100974 0.83725199982302756 -0.19467261866128607 -0.25881904510252113 20.792086507096954 7.3450086000000008 -0.99572243068690514 0.14514679705667788 -0.19467261866128607 -0.039363597809597771 15.686069401117939 -0.99572243068690514 0.19467261866128602 0.82968937203783699 4.1783351175217724 26.131113085133077 1.3760006201478194 0.82968937203783699 -0.99572243068690514 -0.075860466710999316 0.40095431551644128 -1.7905990000804155 5.1882135022282556 23.150000000000002 -0.94490267940017747 0.00040690070304896803 -1.0000000180025095e-35 0.13052619222005182 33.550000000000004 9.3327634327048603 2.5000000000000004 3.1897773377980587 1.0000000180025095e-35 -0.25881904510252113 14.34426404791976 2.3983362211439343 24.9924509138981 24.9924509138981 0.078558774947837626 20.428380000000001 19.959533341799617 9.46880399437668 19.53345993531623 0.75023006073889154 5.1970310741380201 -0.065263096110025884 0.82968937203783699 0.83754469597595749 -0.94490267940017747 0.82968937203783688 16.015900921193417 0.012415540984309118 0.19467261866128602 -0.99572243068690514 -0.97868534383143924 19.096771935404501 8.4165862619990879 -0.19467261866128607
decision_type=2 2 2 2 2 2 2 2 2 2 2 2 2 2 2 2 2 2 2 2 2 2 2 2 2 2 2 2 2 2 2 2 2 2 2 2 2 2 2 2 2 2 2 2 2 2 2 2 2 2 2 2 2 2 2 2 2 2 2 2 2 2
left_child=2 6 5 7 -5 24 8 12 14 17 -9 -6 13 -3 21 -16 33 26 35 -12 49 29 -10 -21 42 -14 52 -13 -18 30 -2 -29 34 -11 -15 -19 -37 -32 -31 -22 -24 54 -1 45 -45 47 -47 -17 60 50 -7 -52 56 -41 -8 -27 -4 -50 59 -59 -35 -28
right_child=1 3 9 4 11 20 41 10 22 16 19 27 25 32 15 43 28 18 -20 23 39 -23 40 -25 -26 55 61 31 -30 38 37 -33 -34 48 -36 36 -38 -39 -40 53 -42 -43 -44 44 -46 46 -48 -49 57 -51 51 -53 -54 -55 -56 -57 -58 58 -60 -61 -62 -63
leaf_value=-0.018956268663316192 0.33724210740642335 1.7442585396316816 0.068153362482370847 0.74559859258938688 1.3899530408001439 0.0087605232563173832 0.12316964214498348 0.75487861803599765 0.39916055409275758 0.19240119876987241 1.1210332028071086 1.6624567985534668 0.82017141580581665 1.0586646818778884 0.30720744820498919 0.6721467156564036 0.04688623510145605 0.10091161430098008 0.37947963610772167 1.8159584410396623 0.029432143388036458 0.68374117350065589 0.57947009117460757 1.3821212599917156 -0.002574742527693282 0.28296639978025973 0.14187031797175523 1.9295129451022786 0.22632339908791488 0.30361512254287559 0.36738934191117378 2.2369217612526633 0.69414220909739655 0.2493610231002959 0.79851931170983759 0.31674339236183602 0.072705057577082996 0.49173360247650505 0.38091518960811283 0.056931997641474878 0.63421819891824738 0.35011215450470912 -0.014428103678051524 0.65919644463230187 0.50877491487708171 0.44590677151136565 0.50024849682758332 0.46953746255706341 0.14276181078171946 0.0036131946872622806 0.0037343678014074792 0.090837339748919652 0.087613861914045854 0.0077388765614931328 0.23209260962783718 0.48393169089599897 -0.0028567702203553961 0.093267192754705075 0.25726101281362423 0.23299778516142117 0.3915273140524036 0.085754376835613558
leaf_weight=472657 633 53 893 113 97 6509 110 56 196 1698 60 53 52 71 378 93 539 1380 496 81 7703 93 1221 82 30356 52 2807 157 186 656 161 66 172 101 88 176 190 867 728 5947 1182 114 96839 142 1618 1246 2173 68 111 13930 221 1033 3982 528 622 54 274 118 1700 824 107 367
leaf_count=472657 633 53 893 113 97 6509 110 56 196 1698 60 53 52 71 378 93 539 1380 496 81 7703 93 1221 82 30356 52 2807 157 186 656 161 66 172 101 88 176 190 867 728 5947 1182 114 96839 142 1618 1246 2173 68 111 13930 221 1033 3982 528 622 54 274 118 1700 824 107 367
internal_value=5.01403e-11 0.53724 -0.0112185 1.20007 1.55917 -0.0152013 0.466813 0.987491 0.484019 0.147535 1.32603 1.80565 0.813226 0.930399 0.452691 0.484436 0.207528 0.116962 0.177092 1.46946 0.0215046 0.394845 0.590771 1.59771 -0.0173962 0.528452 0.100764 1.95174 0.0929211 0.386021 0.420805 2.02049 0.800083 0.225362 0.914685 0.119598 0.190057 0.472259 0.344276 0.0401592 0.6064 0.233833 -0.0181863 0.496982 0.520911 0.485217 0.480445 0.586573 0.244264 0.00931242 0.0195392 0.0754867 0.0794245 0.0529206 0.215724 0.385345 0.0514809 0.238353 0.242369 0.215494 0.322495 0.135382
internal_weight=665280 13608 651672 1307 486 635723 12301 821 11455 15949 279 373 542 384 8856 5718 5384 10565 2242 223 35871 3138 2599 163 599852 158 8323 276 725 3045 1661 223 331 4659 159 1746 366 1028 1384 14178 2403 846 569496 5340 1760 3580 3419 161 2961 21693 7763 1254 5149 6475 732 106 1167 2753 2642 942 208 3174
internal_count=665280 13608 651672 1307 486 635723 12301 821 11455 15949 279 373 542 384 8856 5718 5384 10565 2242 223 35871 3138 2599 163 599852 158 8323 276 725 3045 1661 223 331 4659 159 1746 366 1028 1384 14178 2403 846 569496 5340 1760 3580 3419 161 2961 21693 7763 1254 5149 6475 732 106 1167 2753 2642 942 208 3174
is_linear=0
shrinkage=0.05


Tree=14
num_leaves=63
num_cat=0
split_feature=0 12 0 4 0 4 4 9 9 4 2 10 0 4 4 0 10 9 0 4 5 4 9 4 9 10 3 4 4 4 9 2 9 1 9 3 2 12 4 9 9 12 10 9 4 5 6 5 1 0 9 12 9 4 9 4 0 4 4 4 4 5
split_gain=1.44748e+06 409028 148838 26999.7 21408.7 13770.4 10525.8 8806.07 8728 8642.43 7977.21 6830.59 4893.53 4727.29 4443.5 4016.12 3645.02 2863.08 2538.96 1993.03 1669.33 1656.9 2220.78 1478.36 1377.67 1314.45 2300.81 1299.16 1164.77 1118.56 1096.87 1054.07 1042.91 961.671 893.68 751.618 2318.98 703.193 687.938 625.03 1103.83 831.392 764.564 730.94 1000.44 555.522 569.586 633.296 494.586 483.614 441.222 397.631 388.957 371.046 355.212 354.677 347.345 346.889 343.488 322.251 306.834 299.937
threshold=11.542558673580068 142.29847500000002 3.7331501484215899 18.836053235348963 0.83725199982302756 3.2682289151922399 6.3000671277536133 -0.97868534383143924 -0.32075123873380501 20.791204750415478 26.134309669722764 4.5000000000000009 20.792086507096954 13.200893697045872 10.163453615106274 2.1244456472781263 1.0000000180025095e-35 -0.19467261866128607 0.32469647762699977 0.68881228571875652 0.0015312877278895562 0.34560031486581594 -0.44134171618254464 15.246400141668799 -0.97868534383143924 4.5000000000000009 4.2433425951253687 0.68881228571875652 9.7336448954333861 3.2682289151922399 -0.19467261866128607 16.015900921193417 -0.99572243068690514 10.431043360719896 -0.065263096110025884 1.192500457262639 2.3983298899895455 57.45552 24.999084493816991 -0.5 -0.44134171618254464 1.7929475000000001 4.5000000000000009 -0.32075123873380501 5.2076691056028688 0.09686409274899814 0.0033219003997429389 0.0047750855520800007 1.3865481133220994 0.054370510143582733 0.82968937203783688 1.1682300000000001 -0.97868534383143924 4.9893757139039261 -0.065263096110025884 13.200893697045872 14.34426404791976 8.0017861222714348 0.5254544486623427 8.0017861222714348 19.959533341799617 0.02916769074721734
decision_type=2 2 2 2 2 2 2 2 2 2 2 2 2 2 2 2 2 2 2 2 2 2 2 2 2 2 2 2 2 2 2 2 2 2 2 2 2 2 2 2 2 2 2 2 2 2 2 2 2 2 2 2 2 2 2 2 2 2 2 2 2 2
left_child=2 3 4 5 18 12 16 -3 10 60 -9 13 17 28 59 34 21 19 49 -2 -12 -4 27 55 -21 26 -11 52 57 -18 32 54 -14 -26 39 36 -17 56 -28 -6 48 42 51 44 -44 46 47 -22 -41 -1 -37 -42 -23 -31 -24 -16 -35 -8 -20 -7 -5 -48
right_child=1 7 6 9 15 14 11 8 -10 25 20 -13 30 -15 23 35 29 -19 58 24 45 22 31 -25 33 -27 38 -29 -30 53 -32 -33 -34 37 -36 50 -38 -39 -40 40 41 -43 43 -45 -46 -47 61 -49 -50 -51 -52 -53 -54 -55 -56 -57 -58 -59 -60 -61 -62 -63
leaf_value=-0.018108828361441412 0.32372733118882496 1.3526811594604164 0.098722813991219571 0.46072523081702582 0.015253893781934542 0.12803168975754289 0.16202840007501207 1.4370714918259653 1.3279504743795243 0.93219219235812911 1.7869155627030595 0.10651894876927273 0.3716734615961711 0.36129125743076718 0.2843342095655873 0.054379476015529941 0.033366126686575168 0.19812107100977119 -0.0087064262038764346 0.35339059273401902 2.0067187091760466 0.14249686575987761 0.1348244506420325 0.38862962252378219 0.35646696468879435 0.38011444704873226 0.56262021618389457 0.36803683321197317 0.23742264029494387 0.083950771003076352 0.38173872106764689 0.21771191080056487 0.588141011195768 0.5244900076888328 0.0046536788617554071 0.047017071216231672 0.22850222454770752 0.47747577814782255 0.61574603501468417 0.05389890325112412 0.048428372639493081 0.0068327321534636448 0.18718183577992023 -0.0062712111521718078 -0.0018417681823484598 2.1993292819369925 1.8917442667073219 2.2367337453932992 0.17062107374041863 -0.014420341884784183 0.0042754481438021718 0.12951140776461467 0.22723178104595379 0.11369511275336652 0.066254371072924173 0.32925485510874936 0.67449805242674699 0.20187543763811011 0.00071550786636468875 0.21173777220407464 0.48875618585574082 2.055494840056808
leaf_weight=450409 349 93 870 1699 8074 151 985 62 62 51 52 1547 60 580 703 1134 844 141 19981 270 57 170 368 963 145 70 1068 154 1911 2525 83 252 766 86 15740 8168 230 976 1419 156 242 1685 140 560 140 88 58 63 217 110711 652 403 666 1793 388 1172 70 1226 18751 482 2295 54
leaf_count=450409 349 93 870 1699 8074 151 985 62 62 51 52 1547 60 580 703 1134 844 141 19981 270 57 170 368 963 145 70 1068 154 1911 2525 83 252 766 86 15740 8168 230 976 1419 156 242 1685 140 560 140 88 58 63 217 110711 652 403 666 1793 388 1172 70 1226 18751 482 2295 54
internal_value=-1.1723e-10 0.510378 -0.0106575 0.452071 -0.014234 0.379036 0.148992 1.79916 1.88288 0.52306 1.96215 0.197655 0.458539 0.227639 0.311557 0.0223955 0.111121 0.415492 -0.0165264 0.431657 2.04967 0.156315 0.181393 0.338275 0.456006 0.593854 0.599749 0.234584 0.208834 0.0860116 0.555006 0.129152 0.572417 0.477702 0.0124174 0.0491992 0.0837404 0.493231 0.592932 0.0229366 0.0404444 0.0308712 0.0581471 0.0267092 0.09267 2.09236 2.05179 2.12748 0.121804 -0.0173811 0.0438575 0.0990896 0.210001 0.0963018 0.0996324 0.312413 0.591801 0.184124 -0.00414506 0.19177 0.476832 1.9707
internal_weight=665280 13608 651672 13019 637393 6417 14279 589 496 6602 434 6249 2946 4702 3471 37541 8030 2037 599852 1896 372 2868 1998 2838 1547 2608 2538 990 4122 5162 909 1008 826 1277 27357 10184 1364 1132 2487 11617 3543 3170 1485 840 280 320 232 120 373 561120 8820 645 836 4318 756 1875 156 2211 38732 633 3994 112
internal_count=665280 13608 651672 13019 637393 6417 14279 589 496 6602 434 6249 2946 4702 3471 37541 8030 2037 599852 1896 372 2868 1998 2838 1547 2608 2538 990 4122 5162 909 1008 826 1277 27357 10184 1364 1132 2487 11617 3543 3170 1485 840 280 320 232 120 373 561120 8820 645 836 4318 756 1875 156 2211 38732 633 3994 112
is_linear=0
shrinkage=0.05


Tree=15
num_leaves=63
num_cat=0
split_feature=0 12 0 13 0 0 0 8 0 13 0 7 0 8 8 7 13 6 7 7 2 8 13 2 8 0 8 2 3 0 13 12 8 0 8 2 2 0 2 1 8 6 8 0 7 3 8 7 3 1 13 8 12 8 8 3 8 8 8 0 12 2
split_gain=1.30635e+06 369147 134472 24846.9 18167.2 14471.4 13011.6 11227.3 5462.07 3889.17 3814.24 3801.19 3028.47 2738.64 2371.1 3402.61 1694.3 1619.22 1528.85 2382.36 1438.89 3485.79 1310.48 1275.29 5647.2 1801.48 1101.3 1917.53 1215.83 992.911 983.581 808.825 949.501 735.039 623.426 2447.46 600.972 748.549 961.982 968.304 557.029 547.992 524.865 510.681 508.654 495.529 473.045 450.748 442.984 405.429 363.241 363.076 793.659 360.226 354.348 315.473 301.171 506.24 456.354 300.597 283.839 260.084
threshold=11.542558673580068 142.29847500000002 2.8213976237097542 26.250000000000004 20.792086507096954 0.54453495605761659 4.8441821384056034 -0.97868534383143924 15.686069401117939 23.950000000000003 10.023511623231625 -0.27172193364249136 1.3760006201478194 0.82968937203783699 -0.97868534383143924 -0.48551001487321482 28.350000000000005 3.0317897337578318e-05 0.00040690070304896803 -1.0000000180025095e-35 16.015900921193417 -0.94490267940017747 23.850000000000005 1.5710122035493146 0.82968937203783699 7.3450086000000008 0.82968937203783699 3.1897773377980587 3.7837629446830658 0.12059954502582863 21.050000000000004 82.450630000000018 -0.25881904510252113 14.34426404791976 0.82968937203783699 1.5710122035493146 9.46880399437668 19.53345993531623 20.798739036993833 20.790810277138977 0.82968937203783699 0.004050000227537748 0.75023006073889154 24.9924509138981 0.002599623465221522 7.9360045748199095 -0.94490267940017747 -0.024165558209570965 24.961424851797588 19.126417874503051 23.650000000000002 0.13052619222005182 107.87120000000002 -0.94490267940017747 -0.94490267940017747 19.096771935404501 0.13052619222005182 -0.19467261866128624 1.0000000180025095e-35 1.073618710305013 33.159895000000013 5.1970310741380201
decision_type=2 2 2 2 2 2 2 2 2 2 2 2 2 2 2 2 2 2 2 2 2 2 2 2 2 2 2 2 2 2 2 2 2 2 2 2 2 2 2 2 2 2 2 2 2 2 2 2 2 2 2 2 2 2 2 2 2 2 2 2 2 2
left_child=2 4 5 9 7 29 26 55 13 17 20 -5 40 18 15 -6 -13 30 19 -9 21 44 51 -23 25 45 53 -28 50 -1 -3 32 -21 -20 54 -36 42 38 49 -40 59 -11 -10 -24 -8 56 -12 -47 -17 -38 -29 52 -16 -4 -14 -2 57 -25 -59 -7 -22 -48
right_child=1 3 6 11 14 12 10 8 36 41 46 16 34 -15 22 48 -18 -19 33 31 60 23 43 24 -26 -27 27 28 -30 -31 -32 -33 -34 -35 35 -37 37 -39 39 -41 -42 -43 -44 -45 -46 47 61 -49 -50 -51 -52 -53 -54 -55 -56 -57 -58 58 -60 -61 -62 -63
leaf_value=-0.016981072572576649 0.13283627992326563 1.0260854510068895 0.039319981733545672 1.7524245634282893 0.75848573813071618 -0.00042478792019768767 0.054736926852435364 0.30324540543141904 0.60979743772937411 1.5799825073287983 0.16300300253547639 2.0449067992049379 0.0055201219230895764 0.62261051133034695 0.47208507717202564 0.21743888810828882 2.3562709581733929 1.4701065441996781 0.27035781082970139 0.33280028260272482 0.1489624770358205 0.10631956670188557 0.52164854983591658 0.12265684749649673 0.33842278043245944 0.18836071979824603 0.05620577756223108 0.25291534409378519 0.12760066439297574 -0.010996744136793071 1.3123809726536275 0.30624279006709898 0.46671938868940521 0.34315889612004002 0.02856268200572509 0.19716290820884022 0.37135937508810041 0.44634121750999611 0.58970262330906997 0.39745754631421043 0.017373989640340128 1.7899984798431399 0.42702498821651241 0.56650803144498219 0.13311645639321162 0.12229078351312382 0.29072953450679778 0.23882485384290872 0.36050037906213772 0.43172206471160968 0.40685130666803437 0.49339562880841997 0.23311220337362851 0.071088044552943902 0.032773179819231869 0.21293725927835677 0.13363903792889256 -0.011609958269581291 0.10051168196906264 0.012309817968823938 0.21659413619557083 0.22959551997148422
leaf_weight=502678 165 50 1082 57 52 25707 1159 633 93 82 247 77 1358 93 109 81 101 97 662 161 192 1096 965 781 434 1908 484 132 242 80400 75 123 744 728 942 279 958 3945 131 131 7107 50 68 1852 252 157 200 176 163 392 54 237 51 5091 9800 482 1547 161 208 5653 808 1337
leaf_count=502678 165 50 1082 57 52 25707 1159 633 93 82 247 77 1358 93 109 81 101 97 662 161 192 1096 965 781 434 1908 484 132 242 80400 75 123 744 728 942 279 958 3945 131 131 7107 50 68 1852 252 157 200 176 163 392 54 237 51 5091 9800 482 1547 161 208 5653 808 1337
internal_value=2.46269e-11 0.484859 -0.0101247 1.7092 0.429467 -0.013925 0.125618 0.393582 0.408262 1.44461 0.160515 2.10778 0.0116574 0.355325 0.526684 0.391268 2.22158 1.31682 0.347178 0.379556 0.14711 0.13994 0.539155 0.155473 0.165501 0.150303 0.0730969 0.124384 0.201482 -0.0161559 1.19786 0.426545 0.442895 0.308487 0.0331681 0.067088 0.43737 0.434611 0.405903 0.49358 0.00473508 1.65953 0.532602 0.551141 0.0687353 0.126338 0.227229 0.183882 0.313009 0.388887 0.297606 0.454108 0.395912 0.0655198 0.0294563 0.19251 0.119233 0.0998541 0.0515914 0.00187077 0.203609 0.23755
internal_weight=665280 13608 651672 589 13019 633924 17748 9509 8862 354 10663 235 50846 3144 3510 296 178 222 3051 1661 8879 7879 3214 6468 5372 4938 7085 912 428 583078 125 1028 905 1390 12379 1221 5718 5557 1612 262 38467 132 161 2817 1411 3030 1784 333 244 1350 186 397 160 6173 11158 647 2697 1150 369 31360 1000 1537
internal_count=665280 13608 651672 589 13019 633924 17748 9509 8862 354 10663 235 50846 3144 3510 296 178 222 3051 1661 8879 7879 3214 6468 5372 4938 7085 912 428 583078 125 1028 905 1390 12379 1221 5718 5557 1612 262 38467 132 161 2817 1411 3030 1784 333 244 1350 186 397 160 6173 11158 647 2697 1150 369 31360 1000 1537
is_linear=0
shrinkage=0.05


Tree=16
num_leaves=63
num_cat=0
split_feature=0 12 0 13 0 0 8 0 0 7 0 7 13 8 2 8 13 8 7 0 8 2 7 7 13 0 8 13 0 12 8 7 8 2 3 0 8 2 2 0 2 1 8 0 0 3 1 8 12 0 2 3 1 1 3 0 3 7 8 2 1 2
split_gain=1.17898e+06 333155 121435 22461.2 17441.9 16395.9 10132.6 6539.66 4929.52 4039.61 3286.65 2531.82 2801.49 2480.1 7477.21 2471.62 2248.67 2139.92 3070.86 2101.44 2059.71 2503.37 1379.79 2150.08 1182.71 1145.65 927.301 823.062 756.301 729.965 856.924 715.908 701.169 1539.39 840.797 663.373 568.885 1351.35 542.377 675.565 868.188 873.894 473.69 460.89 420.264 399.793 365.9 327.676 716.277 303.844 299.768 367.032 375.627 353.253 314.632 295.724 284.715 268.182 257.385 396.152 362.985 267.101
threshold=11.542558673580068 142.29847500000002 3.7331501484215899 25.550000000000004 0.83725199982302756 20.792086507096954 -0.97868534383143924 7.3450086000000008 15.686069401117939 -0.48551001487321482 2.1244456472781263 -0.015100397758105526 21.050000000000004 0.82968937203783699 4.1783351175217724 0.82968937203783699 26.850000000000005 -0.97868534383143924 -0.48551001487321482 0.23534515247936852 -0.94490267940017747 16.015900921193417 0.00040690070304896803 -1.0000000180025095e-35 23.850000000000005 5.1882135022282556 -0.25881904510252113 30.650000000000002 9.3327634327048603 82.450630000000018 -0.25881904510252113 0.0015121563976761706 0.82968937203783699 2.3983298899895455 2.8217734302235886 14.34426404791976 0.82968937203783699 1.5710122035493146 9.46880399437668 19.53345993531623 20.798739036993833 20.790810277138977 0.75023006073889154 24.9924509138981 1.1834930934553627 24.961424851797588 19.126417874503051 0.13052619222005182 107.87120000000002 0.034820552719048929 5.1970310741380201 13.319422834782484 13.4989875 8.4165862619990879 26.131113085133077 0.40095431551644128 19.096771935404501 0.027815864586788055 -0.94490267940017747 7.4844500181959015 8.4165862619990879 16.015900921193417
decision_type=2 2 2 2 2 2 2 2 2 2 2 2 2 2 2 2 2 2 2 2 2 2 2 2 2 2 2 2 2 2 2 2 2 2 2 2 2 2 2 2 2 2 2 2 2 2 2 2 2 2 2 2 2 2 2 2 2 2 2 2 2 2
left_child=2 5 4 11 19 6 56 13 15 -5 36 -3 -13 25 -15 22 -11 18 -7 49 21 31 23 -8 47 -4 -14 -18 57 30 -25 -9 -12 -34 -35 -24 44 -38 42 40 46 -42 -10 -26 -6 -20 -40 48 -19 -1 53 -52 54 -30 -53 -21 -2 -22 61 -60 -61 -27
right_child=1 3 7 9 10 17 8 20 38 16 32 12 26 14 -16 -17 27 24 45 55 28 -23 35 29 43 58 -28 -29 50 -31 -32 -33 33 34 -36 -37 37 -39 39 -41 41 -43 -44 -45 -46 -47 -48 -49 -50 -51 51 52 -54 -55 -56 -57 -58 -59 59 60 -62 -63
leaf_value=-0.016527600941624806 0.12619446424823819 1.0085479584932329 0.075531228696782263 1.5789080228721888 0.0019646618636412479 0.72056144842734704 0.28808313606286312 0.057823831196022191 0.57930756486872192 1.7940417639544752 0.040959859886790295 1.1602137812446145 1.6245429262857547 0.10113284712188815 0.32569889503140609 0.59147999421242747 2.0723556426336183 0.44848082678033674 0.20656694041358101 -0.0097969089367542696 0.20884801005189485 0.19491144334196406 0.25683991581291593 0.31616027207108022 0.49556612709025649 0.058724949017743625 1.3969048424081487 2.3168101404227466 0.2098511617962677 0.29093064641564842 0.44338341896892874 0.16243849226918361 0.03611721644334704 0.24594650524918751 0.034603176845444575 0.32600095344113783 0.02095389309816556 0.15808069103507585 0.3527914041392739 0.42402415779606928 0.56021749299901136 0.37758467907213983 0.40567374650169824 0.53818262527187888 0.016122077714399899 0.34247536388642952 0.4101359773655327 0.46872583964705972 0.22145659269071094 -0.013851467428444026 0.20452968267713489 0.37840582433637682 0.20160018107930169 0.34022554816486683 0.23235605762850856 -0.0021042550315175132 0.20229040453542813 0.15916191405314772 0.11602776037102176 0.24138103864324376 0.12183706755713215 0.14589556385489072
leaf_weight=404503 165 50 3758 57 13202 52 633 765 93 61 9507 85 88 1467 496 93 106 109 81 21231 370 930 662 161 965 336 91 51 101 123 744 208 428 186 63 728 5275 186 958 3945 131 131 68 1852 8694 163 392 237 51 143762 1607 91 122 107 62 30356 482 1021 2465 127 127 119
leaf_count=404503 165 50 3758 57 13202 52 633 765 93 61 9507 85 88 1467 496 93 106 109 81 21231 370 930 662 161 965 336 91 51 101 123 744 208 428 186 63 728 5275 186 958 3945 131 131 68 1852 8694 163 392 237 51 143762 1607 91 122 107 62 30356 482 1021 2465 127 127 119
internal_value=4.99389e-11 0.460616 -0.00961843 1.62374 -0.0128489 0.407994 0.373903 0.134587 0.387849 1.95368 0.0202133 1.33479 1.39658 0.108261 0.157875 0.337559 2.05167 0.50035 0.371705 -0.0149181 0.17808 0.136253 0.329819 0.360578 0.512197 0.0942119 1.50882 2.15176 0.200946 0.405217 0.42075 0.0801875 0.0444609 0.0936251 0.192474 0.293062 0.0111868 0.0256244 0.415501 0.41288 0.385608 0.468901 0.505972 0.523584 0.00758599 0.297358 0.369443 0.431402 0.376117 -0.0158259 0.219959 0.213664 0.267041 0.276919 0.319222 -0.00527022 0.182884 0.172378 0.11633 0.122154 0.181609 0.0815234
internal_weight=665280 13608 651672 589 637393 13019 9509 14279 8862 275 37541 314 264 8895 1963 3144 218 3510 296 599852 5384 1903 3051 1661 3214 6932 179 157 3481 1028 905 973 10184 677 249 1390 27357 5461 5718 5557 1612 262 161 2817 21896 244 1350 397 160 548265 2090 1882 275 208 153 51587 647 1391 3174 2719 254 455
internal_count=665280 13608 651672 589 637393 13019 9509 14279 8862 275 37541 314 264 8895 1963 3144 218 3510 296 599852 5384 1903 3051 1661 3214 6932 179 157 3481 1028 905 973 10184 677 249 1390 27357 5461 5718 5557 1612 262 161 2817 21896 244 1350 397 160 548265 2090 1882 275 208 153 51587 647 1391 3174 2719 254 455
is_linear=0
shrinkage=0.05


Tree=17
num_leaves=63
num_cat=0
split_feature=1 1 1 7 4 9 4 1 13 9 10 4 7 9 3 8 4 4 9 7 13 4 9 7 4 10 9 4 9 4 1 8 13 8 10 4 8 4 3 4 7 3 4 4 7 7 4 4 4 4 4 8 8 8 8 1 9 8 13 10 4 1
split_gain=1.02535e+06 160230 99047.8 61282.2 30186.5 20324.6 13717.5 12906.9 12800.9 11960.7 9533.31 8983.74 6793.99 6678.57 6324.21 5944.24 5353.01 4682.96 4497.39 9082.53 6527.29 3894.3 3892.38 3619.57 3273.86 2867.9 2689.72 2205.86 2194.62 2071.9 1860.87 1434.94 1174.51 1435.05 1135.52 1126.28 1103.37 1057.21 964.26 889.572 858.662 752.254 676.585 657.984 636.567 625.805 603.557 600.025 599.336 581.627 533.716 482.801 470.327 563.339 1060.74 446.141 433.455 419.515 413.55 404.986 482.357 407.792
threshold=10.431043360719896 26.142458224100974 2.8216025945984615 0.052535355517685879 18.836053235348963 -0.19467261866128607 6.3000671277536133 0.54731122967320933 28.450000000000003 -0.19467261866128607 4.5000000000000009 6.3000671277536133 -0.022672362334485368 -0.97868534383143924 26.131113085133077 0.75023006073889154 13.200893697045872 0.68881228571875652 -0.97868534383143924 -0.09010789546244756 25.850000000000005 20.791204750415478 -0.97868534383143924 3.2155359797055065 1.8062064920249381 4.5000000000000009 -0.19467261866128607 3.7902221470961615 -0.97868534383143924 13.200893697045872 4.9903549889876704 1.0000000180025095e-35 24.850000000000005 -0.65793410509763384 4.5000000000000009 2.7088153972745066 0.13052619222005182 26.168977949418636 19.096771935404501 0.20073071032931378 0.024072764750447579 20.792086507096954 2.8213976237097542 0.34560031486581594 0.73045002837303574 4.231593000000001 9.7336448954333861 5.2076691056028688 1.0783359169538462 15.246400141668799 10.163453615106274 -0.97868534383143924 0.55438071450436044 0.89495246814786289 0.82968937203783699 6.3135344021173285 -0.97868534383143924 -0.25881904510252113 24.350000000000005 1.0000000180025095e-35 1.0783359169538462 1.3865481133220994
