tree
version=v4
num_class=1
num_tree_per_iteration=1
label_index=0
max_feature_idx=11
objective=regression
feature_names=hour_sin hour_cos dow is_weekend occupancy_intensity lights_frac setpoint_c outdoor_temp outdoor_rh outdoor_ghi area_m2 category
feature_infos=[-1:1] [-1:1] [0:6] [0:1] [0:1.3800000000000001] [0:1] [23:27] [23:42] [42:100] [0:958] [16:190.09999999999999] [0:4]
tree_sizes=5634 5955 5969 5973 5965 5982 5982 5996 5989 5997 5995 6012 6032 5989 6001 6002 6011 6014 5996 6002 6036 6008 6003 6034 6010 6003 5985 6017 5978 6012 6024 6030 6024 6027 6006 6042 6039 6003 6010 6015 5994 6054 6005 6011 6045 5973 6066 6025 5997 6028 5979 6000 5988 5987 6059 5986 5970 6034 5975 6011 6025 6013 5964 5974 5971 6004 6017 5965 6019 5993 6013 5997 5996 5991 5968 5961 5979 6031 6000 5971 5975 5997 5984 5973 5982 5938 6029 5923 5945 5991 5932 5940 5919 5933 6010 5956 5964 5851 5992 5873 5944 5863 5931 5909 5908 5932 5983 5859 5900 5948 5855 5856 5947 5906 5874 5855 5844 5865 5949 5935 5834 5933 5949 5880 5917 5912 5914 5957 5857 5867 5822 5923 5967 5927 5859 5963 5915 5951 5941 5876 5850 5935 5928 5863 5879 5964 5956 5901 5916 5884 5833 5952 5918 5875 5905 5898 5787 5937 5894 5855 5892 5914 5966 5842 5904 5929 5893 5909 5936 5946 5834 5882 5889 5810 5872 5808 5852 5863 5898 5835 5896 5883 5887 5903 5815 5857 5813 5814 5818 5911 5927 5912 5876 5885 5925 5847 5808 5901 5943 5875 5903 5784 5817 5866 5950 5909 5785 5842 5803 5872 5832 5837 5859 5927 5892 5819 5973 5818 5843 5978 5865 5820 5893 5840 5817 5924 5939 5790 5758 5841 5842 5888 5932 5910 5796 5807 5880 5884 5936 5826 5860 5802 5879 5829 5953 5812 5864 5751 5818 5973 5844 5849 5716 5897 5830 5869 5844 5940 5934 5840 5843 5888 5852 5772 5855 5749 5827 5866 5887 5765 5845 5861 5962 5861 5908 5827 5779 5817 5938 5878 5923 5850 5965 5941 5962 5827 5949 5944 5975 5721 5797 5869 5910 5750 5845 5846 5742 5818 5706 5854 5846 5956 5903 5864 5785 5795 5901 5812 5977 5852 5896 5905 5883 5837 5786 5842 5846 5925 5906 5810 5883 5847 5904 5873 5836 5827 5886 5827 5865 5811 5870 5906 5806 5832 5739 5804 5903 5872 5725 5879 5743 5782 5850 5741 5846 5728 5822 5778 5854 5814 5893 5894 5902 5846 5842 5802 5778 5831 5906 5826 5707 5786 5846 5840 5811 5911 5878 5776 5833 5856 5899 5850 5778 5824 5866 5924 5840 5822 5842 5873 5863 5900 5861 5873 5982 5831 5866 5811 5846 5903 5912 5916 5969 5804 5861 5820 5910 5869 5825 5836

Tree=0
num_leaves=63
num_cat=0
split_feature=1 6 2 2 6 7 2 2 6 6 2 2 7 6 10 10 7 2 10 2 2 7 7 7 7 10 7 2 0 8 8 10 2 6 8 0 7 6 10 6 6 7 7 10 7 2 6 7 7 10 7 6 10 0 6 2 8 6 7 10 2 2
split_gain=894145 419377 219714 556948 83476.8 74781.4 47497.7 120432 27668.9 22305.3 20063.9 51105.7 17599.3 15832.8 15747.2 11220.7 7961.34 6469.81 6065.53 4179.62 11126.3 4024.5 2996.01 2492.47 2090.68 1998.16 1912 4730.34 3996.72 1872.36 1863.82 1631.78 1589.83 1145.68 1129.19 2416.02 1107.18 869.449 807.617 800.285 789.769 783.273 777.463 755.774 749.887 746.311 743.88 716.311 677.844 675.93 672.321 653.828 587.417 563.165 518.211 494.973 484.993 480.085 474.381 538.009 399.303 390.076
threshold=1.0000000180025095e-35 24.500000000000004 3.5000000000000004 1.5000000000000002 25.500000000000004 26.350000000000005 3.5000000000000004 1.5000000000000002 26.500000000000004 23.500000000000004 3.5000000000000004 1.5000000000000002 28.450000000000003 23.500000000000004 114.30000000000001 114.30000000000001 29.350000000000005 4.5000000000000009 114.30000000000001 3.5000000000000004 1.5000000000000002 29.650000000000002 29.350000000000005 29.350000000000005 29.350000000000005 28.150000000000002 25.300000000000001 1.5000000000000002 -1.0000000180025095e-35 99.500000000000014 98.500000000000014 28.150000000000002 4.5000000000000009 24.500000000000004 93.500000000000014 -0.78656609248549292 26.900000000000002 24.500000000000004 114.30000000000001 24.500000000000004 24.500000000000004 31.350000000000005 29.100000000000005 28.150000000000002 26.900000000000002 3.5000000000000004 24.500000000000004 26.900000000000002 27.900000000000002 114.30000000000001 26.900000000000002 24.500000000000004 114.30000000000001 0.78656609248549325 24.500000000000004 2.5000000000000004 99.500000000000014 24.500000000000004 30.900000000000002 114.30000000000001 2.5000000000000004 1.5000000000000002
decision_type=2 2 2 2 2 2 2 2 2 2 2 2 2 2 2 2 2 2 2 2 2 2 2 2 2 2 2 2 2 2 2 2 2 2 2 2 2 2 2 2 2 2 2 2 2 2 2 2 2 2 2 2 2 2 2 2 2 2 2 2 2 2
left_child=1 2 3 13 6 15 7 -3 10 -4 11 -6 14 -1 31 17 25 26 42 20 -10 39 38 44 47 36 27 28 56 -29 53 40 54 60 35 45 -5 -36 50 61 55 51 43 -14 -13 -28 -33 -22 -27 -46 -9 -23 -49 -30 -17 -7 -2 -19 59 -18 -16 -20
right_child=5 4 9 16 8 12 -8 22 19 -11 -12 23 18 -15 33 32 58 57 21 -21 24 41 -24 -25 -26 48 34 29 30 -31 -32 46 -34 -35 37 -37 -38 -39 -40 -41 -42 -43 -44 -45 49 -47 -48 52 -50 -51 -52 -53 -54 -55 -56 -57 -58 -59 -60 -61 -62 -63
leaf_value=26.516227458770146 26.60876616266151 26.616216478303148 26.516261529080602 26.660625726751334 26.666140079273038 26.737805499286548 26.616245975977048 26.663050160334077 26.715743273479081 26.566245068469627 26.66626005327814 26.660830482268203 26.761663071910299 26.566216158030532 26.677408274453555 26.630994621720951 26.75461354094773 26.72442138548988 26.693114668160977 26.716247704223235 26.665937768388805 26.738270820535217 26.763387903049949 26.763842059007537 26.764209005240161 26.646126258205559 26.624161244420232 26.589007469386516 26.757890031306168 26.67654132927111 26.67758945323482 26.724274326695966 26.683581064621137 26.709746404141541 26.685629915584773 26.735844338351672 26.738159345208174 26.70670024470348 26.679696622181996 26.734507727295981 26.754887098590213 26.759988924814518 26.764782893522604 26.749367950972363 26.74048367503681 26.725972035998193 26.742542055992509 26.743347137626735 26.696343205345404 26.691711795602661 26.737047356340753 26.754083031998046 26.697880618810228 26.720088304990611 26.654932851474534 26.751166185641946 26.686627646373445 26.742500532202232 26.763794860775363 26.706290586195635 26.698193267311407 26.719812826313451
leaf_weight=31680 1200 31680 44640 504 31680 14904 44640 336 31680 44640 44640 420 49995 31680 4968 3768 2880 6120 1896 44640 420 10896 24840 24840 24840 864 720 1680 1440 960 2400 9288 3825 13932 8160 5280 5328 12240 972 10215 41796 25200 211200 16665 3552 240 13932 3552 3024 888 3552 16344 888 3120 5652 12960 240 9180 46080 720 4320 4914
leaf_count=31680 1200 31680 44640 504 31680 14904 44640 336 31680 44640 44640 420 49995 31680 4968 3768 2880 6120 1896 44640 420 10896 24840 24840 24840 864 720 1680 1440 960 2400 9288 3825 13932 8160 5280 5328 12240 972 10215 41796 25200 211200 16665 3552 240 13932 3552 3024 888 3552 16344 888 3120 5652 12960 240 9180 46080 720 4320 4914
internal_value=26.7013 26.6554 26.6009 26.6443 26.6917 26.7473 26.6555 26.684 26.7098 26.5413 26.6918 26.7103 26.7544 26.5412 26.7375 26.6976 26.7543 26.7078 26.76 26.7279 26.7364 26.7468 26.7564 26.7574 26.7583 26.7129 26.6967 26.6792 26.6976 26.6208 26.7133 26.7467 26.6564 26.7007 26.704 26.7226 26.7315 26.6983 26.7205 26.7257 26.7505 26.7536 26.7633 26.7586 26.7247 26.6496 26.7352 26.7283 26.6852 26.7307 26.7307 26.7478 26.7343 26.732 26.6454 26.744 26.6217 26.7353 26.7624 26.7449 26.6871 26.7124
internal_weight=1.05975e+06 530100 212040 122760 318060 529650 106020 61380 212040 89280 106020 61380 463425 63360 116100 66225 59400 52980 347325 106020 61380 69465 29700 29700 29700 9720 37680 11040 8400 2640 6960 92880 13245 23220 26640 6240 5832 20400 4860 17025 69660 52440 277860 66660 4860 960 23220 4860 3888 4440 3888 27240 4440 4560 9420 27864 1440 15300 49680 3600 9288 6810
internal_count=1059750 530100 212040 122760 318060 529650 106020 61380 212040 89280 106020 61380 463425 63360 116100 66225 59400 52980 347325 106020 61380 69465 29700 29700 29700 9720 37680 11040 8400 2640 6960 92880 13245 23220 26640 6240 5832 20400 4860 17025 69660 52440 277860 66660 4860 960 23220 4860 3888 4440 3888 27240 4440 4560 9420 27864 1440 15300 49680 3600 9288 6810
is_linear=0
shrinkage=1


Tree=1
num_leaves=63
num_cat=0
split_feature=1 6 2 2 6 7 2 2 6 6 2 2 7 6 10 11 7 2 10 2 2 7 7 7 7 10 7 2 0 8 8 10 2 6 8 0 7 6 10 6 6 6 7 10 7 2 6 7 7 10 2 10 0 6 2 7 7 10 8 6 9 1
split_gain=806966 378488 198292 502646 75337.8 67490.2 42866.7 108690 24971.2 20130.5 18107.6 46122.9 15883.8 14289.1 14053.5 10126.6 7185.11 5839 5556.51 3772.11 10041.5 3720.92 2703.9 2249.46 1886.84 1803.34 1725.58 4269.13 3607.04 1689.8 1682.09 1459.61 1434.82 1019.67 1019.1 2180.46 999.228 784.678 749.522 736.429 722.792 711.266 704.032 694.4 676.773 673.546 658.577 646.471 611.754 610.027 580.118 530.144 508.256 467.685 465.549 459.26 439.872 789.835 437.706 433.277 382.434 557.239
threshold=-1.0000000180025095e-35 24.500000000000004 3.5000000000000004 1.5000000000000002 25.500000000000004 26.350000000000005 3.5000000000000004 1.5000000000000002 26.500000000000004 23.500000000000004 3.5000000000000004 1.5000000000000002 28.100000000000005 23.500000000000004 114.30000000000001 1.0000000180025095e-35 29.350000000000005 4.5000000000000009 114.30000000000001 3.5000000000000004 1.5000000000000002 29.650000000000002 29.350000000000005 29.350000000000005 29.350000000000005 28.150000000000002 25.300000000000001 1.5000000000000002 -1.0000000180025095e-35 99.500000000000014 98.500000000000014 28.150000000000002 4.5000000000000009 24.500000000000004 93.500000000000014 -0.78656609248549292 26.900000000000002 24.500000000000004 28.150000000000002 24.500000000000004 24.500000000000004 24.500000000000004 29.100000000000005 28.150000000000002 26.900000000000002 3.5000000000000004 24.500000000000004 26.900000000000002 27.900000000000002 114.30000000000001 1.5000000000000002 114.30000000000001 0.78656609248549325 24.500000000000004 2.5000000000000004 26.900000000000002 32.350000000000009 114.30000000000001 99.500000000000014 24.500000000000004 113.50000000000001 -0.60355339059327384
decision_type=2 2 2 2 2 2 2 2 2 2 2 2 2 2 2 2 2 2 2 2 2 2 2 2 2 2 2 2 2 2 2 2 2 2 2 2 2 2 2 2 2 2 2 2 2 2 2 2 2 2 2 2 2 2 2 2 2 2 2 2 2 2
left_child=1 2 3 13 6 15 7 -3 10 -4 11 -6 14 -1 31 32 25 26 42 20 -10 39 38 44 47 36 27 28 58 -29 52 41 53 -16 35 45 -5 -36 55 -20 50 54 43 -14 -13 -28 -33 -22 -27 -46 -23 -49 -30 -2 -7 -9 57 -18 -17 -19 61 -38
right_child=5 4 9 16 8 12 -8 22 19 -11 -12 23 18 -15 33 17 56 59 21 -21 24 40 -24 -25 -26 48 34 29 30 -31 -32 46 -34 -35 37 -37 60 -39 -40 -41 -42 -43 -44 -45 49 -47 -48 51 -50 -51 -52 -53 -54 -55 -56 -57 -58 -59 -60 -61 -62 -63
leaf_value=-0.17582903620871626 -0.066800230609861441 -0.080839463544614354 -0.17579667059110485 -0.038650679449358634 -0.033412045493270447 0.034361042148791807 -0.080811444065904112 -0.030291184756372658 0.013710990492865947 -0.12831230627379539 -0.03329807069559839 -0.038456162960041666 0.057359300748779686 -0.12833977428048549 -0.013507226612011182 -0.08791726572439075 0.05654401193975115 0.021955196074650185 0.0102427013250264 0.014190199541057984 -0.033604240593988276 0.028226235208661705 0.058973386388476691 0.059404833094028157 0.05975343289073623 -0.052425175813658388 -0.073291938437679269 -0.1066880227696328 0.053750410520733573 -0.0235308573650597 -0.022535139359096016 0.021782589004184654 -0.016843109511089315 0.00796383066696312 -0.014896700807724962 0.032807000666540319 -0.017132017409989608 0.0051201124540283692 -0.0058554276358042407 0.031358255006692613 0.05450164995350424 0.050808888173396329 0.060298627466646965 0.045637113431759607 0.037214371514923399 0.023428313550903114 0.039038050270882203 0.039934659539651446 -0.004719074644152315 -0.0091189140802704384 0.047356700614403571 -0.0032585327633307053 0.017838768243209183 -0.044058911021516017 0.04736275473975661 0.040328497795524276 0.061059609984349984 0.027207822119630423 -0.013948855795497367 0.039130384672252688 0.046067416026617694 0.036740849788701679
leaf_weight=31680 3768 31680 44640 504 31680 14688 44640 252 31680 44640 44640 420 50535 31680 9216 1200 11472 6120 6882 44640 420 5304 24840 24840 24840 864 720 1680 1440 960 2400 9216 3825 13824 8160 5280 720 12240 1944 10323 31464 41472 211200 16845 3552 240 13824 3552 3024 888 15672 888 3120 5652 12960 2664 35340 2868 240 9180 3168 1440
leaf_count=31680 3768 31680 44640 504 31680 14688 44640 252 31680 44640 44640 420 50535 31680 9216 1200 11472 6120 6882 44640 420 5304 24840 24840 24840 864 720 1680 1440 960 2400 9216 3825 13824 8160 5280 720 12240 1944 10323 31464 41472 211200 16845 3552 240 13824 3552 3024 888 15672 888 3120 5652 12960 2664 35340 2868 240 9180 3168 1440
internal_value=-5.48045e-10 -0.0436125 -0.0953569 -0.0541223 -0.00911632 0.0436496 -0.0435305 -0.016417 0.00809075 -0.152054 -0.00906779 0.00855423 0.0503967 -0.152084 0.0343028 -0.00356482 0.0503707 0.00621119 0.0557209 0.0252493 0.0332923 0.0430889 0.0523003 0.0533183 0.054179 0.0110563 -0.00436608 -0.0209874 -0.00355658 -0.0764491 0.0113467 0.0430346 -0.0426689 -0.000624592 0.00252202 0.0202041 0.0286408 -0.00288661 0.0181932 0.022912 0.0497087 0.0466676 0.0588789 0.0544288 0.0222091 -0.0491119 0.0321359 0.0256874 -0.0153204 0.0279477 0.0425194 0.031296 0.0291793 -0.0531554 0.0404556 0.0342256 0.0580626 0.0506768 -0.0755892 0.0322603 0.0350063 0.0187832
internal_weight=1.05975e+06 530100 212040 122760 318060 529650 106020 61380 212040 89280 106020 61380 463425 63360 115200 66225 59400 52980 348225 106020 61380 69645 29700 29700 29700 9720 37680 11040 8400 2640 6960 92160 13245 23040 26640 6240 5832 20400 4860 17205 52440 69120 278580 67380 4860 960 23040 4860 3888 4440 20976 4440 4560 9420 27648 2916 49680 14340 1440 15300 5328 2160
internal_count=1059750 530100 212040 122760 318060 529650 106020 61380 212040 89280 106020 61380 463425 63360 115200 66225 59400 52980 348225 106020 61380 69645 29700 29700 29700 9720 37680 11040 8400 2640 6960 92160 13245 23040 26640 6240 5832 20400 4860 17205 52440 69120 278580 67380 4860 960 23040 4860 3888 4440 20976 4440 4560 9420 27648 2916 49680 14340 1440 15300 5328 2160
is_linear=0
shrinkage=0.05


Tree=2
num_leaves=63
num_cat=0
split_feature=1 6 2 2 6 7 2 2 6 6 2 2 7 6 11 10 7 2 10 2 2 7 7 7 7 11 7 2 0 8 8 10 2 7 6 6 7 10 6 6 7 10 7 6 9 1 7 0 10 7 8 0 6 10 0 8 0 6 7 10 2 2
split_gain=728286 341586 178958 453638 67992.4 60909.9 38687.2 98092.8 22536.5 18167.8 16342.2 41625.9 14337 12895.9 12831.4 9139.29 6484.56 5269.7 4938.54 3404.33 9062.44 3275.35 2440.27 2030.13 1702.88 1685.67 1557.34 3852.89 3255.35 1525.05 1518.09 1329.38 1294.93 1203.14 933.477 930.662 718.411 684.315 648.983 643.606 633.409 615.351 610.787 606.75 588.527 733.682 583.44 564.451 564.241 561.914 557.033 967.354 545.392 478.716 459.352 627.901 458.701 435.249 409.299 455.02 404.031 403.24
threshold=-1.0000000180025095e-35 24.500000000000004 3.5000000000000004 1.5000000000000002 25.500000000000004 26.350000000000005 3.5000000000000004 1.5000000000000002 26.500000000000004 23.500000000000004 3.5000000000000004 1.5000000000000002 28.450000000000003 23.500000000000004 1.0000000180025095e-35 114.30000000000001 29.350000000000005 4.5000000000000009 114.30000000000001 3.5000000000000004 1.5000000000000002 29.100000000000005 29.350000000000005 29.350000000000005 29.350000000000005 1.0000000180025095e-35 25.300000000000001 1.5000000000000002 -1.0000000180025095e-35 99.500000000000014 98.500000000000014 28.150000000000002 4.5000000000000009 26.900000000000002 24.500000000000004 24.500000000000004 31.350000000000005 114.30000000000001 24.500000000000004 24.500000000000004 29.100000000000005 28.150000000000002 26.900000000000002 24.500000000000004 113.50000000000001 -0.60355339059327384 26.900000000000002 0.78656609248549325 28.150000000000002 26.900000000000002 93.500000000000014 -0.78656609248549292 24.500000000000004 28.150000000000002 -0.9159756150367534 93.500000000000014 0.78656609248549325 25.500000000000004 30.900000000000002 114.30000000000001 1.0000000180025095e-35 2.5000000000000004
decision_type=2 2 2 2 2 2 2 2 2 2 2 2 2 2 2 2 2 2 2 2 2 2 2 2 2 2 2 2 2 2 2 2 2 2 2 2 2 2 2 2 2 2 2 2 2 2 2 2 2 2 2 2 2 2 2 2 2 2 2 2 2 2
left_child=1 2 3 13 6 15 7 -3 10 -4 11 -6 14 -1 34 17 25 26 40 20 -10 38 37 42 46 -5 27 28 60 -29 56 39 57 47 -7 54 52 49 -20 61 41 -14 -13 -33 45 -35 -22 -27 -44 -9 51 -37 -23 -48 -28 -56 -30 -17 59 -18 -2 -16
right_child=5 4 9 16 8 12 -8 22 19 -11 -12 23 18 -15 31 32 58 -19 21 -21 24 36 -24 -25 -26 33 35 29 30 -31 -32 43 -34 44 -36 50 -38 -39 -40 -41 -42 -43 48 -45 -46 -47 53 -49 -50 -51 -52 -53 -54 -55 55 -57 -58 -59 -60 -61 -62 -63
leaf_value=-0.16703757760199658 -0.045324981898657926 -0.076797493768460789 -0.16700683323072277 -0.031140558260714313 -0.031741443522876604 -0.012857037528357105 -0.076770869038438286 -0.035138355692227681 0.013025441689139437 -0.12189668880782248 -0.031633166935708772 -0.036533353385199183 0.054466830676371918 -0.12192278590768274 0.032935387293911551 -0.059273087621991218 0.047810541650091333 0.030647294277038242 0.0096272099248032525 0.013480689691477305 -0.031924028203634193 0.0329555941965788 0.05602472055312966 0.056434596236514867 0.056765761973000123 0.069214754800001776 -0.085687826395345237 -0.10135362220307192 0.051062886400343302 -0.022354314705880826 -0.021408383102049511 0.020717114609555966 -0.016000953211019187 -0.026154929541533724 0.0076067040164219009 -0.032700881087091856 0.053240518604681833 -0.020240558629832518 0.029768092751938355 0.048354638629249054 0.057283699233816814 0.043372576430345054 0.041103753668756182 0.037215372867372018 0.038846807242775457 0.027379576916080929 0.043136375432320302 -0.061739863651908117 0.004720190286896157 0.032510743118673253 0.0048641062144467537 0.037740346581910736 0.047302700648205763 0.0096234879472249651 0.015406351591202773 -0.014151865444594692 0.016946830664400739 -0.037334537413071668 0.056428013812075989 0.0033705453132703653 -0.098294494690166587 0.044994618577198865
leaf_weight=31680 720 31680 44640 1944 31680 9288 44640 336 31680 44640 44640 420 49995 31680 14904 5652 2880 15300 6666 44640 420 11040 24840 24840 24840 96 192 1680 1440 960 2400 9288 3825 960 13932 576 25200 972 9999 41796 211200 16665 2664 13932 4224 1920 2664 576 1776 3552 12240 3168 16560 1776 2304 8160 3120 3768 46080 720 720 12960
leaf_count=31680 720 31680 44640 1944 31680 9288 44640 336 31680 44640 44640 420 49995 31680 14904 5652 2880 15300 6666 44640 420 11040 24840 24840 24840 96 192 1680 1440 960 2400 9288 3825 960 13932 576 25200 972 9999 41796 211200 16665 2664 13932 4224 1920 2664 576 1776 3552 12240 3168 16560 1776 2304 8160 3120 3768 46080 720 720 12960
internal_value=7.07548e-10 -0.0414319 -0.090589 -0.0514161 -0.0086605 0.0414671 -0.0413539 -0.0155962 0.00768622 -0.144452 -0.0086144 0.00812652 0.0478769 -0.14448 0.0326658 -0.00338658 0.0478522 0.00590063 0.0529615 0.0239868 0.0316277 0.0410372 0.0496852 0.0506524 0.05147 0.0105035 -0.00414778 -0.019938 -0.00337875 -0.0726266 0.0107794 0.0409769 -0.0405354 0.0209145 -0.000578793 0.00239592 0.0471368 0.0172835 0.0217117 0.0444305 0.0559425 0.0516933 0.0210987 0.0306161 0.0269635 0.00953474 0.024403 -0.0430321 0.0265503 0.0266645 0.0100264 0.0269032 0.0415639 0.0297312 -0.00904984 -0.00764363 0.0277203 -0.0504977 0.0551595 0.0389225 -0.0718097 0.0385443
internal_weight=1.05975e+06 530100 212040 122760 318060 529650 106020 61380 212040 89280 106020 61380 463425 63360 116100 66225 59400 52980 347325 106020 61380 69465 29700 29700 29700 9720 37680 11040 8400 2640 6960 92880 13245 7776 23220 26640 52800 4860 16665 69660 277860 66660 4860 23220 7104 2880 4860 672 4440 3888 15984 3744 27600 4440 10656 10464 4560 9420 49680 3600 1440 27864
internal_count=1059750 530100 212040 122760 318060 529650 106020 61380 212040 89280 106020 61380 463425 63360 116100 66225 59400 52980 347325 106020 61380 69465 29700 29700 29700 9720 37680 11040 8400 2640 6960 92880 13245 7776 23220 26640 52800 4860 16665 69660 277860 66660 4860 23220 7104 2880 4860 672 4440 3888 15984 3744 27600 4440 10656 10464 4560 9420 49680 3600 1440 27864
is_linear=0
shrinkage=0.05


Tree=3
num_leaves=63
num_cat=0
split_feature=1 6 2 2 6 7 2 2 6 6 2 2 7 6 10 11 7 2 11 2 2 7 7 7 7 10 7 2 0 8 8 10 2 8 0 6 7 6 10 7 6 2 6 7 10 10 6 7 7 6 2 7 10 10 0 6 6 2 7 10 8 7
split_gain=657279 308281 161510 409408 61363.1 54976.8 34915.2 88528.8 20339.2 16396.5 14748.8 37567.4 12824.9 11638.6 11333.4 8364.17 5852.32 4727.65 4526.79 3072.41 8178.85 3032.91 2202.34 1832.2 1536.84 1527.67 1452.76 3468.01 2969 1376.35 1352.71 1186.26 1157.7 923.811 1843.17 856.425 813.851 679.025 635.421 633.561 599.942 590.171 573.886 571.854 565.789 554.388 533.201 531.921 526.555 488.139 468.259 455.899 449.596 414.17 413.978 404.928 392.505 389.925 379.494 684.577 377.365 373.741
threshold=1.0000000180025095e-35 24.500000000000004 3.5000000000000004 1.5000000000000002 25.500000000000004 26.650000000000002 3.5000000000000004 1.5000000000000002 26.500000000000004 23.500000000000004 3.5000000000000004 1.5000000000000002 28.100000000000005 23.500000000000004 114.30000000000001 1.0000000180025095e-35 29.350000000000005 4.5000000000000009 1.0000000180025095e-35 3.5000000000000004 1.5000000000000002 29.650000000000002 29.350000000000005 29.350000000000005 29.350000000000005 28.150000000000002 25.100000000000005 1.5000000000000002 -1.0000000180025095e-35 99.500000000000014 99.500000000000014 28.150000000000002 4.5000000000000009 93.500000000000014 -0.78656609248549292 25.500000000000004 26.900000000000002 25.500000000000004 28.150000000000002 31.350000000000005 24.500000000000004 3.5000000000000004 24.500000000000004 29.100000000000005 28.150000000000002 114.30000000000001 24.500000000000004 27.900000000000002 26.900000000000002 24.500000000000004 2.5000000000000004 26.900000000000002 114.30000000000001 28.150000000000002 0.78656609248549325 24.500000000000004 24.500000000000004 2.5000000000000004 32.350000000000009 114.30000000000001 99.500000000000014 26.900000000000002
decision_type=2 2 2 2 2 2 2 2 2 2 2 2 2 2 2 2 2 2 2 2 2 2 2 2 2 2 2 2 2 2 2 2 2 2 2 2 2 2 2 2 2 2 2 2 2 2 2 2 2 2 2 2 2 2 2 2 2 2 2 2 2 2
left_child=1 2 3 13 6 15 7 -3 10 -4 11 -6 14 -1 31 32 25 26 21 20 -10 40 38 45 48 36 27 28 60 -29 54 42 56 34 41 50 -5 53 61 49 -14 -28 57 44 -20 51 -33 -27 -22 -23 -16 -13 -50 -35 -30 -19 -2 -7 59 -18 -17 -9
right_child=5 4 9 16 8 12 -8 22 19 -11 -12 23 18 -15 35 17 58 55 43 -21 24 39 -24 -25 -26 47 33 29 30 -31 -32 46 -34 37 -36 -37 -38 -39 -40 -41 -42 -43 -44 -45 -46 -47 -48 -49 52 -51 -52 -53 -54 -55 -56 -57 -58 -59 -60 -61 -62 -63
leaf_value=-0.15868570325049483 -0.060259876460650591 -0.072957619500882656 -0.15865649667905651 -0.034566542287431071 -0.030154371514464869 0.030996221329162011 -0.07293232991490313 -0.027019706729149065 0.012374168585922345 -0.11580185161910178 -0.030051507022645741 -0.027180945398166453 0.0092365610846473056 -0.115826637416777 -0.016951332488160307 -0.079666069116443403 0.051003579321180853 0.019186092303554853 0.051774553101178566 0.012806655036250678 -0.03032782746201736 0.031380972535430075 0.053223481259426678 0.053612864808509644 0.053927472371655953 -0.048897834315074662 -0.067606520553001453 -0.096285940476116688 0.048509744402829007 -0.021236599065016435 -0.021699527596625367 0.019676871289125028 -0.015391382574121152 -0.004794459436023836 0.030092149439230914 0.011395889498669357 0.031907766302143835 0.0084383013564646725 -0.0057232555568241233 0.050578491791937845 0.028295185500659587 0.022929797450293943 0.045881436338694598 0.054419511406320398 0.0411934458038965 -0.013730764744320402 0.035243784270862985 -0.00441330877512026 0.036200019719836413 0.045043541617717092 0.0015442656440075538 0.033753259685147134 -0.0035767799400026248 -0.025911254040087778 0.016099489361207444 0.035661181814228338 -0.03949244012784462 0.042930634525669586 0.055185232377350547 0.023692023855609843 -0.010985163887392749 0.036686535369903163
leaf_weight=31680 3792 31680 44640 504 31680 14688 44640 252 31680 44640 44640 336 6882 31680 7344 1200 11472 6216 50535 44640 420 10896 24840 24840 24840 864 720 1680 1440 960 2160 9168 3885 9288 5520 9168 5328 8256 1944 25200 10323 240 41256 211200 16845 972 13752 3024 3552 16344 6408 3552 888 3096 3120 9324 5688 12816 35340 2868 240 2664
leaf_count=31680 3792 31680 44640 504 31680 14688 44640 252 31680 44640 44640 336 6882 31680 7344 1200 11472 6216 50535 44640 420 10896 24840 24840 24840 864 720 1680 1440 960 2160 9168 3885 9288 5520 9168 5328 8256 1944 25200 10323 240 41256 211200 16845 972 13752 3024 3552 16344 6408 3552 888 3096 3120 9324 5688 12816 35340 2868 240 2664
internal_value=-8.43176e-11 -0.0393603 -0.0860596 -0.0488453 -0.00822748 0.0393938 -0.0392862 -0.0148164 0.00730191 -0.137229 -0.00818368 0.00772019 0.0455148 -0.137256 0.0310062 -0.0030002 0.0454596 0.00584447 0.0502896 0.0227875 0.0300463 0.038888 0.047201 0.0481197 0.0488965 0.00997834 -0.00367406 -0.0191824 -0.00306645 -0.0689953 0.0108949 0.0388681 -0.0383789 0.00250183 0.0189715 -0.000441423 0.0261631 -0.00266887 0.0164193 0.0448645 0.0206717 -0.0449724 0.0421518 0.05314 0.0491293 0.0200437 0.029017 -0.0142988 0.0231828 0.0395785 -0.00833296 0.0284873 0.0282447 -0.0100737 0.0263343 0.0290711 -0.0477994 0.0365573 0.0524015 0.0455413 -0.0682193 0.0311811
internal_weight=1.05975e+06 530100 212040 122760 318060 529650 106020 61380 212040 89280 106020 61380 462825 63360 114600 66825 59400 53460 348225 106020 61380 69645 29700 29700 29700 9720 37920 10800 8160 2640 6720 91680 13365 27120 6480 22920 5832 20640 4860 52440 17205 960 68760 278580 67380 4860 22920 3888 4860 27240 13752 3888 4440 12384 4560 15540 9480 27504 49680 14340 1440 2916
internal_count=1059750 530100 212040 122760 318060 529650 106020 61380 212040 89280 106020 61380 462825 63360 114600 66825 59400 53460 348225 106020 61380 69645 29700 29700 29700 9720 37920 10800 8160 2640 6720 91680 13365 27120 6480 22920 5832 20640 4860 52440 17205 960 68760 278580 67380 4860 22920 3888 4860 27240 13752 3888 4440 12384 4560 15540 9480 27504 49680 14340 1440 2916
is_linear=0
shrinkage=0.05


Tree=4
num_leaves=63
num_cat=0
split_feature=1 6 2 2 6 7 2 2 6 6 2 2 7 6 11 10 7 2 10 2 2 7 7 7 10 7 7 2 0 8 8 10 2 7 8 0 6 6 7 7 6 2 9 2 10 1 10 7 10 0 6 7 2 6 2 2 6 10 0 10 6 6
split_gain=593194 278224 145763 369491 55380.2 49616.5 31510.9 79897.2 18356.1 14797.8 13310.8 33904.6 11574.5 10503.8 10228.4 7548.66 5281.72 4266.71 4085.43 2772.85 7381.42 2739.72 1987.61 1653.56 1429.39 1387 1311.53 3137.43 2650.84 1242.16 1238 1070.6 1044.82 991.125 826.258 1663.46 772.924 597.822 584.297 583.626 557.829 539.407 538.032 532.63 531.976 530.774 519.926 516.098 510.625 509.417 489.244 475.215 450.602 443.872 429.192 422.604 419.957 405.761 373.615 372.627 372.346 365.783
threshold=1.0000000180025095e-35 24.500000000000004 3.5000000000000004 1.5000000000000002 25.500000000000004 26.650000000000002 3.5000000000000004 1.5000000000000002 26.500000000000004 23.500000000000004 3.5000000000000004 1.5000000000000002 28.100000000000005 23.500000000000004 1.0000000180025095e-35 114.30000000000001 29.350000000000005 4.5000000000000009 114.30000000000001 3.5000000000000004 1.5000000000000002 29.100000000000005 29.350000000000005 29.350000000000005 114.30000000000001 29.350000000000005 25.300000000000001 1.5000000000000002 -1.0000000180025095e-35 99.500000000000014 98.500000000000014 28.150000000000002 4.5000000000000009 26.900000000000002 93.500000000000014 -0.78656609248549292 25.500000000000004 25.500000000000004 31.350000000000005 26.900000000000002 25.500000000000004 2.5000000000000004 218.50000000000003 3.5000000000000004 114.30000000000001 -0.60355339059327384 28.150000000000002 29.100000000000005 28.150000000000002 0.78656609248549325 25.500000000000004 26.900000000000002 1.5000000000000002 24.500000000000004 2.5000000000000004 2.5000000000000004 25.500000000000004 114.30000000000001 0.78656609248549325 28.150000000000002 24.500000000000004 25.500000000000004
decision_type=2 2 2 2 2 2 2 2 2 2 2 2 2 2 2 2 2 2 2 2 2 2 2 2 2 2 2 2 2 2 2 2 2 2 2 2 2 2 2 2 2 2 2 2 2 2 2 2 2 2 2 2 2 2 2 2 2 2 2 2 2 2
left_child=1 2 3 13 6 15 7 -3 10 -4 11 -6 14 -1 36 17 24 26 47 20 -10 40 39 46 33 51 27 28 -2 -29 58 41 61 49 35 43 55 59 53 -9 52 56 45 -28 -41 -35 -13 48 -14 -5 54 -22 -20 -23 -33 -7 -16 -53 -30 -36 -50 -17
right_child=5 4 9 16 8 12 -8 22 19 -11 -12 23 18 -15 31 32 -18 -19 21 -21 25 38 -24 -25 -26 -27 34 29 30 -31 -32 50 -34 42 37 -37 -38 -39 -40 44 -42 -43 -44 -45 -46 -47 -48 -49 60 -51 -52 57 -54 -55 -56 -57 -58 -59 -60 -61 -62 -63
leaf_value=-0.15075141904028971 -0.064808288934547265 -0.069309737754590636 -0.15072366682218397 0.067661487559477484 -0.028646651168796024 -0.016103766227150915 -0.069285711787080248 -0.040737639462264878 0.011755460451000945 -0.11001176105818869 -0.028548933532502919 0.032394480185211162 0.049185827534896961 -0.11003530707925258 0.031541556998014628 -0.053428659402324198 0.049781448484337375 0.027617590232801605 -0.0044791604002460276 0.012166322337368677 -0.02881143647961186 0.029753206421712849 0.050562306755464352 0.050932223218169419 -0.028868591519560907 0.051231101148504793 -0.064226192758716133 -0.091471645888828113 0.046084257609885403 -0.020174769256251467 -0.019348139657554081 0.013350564034997202 -0.01462181282637681 -0.013109616680956802 -0.0044235878439302248 0.028587542068413525 0.010826094703742944 0.0080112937575783829 0.048049567970499502 0.029581001303960203 0.030529953492633884 0.044785136265313254 0.040320847366516928 0.021783307658042761 -0.013686767045139998 0.025373539962344066 -0.00098788646264662858 0.051698535534496715 0.030029322288949389 -0.056745401474957671 0.036513038229802668 0.034390018328272862 0.01873829035384085 0.042696312774267824 0.031057816313002747 0.0014670519949171838 0.04245635180061591 -0.0033979416816454196 0.015294514086787015 -0.024570850139887364 0.045203406120310152 -0.03338061989941607
leaf_weight=31680 1440 31680 44640 96 31680 7344 44640 420 31680 44640 44640 2916 50535 31680 22032 5688 49680 15540 2952 44640 420 11040 24840 24840 1944 24840 720 1680 1440 960 2400 7344 3885 1344 9180 5520 9168 8160 25200 3552 6738 32040 3072 240 888 2688 1944 211200 6738 576 9168 3552 7155 16560 6408 6408 14688 888 3120 3060 10107 3792
leaf_count=31680 1440 31680 44640 96 31680 7344 44640 420 31680 44640 44640 2916 50535 31680 22032 5688 49680 15540 2952 44640 420 11040 24840 24840 1944 24840 720 1680 1440 960 2400 7344 3885 1344 9180 5520 9168 8160 25200 3552 6738 32040 3072 240 888 2688 1944 211200 6738 576 9168 3552 7155 16560 6408 6408 14688 888 3120 3060 10107 3792
internal_value=7.0428e-11 -0.0373923 -0.0817566 -0.0464031 -0.0078161 0.0374241 -0.0373219 -0.0140755 0.00693681 -0.130368 -0.0077745 0.00733419 0.0432391 -0.130393 0.0294559 -0.00285019 0.0431866 0.00555225 0.0477751 0.0216481 0.028544 0.0369436 0.0448409 0.0457137 0.00947942 0.0464517 -0.00349035 -0.0179999 -0.00305705 -0.0655455 0.00971906 0.0369247 -0.03646 0.0190664 0.00246894 0.0180229 -0.000419352 -0.00247172 0.042545 0.0155984 0.0193862 0.0400442 0.0245566 -0.0427238 0.0209274 0.0125458 0.0190415 0.050483 0.0466728 -0.038973 0.0275662 0.0220237 0.0119571 0.0375191 0.0216016 -0.00791632 0.0359075 0.0268324 0.0250176 -0.0094604 0.0391338 -0.0454094
internal_weight=1.05975e+06 530100 212040 122760 318060 529650 106020 61380 212040 89280 106020 61380 462825 63360 114600 66825 59400 53460 348225 106020 61380 69645 29700 29700 9720 29700 37920 11040 8400 2640 6960 91680 13365 7776 26880 6480 22920 20400 52800 4860 16845 68760 7104 960 4440 4032 4860 278580 67380 672 22920 4860 10107 27600 13752 13752 36720 4440 4560 12240 16845 9480
internal_count=1059750 530100 212040 122760 318060 529650 106020 61380 212040 89280 106020 61380 462825 63360 114600 66825 59400 53460 348225 106020 61380 69645 29700 29700 9720 29700 37920 11040 8400 2640 6960 91680 13365 7776 26880 6480 22920 20400 52800 4860 16845 68760 7104 960 4440 4032 4860 278580 67380 672 22920 4860 10107 27600 13752 13752 36720 4440 4560 12240 16845 9480
is_linear=0
shrinkage=0.05


Tree=5
num_leaves=63
num_cat=0
split_feature=1 6 2 2 6 7 2 2 6 6 2 2 7 6 10 11 7 2 11 2 2 7 7 7 10 7 6 10 2 2 7 2 0 6 8 7 0 7 2 0 8 8 8 0 10 6 7 6 6 2 0 7 7 2 10 6 10 7 8 10 8 1
split_gain=535358 251097 131551 333466 49980.6 44781.8 28438.6 72107.2 16566.4 13355 12013 30598.9 10541.9 9479.71 9319.89 6719.68 4766.75 3876.12 3687.1 2502.5 6661.73 2472.6 1793.82 1492.34 1294.09 1251.77 1235.28 968.89 954.176 755.614 1269.54 764.749 972.818 724.155 716.782 676.835 669.632 593.968 1142.8 1091.37 567.055 543.155 542.594 616.544 541.594 539.238 507.309 504.094 500.869 496.856 480.172 465.778 464.265 464.265 460.839 452.102 432.788 428.882 406.022 381.015 368.921 354.881
threshold=1.0000000180025095e-35 24.500000000000004 3.5000000000000004 1.5000000000000002 25.500000000000004 26.350000000000005 3.5000000000000004 1.5000000000000002 26.500000000000004 23.500000000000004 3.5000000000000004 1.5000000000000002 28.100000000000005 23.500000000000004 114.30000000000001 1.0000000180025095e-35 29.350000000000005 4.5000000000000009 1.0000000180025095e-35 3.5000000000000004 1.5000000000000002 29.100000000000005 29.350000000000005 29.350000000000005 28.150000000000002 29.350000000000005 24.500000000000004 28.150000000000002 4.5000000000000009 1.0000000180025095e-35 25.900000000000002 1.5000000000000002 -1.0000000180025095e-35 24.500000000000004 99.500000000000014 27.900000000000002 -1.0000000180025095e-35 25.900000000000002 1.5000000000000002 -1.0000000180025095e-35 99.500000000000014 97.000000000000014 93.500000000000014 -0.78656609248549292 28.150000000000002 24.500000000000004 26.900000000000002 24.500000000000004 24.500000000000004 1.5000000000000002 -1.0000000180025095e-35 29.100000000000005 27.900000000000002 3.5000000000000004 28.150000000000002 24.500000000000004 114.30000000000001 26.900000000000002 99.500000000000014 28.150000000000002 93.500000000000014 -0.60355339059327384
decision_type=2 2 2 2 2 2 2 2 2 2 2 2 2 2 2 2 2 2 2 2 2 2 2 2 2 2 2 2 2 2 2 2 2 2 2 2 2 2 2 2 2 2 2 2 2 2 2 2 2 2 2 2 2 2 2 2 2 2 2 2 2 2
left_child=1 2 3 13 6 15 7 -3 10 -4 11 -6 14 -1 27 28 24 26 21 20 -10 47 44 46 35 57 37 48 -2 36 31 32 -31 -16 -33 60 -28 38 39 -17 -34 -41 43 -32 -9 49 -13 -14 -7 -23 53 54 -26 -44 -20 -29 -48 -22 -40 -59 -5 -54
right_child=5 4 9 16 8 12 -8 22 19 -11 -12 23 18 -15 33 17 -18 -19 51 -21 25 45 -24 -25 52 -27 29 55 -30 30 42 34 40 -35 -36 -37 -38 -39 58 41 -42 -43 50 -45 -46 -47 56 -49 -50 -51 -52 -53 61 -55 -56 -57 -58 59 -60 -61 -62 -63
leaf_value=-0.14321385142478077 -0.043312340424156048 -0.06584425218177567 -0.14318748203443371 0.015895421332633268 -0.027214318773370556 0.032795517496772723 -0.0658214242676253 0.02844679883521899 0.011167687129480391 -0.10451117026923379 -0.027121485736635 -0.034434218452912058 0.0078234937586981902 -0.10453354802697597 -0.011362070022204702 -0.078752325817994365 0.047292376402515247 0.026280493106816558 0.0467265345499049 0.011558006273424124 -0.02737086474673734 0.020986231646136371 0.048034193538128496 0.048385609023560414 -0.04566266930363512 0.048669544040189021 -0.011492857429752298 0.017590695065904625 -0.01370024632532804 -0.076044460606795775 -0.030936453476574068 -0.078968141381702731 0.028951120694707951 0.0067321065439698837 -0.0090484267549527427 0.033006363060456574 0.027294806733808026 -0.0081608393048864854 -0.098792943642252981 0.013163068187535805 -0.027613269487774234 -0.031896157740436935 0.0033815877104812161 0.033581943198480617 -0.005624082094415785 0.044543441515398269 0.030863150659091728 0.025479180392149383 0.041483614934463932 0.038670299695423793 -0.0048256701941399019 0.049113607443616307 -0.025220844949710837 0.061333253653720027 0.037177083338973828 0.03188757416029165 -0.0081630459982431954 0.037450055753887011 -0.034342435631939831 0.0075519299514010671 -0.037790694721560519 0.0097897118449429658
leaf_weight=31680 9420 31680 44640 720 31680 27648 44640 2916 31680 44640 44640 420 6738 31680 9216 576 49680 15300 50535 44640 420 5304 24840 24840 864 24840 1440 9216 3825 432 432 1008 1152 13824 576 4536 4896 10560 672 1824 720 1056 864 2592 1944 31680 3552 10107 41472 15816 7920 211200 1200 576 16845 13824 888 2664 384 1776 576 1824
leaf_count=31680 9420 31680 44640 720 31680 27648 44640 2916 31680 44640 44640 420 6738 31680 9216 576 49680 15300 50535 44640 420 5304 24840 24840 864 24840 1440 9216 3825 432 432 1008 1152 13824 576 4536 4896 10560 672 1824 720 1056 864 2592 1944 31680 3552 10107 41472 15816 7920 211200 1200 576 16845 13824 888 2664 384 1776 576 1824
internal_value=-3.56532e-10 -0.0355227 -0.0776688 -0.0440829 -0.0074253 0.0355529 -0.0354558 -0.0133718 0.00658997 -0.123849 -0.00738577 0.00696748 0.0410489 -0.123874 0.0279377 -0.00290676 0.0410272 0.00505673 0.0453863 0.0205657 0.0271168 0.0350964 0.0425989 0.0434281 0.00900545 0.0441291 -0.0035612 0.0350485 -0.0347607 0.00383063 -0.00187332 -0.0267986 -0.00841192 -0.000505564 -0.0535428 0.0239016 0.0184794 -0.014649 -0.0298339 -0.0159243 0.00719559 -0.00335865 0.00595205 0.024365 0.0148184 0.0404177 0.0180895 0.0184169 0.0380084 0.0342292 3.24123e-06 0.0479588 -0.0133388 0.0265623 0.0443392 0.0261688 0.0230579 0.0209225 -0.0753564 0.0254908 -0.00796507 -0.00410337
internal_weight=1.05975e+06 530100 212040 122760 318060 529650 106020 61380 212040 89280 106020 61380 463425 63360 115200 66225 59400 52980 348225 106020 61380 69645 29700 29700 9720 29700 37680 92160 13245 22608 16272 3888 2304 23040 1584 5832 6336 15072 4512 3456 1872 2880 12384 3024 4860 52800 4860 16845 69120 21120 9360 278580 3888 1440 67380 23040 4440 4860 1056 4440 1296 3024
internal_count=1059750 530100 212040 122760 318060 529650 106020 61380 212040 89280 106020 61380 463425 63360 115200 66225 59400 52980 348225 106020 61380 69645 29700 29700 9720 29700 37680 92160 13245 22608 16272 3888 2304 23040 1584 5832 6336 15072 4512 3456 1872 2880 12384 3024 4860 52800 4860 16845 69120 21120 9360 278580 3888 1440 67380 23040 4440 4860 1056 4440 1296 3024
is_linear=0
shrinkage=0.05


Tree=6
num_leaves=63
num_cat=0
split_feature=1 6 2 2 6 7 2 2 6 6 2 2 7 6 11 10 7 2 10 2 2 7 7 7 10 7 6 10 2 7 2 7 2 0 6 8 0 7 2 0 7 8 0 7 8 9 1 8 2 6 9 0 0 0 2 2 2 9 7 7 6 8
split_gain=483160 226615 118725 300953 45107.5 40421.6 25665.9 65076.8 14951.2 12052.9 10841.7 27615.5 9424.9 8555.43 8329.17 6150.58 4301.99 3473.03 3327.61 2258.5 6012.21 2234.98 1618.92 1346.83 1212.12 1129.72 1108.93 872.123 850.107 817.388 661.594 1173.12 690.186 877.969 651.495 646.896 604.343 556.654 1031.38 984.959 531.14 529.012 562.691 512.296 511.767 493.251 590.999 490.197 486.815 472.396 463.702 444.219 440.183 433.355 422.828 418.999 417.023 409.037 380.022 379.927 403.591 370.185
threshold=1.0000000180025095e-35 24.500000000000004 3.5000000000000004 1.5000000000000002 25.500000000000004 26.650000000000002 3.5000000000000004 1.5000000000000002 26.500000000000004 23.500000000000004 3.5000000000000004 1.5000000000000002 28.100000000000005 23.500000000000004 1.0000000180025095e-35 114.30000000000001 29.350000000000005 4.5000000000000009 114.30000000000001 3.5000000000000004 1.5000000000000002 29.650000000000002 29.350000000000005 29.350000000000005 114.30000000000001 29.350000000000005 24.500000000000004 28.150000000000002 4.5000000000000009 26.900000000000002 1.0000000180025095e-35 25.900000000000002 1.5000000000000002 -1.0000000180025095e-35 24.500000000000004 99.500000000000014 -1.0000000180025095e-35 25.900000000000002 1.5000000000000002 -1.0000000180025095e-35 27.900000000000002 93.500000000000014 -0.78656609248549292 31.100000000000005 99.500000000000014 113.50000000000001 -0.60355339059327384 97.000000000000014 2.5000000000000004 25.500000000000004 218.50000000000003 0.78656609248549325 -0.9159756150367534 -1.0000000180025095e-35 2.5000000000000004 3.5000000000000004 1.5000000000000002 218.50000000000003 29.100000000000005 30.900000000000002 24.500000000000004 93.500000000000014
decision_type=2 2 2 2 2 2 2 2 2 2 2 2 2 2 2 2 2 2 2 2 2 2 2 2 2 2 2 2 2 2 2 2 2 2 2 2 2 2 2 2 2 2 2 2 2 2 2 2 2 2 2 2 2 2 2 2 2 2 2 2 2 2
left_child=1 2 3 13 6 15 7 -3 10 -4 11 -6 14 -1 34 17 24 26 52 20 -10 49 40 50 29 57 37 48 -17 51 36 32 33 -32 -7 -34 -28 38 39 -2 61 42 -33 -23 -35 46 -31 -41 -16 56 -13 -5 59 55 -29 -43 -20 -22 -54 60 -14 -9
right_child=5 4 9 16 8 12 -8 22 19 -11 -12 23 18 -15 27 28 -18 -19 21 -21 25 43 -24 -25 -26 -27 30 54 -30 45 31 41 35 44 -36 -37 -38 -39 -40 47 -42 53 -44 -45 -46 -47 -48 -49 -50 -51 -52 -53 58 -55 -56 -57 -58 -59 -60 -61 -62 -63
leaf_value=-0.13605315205725763 -0.074814711436111889 -0.062552037311322736 -0.13602810589002454 0.064253118137518564 -0.025853604331161042 -0.01069748061836958 -0.062530353806352107 0.0093364624201400757 0.01060930334689799 -0.099285619128562222 -0.02576541152265337 0.0047040075670580321 0.015328391965770911 -0.099306870302693417 0.032211681830951543 -0.040986901072294427 0.04492775862197898 0.024915915287164997 -0.0049406386339538701 0.010980105721858025 0.0081541659272263787 0.033707852753976565 0.045632483976550009 0.045966328047804463 -0.026758223689212324 0.04623606801940347 -0.010918214839886989 0.018535765283210045 -0.013215899333890294 -0.025618260766241293 -0.072242238751992024 -0.029389630351215602 -0.075019733394895288 0.027503563665711935 0.0065098095078614283 -0.0085960056151647129 0.025930066072604938 -0.0073892681120571978 -0.0715885755507219 0.012504914823487848 0.022912848747203562 0.0032125079817685929 0.032014500384334683 0.043598405118342877 -0.026232605940636457 0.033248324180059435 0.022429523984953147 -0.030301349172022485 0.04064546088918719 0.027851232153580027 0.036296476843900409 -0.05192019733044112 0.042948670789034853 -0.0045843879170321322 0.032149671430051353 0.058266588879956144 0.017299201348242445 0.037826039375686377 0.047408565111854151 0.043001688704851916 0.039492406718353683 -0.049574326024934029
leaf_weight=31680 576 31680 44640 96 31680 9168 44640 600 31680 44640 44640 2940 2880 31680 36720 9480 49680 15540 2952 44640 2940 27180 24840 24840 1944 24840 1440 12240 3885 960 432 432 1008 1152 13752 576 4896 10656 1056 1824 3780 864 2736 25260 720 4224 1920 1056 32040 6882 1920 576 64500 7920 10680 576 7371 1920 184080 22800 4320 480
leaf_count=31680 576 31680 44640 96 31680 9168 44640 600 31680 44640 44640 2940 2880 31680 36720 9480 49680 15540 2952 44640 2940 27180 24840 24840 1944 24840 1440 12240 3885 960 432 432 1008 1152 13752 576 4896 10656 1056 1824 3780 864 2736 25260 720 4224 1920 1056 32040 6882 1920 576 64500 7920 10680 576 7371 1920 184080 22800 4320 480
internal_value=1.20827e-10 -0.0337466 -0.0737853 -0.0418788 -0.00705403 0.0337752 -0.033683 -0.0127032 0.00626047 -0.117657 -0.00701648 0.0066191 0.0390238 -0.11768 0.0265862 -0.00257619 0.0389759 0.00500833 0.043117 0.0195374 0.0257609 0.0333416 0.0404689 0.0412567 0.00855518 0.0419227 -0.00314999 0.033326 -0.0329143 0.0173835 0.00383141 -0.00146559 -0.0254586 -0.00799133 -0.000373107 -0.0508657 0.0175555 -0.0136221 -0.0283422 -0.015128 0.0140775 0.00598054 0.0236412 0.0384721 0.00683581 0.0223694 0.0064136 -0.00319072 0.0361416 0.0177041 0.017185 -0.035324 0.0455609 3.07797e-06 0.0248794 0.0252341 0.0109394 0.0198764 0.0462513 0.0398397 0.0298268 -0.0168461
internal_weight=1.05975e+06 530100 212040 122760 318060 529650 106020 61380 212040 89280 106020 61380 462825 63360 114600 66825 59400 53460 348225 106020 61380 69645 29700 29700 9720 29700 37920 91680 13365 7776 22752 16416 3888 2304 22920 1584 6336 15168 4512 3456 4860 12528 3168 52440 1872 7104 2880 2880 68760 17205 4860 672 278580 9360 22920 1440 10323 4860 248580 30000 7200 1080
internal_count=1059750 530100 212040 122760 318060 529650 106020 61380 212040 89280 106020 61380 462825 63360 114600 66825 59400 53460 348225 106020 61380 69645 29700 29700 9720 29700 37920 91680 13365 7776 22752 16416 3888 2304 22920 1584 6336 15168 4512 3456 4860 12528 3168 52440 1872 7104 2880 2880 68760 17205 4860 672 278580 9360 22920 1440 10323 4860 248580 30000 7200 1080
is_linear=0
shrinkage=0.05


Tree=7
num_leaves=63
num_cat=0
split_feature=1 6 2 2 6 7 2 2 6 6 2 2 7 6 11 11 7 2 10 2 2 7 7 7 10 7 6 6 2 10 10 7 2 0 8 6 10 7 8 6 2 2 7 9 9 2 0 8 10 2 0 8 7 7 10 0 2 2 7 10 2 6
split_gain=436052 204520 107149 271610 40709.5 36481.6 23163.4 58731.8 13493.4 10877.7 9784.65 24923 8584.47 7721.28 7591.21 5473.11 3882.55 3159 3003.16 2038.3 5426.02 2017.07 1486.41 1220.8 1096.19 1019.57 1012.28 812.749 778.231 687.86 685.619 659.143 1395.48 1284.58 646.051 610.872 573.453 567.618 544.024 483.714 451.553 446.671 650.749 441.015 434.905 432.735 431.994 614.474 416.285 411.122 517.758 406.787 406.184 403.297 384.929 384.558 372.237 369.808 353.147 384.519 352.681 352.546
threshold=1.0000000180025095e-35 24.500000000000004 3.5000000000000004 1.5000000000000002 25.500000000000004 26.350000000000005 3.5000000000000004 1.5000000000000002 26.500000000000004 23.500000000000004 3.5000000000000004 1.5000000000000002 28.100000000000005 23.500000000000004 1.0000000180025095e-35 1.0000000180025095e-35 29.350000000000005 4.5000000000000009 114.30000000000001 3.5000000000000004 1.5000000000000002 29.650000000000002 30.900000000000002 30.900000000000002 28.150000000000002 29.350000000000005 25.500000000000004 25.500000000000004 4.5000000000000009 28.150000000000002 114.30000000000001 25.900000000000002 1.5000000000000002 -1.0000000180025095e-35 97.000000000000014 25.500000000000004 114.30000000000001 27.900000000000002 99.500000000000014 24.500000000000004 1.5000000000000002 1.0000000180025095e-35 25.900000000000002 218.50000000000003 218.50000000000003 1.5000000000000002 -0.9159756150367534 93.500000000000014 28.150000000000002 1.5000000000000002 -1.0000000180025095e-35 99.500000000000014 26.900000000000002 29.100000000000005 28.150000000000002 -0.78656609248549292 2.5000000000000004 2.5000000000000004 30.900000000000002 114.30000000000001 2.5000000000000004 24.500000000000004
decision_type=2 2 2 2 2 2 2 2 2 2 2 2 2 2 2 2 2 2 2 2 2 2 2 2 2 2 2 2 2 2 2 2 2 2 2 2 2 2 2 2 2 2 2 2 2 2 2 2 2 2 2 2 2 2 2 2 2 2 2 2 2 2
left_child=1 2 3 13 6 15 7 -3 10 -4 11 -6 14 -1 35 28 24 26 48 20 -10 45 30 36 37 54 31 29 -2 56 44 32 33 -17 -35 57 52 -5 -34 40 -23 -28 49 -26 -9 -20 -33 55 -14 50 -43 -51 -13 -50 -22 -48 -16 -7 59 -18 -31 -19
right_child=5 4 9 16 8 12 -8 22 19 -11 -12 23 18 -15 27 17 58 61 21 -21 25 39 -24 -25 43 -27 41 -29 -30 60 -32 46 38 34 -36 -37 -38 -39 -40 -41 -42 42 -44 -45 -46 -47 47 -49 53 51 -52 -53 -54 -55 -56 -57 -58 -59 -60 -61 -62 -63
leaf_value=-0.12925049779090006 -0.039097378774463856 -0.059424438548810569 -0.12922670332120739 -0.0073452274876256718 -0.024560924108337739 -0.014783958236749883 -0.059403839848374808 0.012491636913094024 0.010078837660770513 -0.094321333047630115 -0.024477142055375392 -0.02553783240502764 0.04439874486789424 -0.094341523319181775 0.026569318248388651 -0.066076659287177292 0.035769756351934731 0.014425067091135278 0.0042887247919648 0.01043110074579201 0.030371953686508142 0.018056849294776595 0.044459410131966914 0.044643979634778744 -0.026045963136822343 0.043924266057163819 0.020611725412531326 0.037383803100952032 -0.012354439016865275 0.010638431048434593 -0.014444559631299323 -0.065007880837462534 -0.086195296427560242 0.015421464779610051 -0.024703044074622177 0.0095165746919487707 -0.0090042701406037214 0.030175218762348091 -0.025281573319605538 0.040469377215611585 0.034934875103807779 -0.064327783944706118 0.0083083023847669493 0.0084005568308384692 0.041156339143777421 0.021837144103966616 -0.039930284718866463 -0.0085190751032934147 0.033198838188202566 -0.06788404249541817 0.010046938716620319 -0.0033728335670427136 0.031256728041878054 0.042084196545112723 0.0016484894627049364 0.02041576675103925 0.036061847257343238 0.0016038645936412559 0.043859661020066297 -0.0050826627410586094 0.026642268940729231 0.029917741767414421
leaf_weight=31680 9420 31680 44640 1296 31680 7344 44640 2880 31680 44640 44640 336 208935 31680 22032 864 2880 6120 4920 44640 2916 5304 23040 23040 2352 24840 4224 36864 3825 7344 1332 288 1008 2736 1584 9216 1332 4536 576 31464 15672 288 8256 1536 2448 12285 288 12096 16845 672 1248 384 4992 52800 1944 3168 19440 6480 46080 720 6480 9180
leaf_count=31680 9420 31680 44640 1296 31680 7344 44640 2880 31680 44640 44640 336 208935 31680 22032 864 2880 6120 4920 44640 2916 5304 23040 23040 2352 24840 4224 36864 3825 7344 1332 288 1008 2736 1584 9216 1332 4536 576 31464 15672 288 8256 1536 2448 12285 288 12096 16845 672 1248 384 4992 52800 1944 3168 19440 6480 46080 720 6480 9180
internal_value=-1.86456e-10 -0.0320592 -0.0700961 -0.0397848 -0.00670133 0.0320865 -0.0319989 -0.012068 0.00594745 -0.111774 -0.00666566 0.00628815 0.0370471 -0.111796 0.0252155 -0.00262644 0.0370271 0.00456053 0.0409612 0.0185606 0.0244729 0.0316745 0.0384455 0.0391938 0.00812742 0.0398265 -0.00321946 0.0316331 -0.0313743 0.0277993 0.0176406 -0.0099109 -0.0229719 -0.0104218 0.000709145 -0.00045467 0.0203392 0.0218373 -0.0640449 0.0365485 0.0306671 0.00681769 0.00144656 -0.0124375 0.0256619 0.0168189 -0.00433029 -0.00320663 0.0432828 -0.0204094 -0.00389832 -0.0444254 0.0276751 0.0399351 0.0188826 0.0153869 0.0310189 -0.00710217 0.0426814 0.0275993 0.0181402 0.0237207
internal_weight=1.05975e+06 530100 212040 122760 318060 529650 106020 61380 212040 89280 106020 61380 463425 63360 115200 66225 59400 52980 348225 106020 61380 69645 29700 29700 9720 29700 37680 92160 13245 55296 6660 22608 6768 5184 4320 23040 6660 5832 1584 52440 20976 15072 10848 3888 5328 17205 15840 15552 278580 2592 1536 1056 5328 69645 4860 3456 41472 13824 49680 3600 13824 15300
internal_count=1059750 530100 212040 122760 318060 529650 106020 61380 212040 89280 106020 61380 463425 63360 115200 66225 59400 52980 348225 106020 61380 69645 29700 29700 9720 29700 37680 92160 13245 55296 6660 22608 6768 5184 4320 23040 6660 5832 1584 52440 20976 15072 10848 3888 5328 17205 15840 15552 278580 2592 1536 1056 5328 69645 4860 3456 41472 13824 49680 3600 13824 15300
is_linear=0
shrinkage=0.05


Tree=8
num_leaves=63
num_cat=0
split_feature=1 6 2 2 6 7 2 2 6 6 10 2 2 6 10 7 7 7 2 2 2 7 7 7 7 11 6 7 10 2 9 6 10 2 7 2 0 0 8 6 6 7 7 10 2 7 8 7 10 7 2 0 8 8 0 0 2 1 2 2 0 2
split_gain=393537 184579 96701.9 245128 36740.4 33085.5 20905 53005.4 12177.8 9817.16 8974.75 8830.65 22493 6968.46 4761.55 4653.82 3991.41 3504 2914.65 1839.56 4896.98 1341.49 1182.81 1120.04 1111.96 1027.91 956.405 930.644 783.152 718.006 717.316 708.617 618.771 594.184 903.445 557.083 718.641 531.248 526.717 511 498.448 475.833 470.325 468.296 460.611 450.155 424.333 421.42 418.173 409.854 836.762 810.499 398.306 395.857 490.288 391.103 378.146 374.549 350.582 339.17 374.547 336.767
threshold=1.0000000180025095e-35 24.500000000000004 3.5000000000000004 1.5000000000000002 25.500000000000004 27.350000000000005 3.5000000000000004 1.5000000000000002 26.500000000000004 23.500000000000004 114.30000000000001 3.5000000000000004 1.5000000000000002 23.500000000000004 114.30000000000001 26.100000000000005 29.100000000000005 29.350000000000005 4.5000000000000009 3.5000000000000004 1.5000000000000002 30.900000000000002 29.100000000000005 26.100000000000005 29.350000000000005 1.0000000180025095e-35 24.500000000000004 30.900000000000002 28.150000000000002 4.5000000000000009 218.50000000000003 24.500000000000004 114.30000000000001 1.0000000180025095e-35 25.900000000000002 1.5000000000000002 -1.0000000180025095e-35 -1.0000000180025095e-35 99.500000000000014 24.500000000000004 24.500000000000004 27.900000000000002 30.350000000000005 114.30000000000001 2.5000000000000004 24.500000000000004 93.500000000000014 26.900000000000002 28.150000000000002 25.300000000000001 1.5000000000000002 -1.0000000180025095e-35 98.500000000000014 93.500000000000014 -0.78656609248549292 -1.0000000180025095e-35 3.5000000000000004 -0.78656609248549325 3.5000000000000004 2.5000000000000004 -1.0000000180025095e-35 2.5000000000000004
decision_type=2 2 2 2 2 2 2 2 2 2 2 2 2 2 2 2 2 2 2 2 2 2 2 2 2 2 2 2 2 2 2 2 2 2 2 2 2 2 2 2 2 2 2 2 2 2 2 2 2 2 2 2 2 2 2 2 2 2 2 2 2 2
left_child=1 2 3 13 6 10 7 -3 11 -4 15 12 -6 -1 22 18 31 25 26 20 -10 32 28 29 48 -5 49 43 59 -12 41 44 47 37 35 36 -35 -28 -37 -17 61 46 -18 -22 -16 -38 -27 -9 -14 50 51 -2 -53 54 58 56 -55 -43 -36 60 -7 -30
right_child=5 4 9 17 8 14 -8 21 19 -11 23 -13 24 -15 16 39 42 -19 -20 -21 27 -23 -24 -25 -26 30 33 -29 40 -31 -32 -33 -34 34 53 38 45 -39 -40 -41 -42 57 -44 -45 -46 -47 -48 -49 -50 -51 -52 52 -54 55 -56 -57 -58 -59 -60 -61 -62 -63
leaf_value=-0.12278797146948893 -0.067770143388421883 -0.056453212571866612 -0.12276536909269176 -0.024798439939780956 -0.02333287769848616 0.027414496040534381 -0.056433645031785454 -0.029822887189636407 0.0095748960325962879 -0.089605270493842371 -0.0374718518507118 -0.023253284361627366 0.027337070361921269 -0.089624447494444232 -0.0090949479882651563 0.019692253926440403 0.027506280855194978 0.040547303562612338 0.022534638867279765 0.0099095459442951755 0.028002245585628624 0.042236437107100878 0.042138263887424116 -0.0081654327639383798 0.041513493719507327 0.0065293514574780902 -0.010583665854919674 0.042593809409175065 0.011216957401223374 -0.011736716386588181 0.034642806281001984 0.017997102169379508 -0.013722331804670316 -0.065384591087974883 -0.059242171483735243 -0.06756936086134778 -0.078776105907228264 0.023964446909002568 -0.0076324179903167538 0.030854692436429073 0.034122673704200183 -0.01473771866641174 0.037771042568456509 -0.0051439160911425606 0.010876024596053458 0.013237254016317163 -0.049659945423326239 0.028027001699198396 -0.002601017401296906 -0.0078189917615545633 -0.064806905261772935 0.011108595728075089 -0.028680594499868067 0.0029169238525135993 0.030653490677624046 -0.0044901266926293225 0.055218300021563971 0.023458019349229104 0.03630754215021928 0.040975129435781556 0.038046067766546919 0.028293372778115146
leaf_weight=31680 576 31680 44640 1944 31680 12060 44640 336 31680 44640 9300 44640 2916 31680 5136 17088 16020 49680 15300 44640 5328 23040 211200 10680 24840 672 1440 23040 5136 3825 3072 17595 1332 432 288 1008 144 4896 576 25632 17595 864 36780 1332 6594 1728 672 4992 1944 10464 1056 1824 960 864 2304 7920 576 2496 144 49455 26460 6594
leaf_count=31680 576 31680 44640 1944 31680 12060 44640 336 31680 44640 9300 44640 2916 31680 5136 17088 16020 49680 15300 44640 5328 23040 211200 10680 24840 672 1440 23040 5136 3825 3072 17595 1332 432 288 1008 144 4896 576 25632 17595 864 36780 1332 6594 1728 672 4992 1944 10464 1056 1824 960 864 2304 7920 576 2496 144 49455 26460 6594
internal_value=9.83264e-11 -0.0304563 -0.0665913 -0.0377956 -0.00636626 0.0304821 -0.0303989 -0.0114646 0.00565008 -0.106185 0.00727094 -0.00633238 0.00597374 -0.106206 0.0372102 0.0141358 0.0264418 0.0351757 0.00416462 0.0176325 0.0232492 0.0365232 0.0399023 -0.0201885 0.0372341 0.00772105 -0.00339079 0.0378352 0.0358765 -0.0299719 0.0158509 0.0116509 0.0167586 0.00315518 -0.00198109 -0.0229481 -0.00725518 0.0161126 -0.0457741 0.0263897 0.0288002 0.00357867 0.0346566 0.021373 0.0021317 0.0061593 -0.0215653 0.0243788 0.0153618 -0.0132097 -0.0259835 -0.0137818 -0.00261181 0.0047583 0.0214884 -0.000132034 0.0238375 0.0136363 -0.0273923 0.0382352 0.0347175 0.0208164
internal_weight=1.05975e+06 530100 212040 122760 318060 529650 106020 61380 212040 89280 119025 106020 61380 63360 410625 95220 82125 59400 52500 106020 61380 29700 328500 23805 29700 9720 37200 29700 117300 13125 7776 29325 6660 22320 15984 3888 2304 6336 1584 42720 29325 4704 52800 6660 11730 1872 1344 5328 4860 14880 4416 3360 2784 12096 2736 9360 1440 3360 432 87975 38520 11730
internal_count=1059750 530100 212040 122760 318060 529650 106020 61380 212040 89280 119025 106020 61380 63360 410625 95220 82125 59400 52500 106020 61380 29700 328500 23805 29700 9720 37200 29700 117300 13125 7776 29325 6660 22320 15984 3888 2304 6336 1584 42720 29325 4704 52800 6660 11730 1872 1344 5328 4860 14880 4416 3360 2784 12096 2736 9360 1440 3360 432 87975 38520 11730
is_linear=0
shrinkage=0.05


Tree=9
num_leaves=63
num_cat=0
split_feature=1 6 2 2 6 7 2 2 6 6 10 2 2 6 10 7 7 7 3 2 2 10 7 7 7 7 6 7 10 6 2 7 2 7 2 0 8 9 6 8 7 9 6 6 10 7 2 7 0 10 9 6 8 2 0 8 8 6 9 10 2 10
split_gain=355167 166583 87273.5 221228 33158.2 29859.6 18866.8 47837.4 10990.5 8859.99 8099.71 7969.66 20299.9 6289.03 4297.3 4200.07 3602.25 3182.48 2630.47 1660.21 4419.53 1277.99 1220.56 1067.49 1020.85 1010.83 863.782 862.879 706.795 658.269 648 596.934 535.245 508.611 1134.64 1049.85 540.768 498.02 474.887 474.177 472.891 457.013 449.849 440.245 400.741 388.027 378.467 511.98 370.672 367.744 367.399 335.658 335.067 334.845 421.159 332.098 331.203 318.173 314.94 313.501 309.147 306.988
threshold=1.0000000180025095e-35 24.500000000000004 3.5000000000000004 1.5000000000000002 25.500000000000004 27.350000000000005 3.5000000000000004 1.5000000000000002 26.500000000000004 23.500000000000004 114.30000000000001 3.5000000000000004 1.5000000000000002 23.500000000000004 114.30000000000001 26.100000000000005 29.100000000000005 30.900000000000002 1.0000000180025095e-35 3.5000000000000004 1.5000000000000002 28.150000000000002 29.350000000000005 29.100000000000005 27.900000000000002 26.100000000000005 25.500000000000004 27.900000000000002 28.150000000000002 25.500000000000004 4.5000000000000009 27.900000000000002 2.5000000000000004 25.900000000000002 1.5000000000000002 -1.0000000180025095e-35 97.000000000000014 218.50000000000003 25.500000000000004 99.500000000000014 30.900000000000002 218.50000000000003 24.500000000000004 23.500000000000004 28.150000000000002 30.900000000000002 1.0000000180025095e-35 25.900000000000002 0.78656609248549325 114.30000000000001 75.500000000000014 24.500000000000004 93.500000000000014 1.5000000000000002 -1.0000000180025095e-35 99.500000000000014 93.500000000000014 24.500000000000004 51.500000000000007 28.150000000000002 1.5000000000000002 114.30000000000001
decision_type=2 2 2 2 2 2 2 2 2 2 2 2 2 2 2 2 2 2 2 2 2 2 2 2 2 2 2 2 2 2 2 2 2 2 2 2 2 2 2 2 2 2 2 2 2 2 2 2 2 2 2 2 2 2 2 2 2 2 2 2 2 2
left_child=1 2 3 13 6 10 7 -3 11 -4 15 12 -6 -1 23 18 29 21 26 20 -10 31 41 28 52 30 33 56 -7 32 51 -5 -16 34 35 -2 -37 -23 50 -36 49 59 -30 60 -35 61 -28 53 -39 -26 -17 -12 -14 54 -48 -55 -22 -20 -27 -9 -18 -29
right_child=5 4 9 17 8 14 -8 22 19 -11 25 -13 24 -15 16 38 43 -19 57 -21 27 37 -24 -25 40 58 46 45 42 -31 -32 -33 -34 44 39 36 -38 48 -40 -41 -42 -43 -44 -45 -46 -47 47 -49 -50 -51 -52 -53 -54 55 -56 -57 -58 -59 -60 -61 -62 -63
leaf_value=-0.11664857384833423 -0.059880753437513104 -0.053630551172966001 -0.1166271039597877 -0.0065242355044428692 -0.022166233027325687 0.036323452441558816 -0.053611961155662503 0.01272218446623297 0.0090961515246290401 -0.085125003922797454 -0.047232089750507071 -0.022090619771397511 0.012562628799710485 -0.085143227249082909 -0.0049294510030742375 0.019467339200568257 0.0090195855208098277 0.039639312439881315 0.012577080846839981 0.0094140681794962038 0.016836894480045887 -0.021170863776257348 0.039180527039818488 0.040031349992352479 0.030531201504582509 -0.010637044245442592 0.018775509297628126 0.031632698340927752 0.019775614055928203 0.020243229117592347 -0.011149880509190125 0.030548156873803602 0.012648275059652138 0.00017086486963965083 -0.078599147380344458 0.013955976704724416 -0.022753815953195165 -0.0067749031508396416 0.031526700490433816 -0.021730057546498455 0.040336107538858468 0.030754703670087719 0.032416540980094659 0.035206602433327593 -0.018364788056475134 0.040464117600935386 -0.057842166556252378 0.0073032081805256867 0.032758016297930952 -0.0015585221021457958 0.048360726369234427 -0.027842373072706317 -0.04348428339112919 -0.061111375263759073 0.0092366271072280206 -0.0028225708917223834 -0.038885877250383304 0.027295124019561263 0.017841799089001142 -0.020605879530644633 0.028746748267293721 0.0023134196701724129
leaf_weight=31680 864 31680 44640 1296 31680 87975 44640 1764 31680 44640 3720 44640 600 31680 7704 24480 2652 46080 6120 44640 600 2880 24840 211200 4464 9600 4224 4464 11730 11730 3825 6696 9891 11664 1008 2736 1584 1440 17088 576 23040 1920 17595 42240 3888 23040 288 8064 1008 1116 1152 5580 480 672 1248 384 480 9180 1080 1176 7908 1116
leaf_count=31680 864 31680 44640 1296 31680 87975 44640 1764 31680 44640 3720 44640 600 31680 7704 24480 2652 46080 6120 44640 600 2880 24840 211200 4464 9600 4224 4464 11730 11730 3825 6696 9891 11664 1008 2736 1584 1440 17088 576 23040 1920 17595 42240 3888 23040 288 8064 1008 1116 1152 5580 480 672 1248 384 480 9180 1080 1176 7908 1116
internal_value=8.75615e-11 -0.0289335 -0.0632617 -0.0359058 -0.00604795 0.028958 -0.028879 -0.0108914 0.00536757 -0.100876 0.00690739 -0.00601576 0.00567505 -0.100896 0.0353497 0.013429 0.0251197 0.0334169 0.00395639 0.0167509 0.0220868 0.0118909 0.0346971 0.0379072 0.0353724 -0.0191791 -0.00322125 0.0359434 0.0340826 0.0110684 -0.0284733 0.0245364 0.00495184 -0.00944217 -0.0208836 -0.00956703 0.000495719 -0.0070773 0.0250702 -0.0579195 0.0371732 0.0117816 0.0273602 0.0329238 -0.00446305 0.037599 0.00611014 0.00108963 0.00950336 0.0241133 0.0207659 -0.0355983 -0.0123471 -0.0182415 -0.00334065 -0.0399154 -0.00792878 0.0214079 -0.00775716 -0.000609041 0.0237925 0.0257688
internal_weight=1.05975e+06 530100 212040 122760 318060 529650 106020 61380 212040 89280 119025 106020 61380 63360 410625 95220 82125 59400 52500 106020 61380 13320 29700 328500 29700 23805 37200 29700 117300 29325 13125 7992 17595 22320 6768 5184 4320 5328 42720 1584 28620 4860 29325 52800 15552 28620 14880 10656 2448 5580 25632 9300 1080 2592 1536 1056 1080 15300 10680 2940 10560 5580
internal_count=1059750 530100 212040 122760 318060 529650 106020 61380 212040 89280 119025 106020 61380 63360 410625 95220 82125 59400 52500 106020 61380 13320 29700 328500 29700 23805 37200 29700 117300 29325 13125 7992 17595 22320 6768 5184 4320 5328 42720 1584 28620 4860 29325 52800 15552 28620 14880 10656 2448 5580 25632 9300 1080 2592 1536 1056 1080 15300 10680 2940 10560 5580
is_linear=0
shrinkage=0.05


Tree=10
num_leaves=63
num_cat=0
split_feature=1 6 2 2 6 7 2 2 6 6 11 2 2 6 11 7 7 7 2 2 2 7 7 7 7 10 6 7 10 9 2 2 7 2 7 0 2 0 7 6 8 7 8 10 2 6 7 8 8 0 10 0 7 10 2 6 1 2 6 2 6 8
split_gain=320538 150341 78764.3 199658 29925.3 26948.3 17027.3 43173.3 9918.9 7996.14 7309.99 7192.62 18320.7 5675.85 3878.31 3790.57 3251.03 2883.95 2374 1498.34 3988.62 1119.77 963.409 921.319 912.278 872.742 806.551 778.748 637.882 620.481 598.815 584.82 520.21 495.466 737.833 470.072 449.437 588.371 437.87 430.506 428.32 426.784 422.906 412.85 406.091 400.331 394.477 382.96 357.261 442.485 355.747 352.971 350.195 342.774 341.277 338.762 338.031 332.381 319.375 316.401 312.923 311.485
threshold=1.0000000180025095e-35 24.500000000000004 3.5000000000000004 1.5000000000000002 25.500000000000004 27.350000000000005 3.5000000000000004 1.5000000000000002 26.500000000000004 23.500000000000004 1.0000000180025095e-35 3.5000000000000004 1.5000000000000002 23.500000000000004 1.0000000180025095e-35 26.100000000000005 29.100000000000005 29.350000000000005 4.5000000000000009 3.5000000000000004 1.5000000000000002 27.900000000000002 29.100000000000005 27.900000000000002 26.100000000000005 114.30000000000001 24.500000000000004 27.900000000000002 28.150000000000002 218.50000000000003 2.5000000000000004 4.5000000000000009 30.900000000000002 1.0000000180025095e-35 25.900000000000002 -1.0000000180025095e-35 1.5000000000000002 -1.0000000180025095e-35 31.100000000000005 24.500000000000004 99.500000000000014 30.900000000000002 99.500000000000014 114.30000000000001 2.5000000000000004 24.500000000000004 27.900000000000002 93.500000000000014 93.500000000000014 -0.78656609248549292 28.150000000000002 -1.0000000180025095e-35 30.900000000000002 28.150000000000002 3.5000000000000004 25.500000000000004 -0.78656609248549325 3.5000000000000004 24.500000000000004 3.5000000000000004 25.500000000000004 99.500000000000014
decision_type=2 2 2 2 2 2 2 2 2 2 2 2 2 2 2 2 2 2 2 2 2 2 2 2 2 2 2 2 2 2 2 2 2 2 2 2 2 2 2 2 2 2 2 2 2 2 2 2 2 2 2 2 2 2 2 2 2 2 2 2 2 2
left_child=1 2 3 13 6 10 7 -3 11 -4 24 12 -6 -1 16 18 30 25 26 20 -10 -9 28 -14 31 29 50 -22 -16 46 45 60 43 35 36 -28 37 -35 55 -17 -38 53 -39 -23 58 -7 47 -5 49 59 -12 54 -29 -25 -50 -18 -48 -53 -30 -36 -2 -59
right_child=5 4 9 17 8 14 -8 21 19 -11 15 -13 23 -15 22 39 38 -19 -20 -21 27 32 -24 41 -26 -27 33 52 44 -31 -32 -33 -34 34 48 -37 40 42 -40 -41 -42 -43 -44 -45 -46 -47 56 -49 51 -51 -52 57 -54 -55 -56 -57 -58 61 -60 -61 -62 -63
leaf_value=-0.11081614014777275 -0.041306960803102089 -0.050949027594084817 -0.11079574314283214 0.0067121790109451601 -0.021057921900893704 -0.0083937283862652694 -0.050931367390258345 -0.017015825578154935 0.0086413435072190178 -0.08086875544867636 -0.0076136125834466136 -0.02098608907859599 -0.011729754379081256 -0.080886066823896749 0.034507279262304402 0.017669345527732191 0.022389033364474412 0.036619282888572656 0.020337511026794829 0.0089433650837879054 -0.0075323426148049674 0.027950598672136347 0.038029783557806243 0.033025982382944026 -0.0073693031831778963 -0.023125981862106196 -0.0103288600919364 0.024480399902427591 0.0096673283486366172 0.031807378775143509 0.016820702420129084 -0.010592386418770926 0.038165588883876916 -0.059189276376532186 -0.056449118742926255 0.022169237212016933 -0.060843857723687382 0.024334114318718195 0.03603194613717562 0.027914969230394 -0.0067945438622195476 0.038319300957002221 -0.024514541920576047 -0.0060501820178915072 0.031184948917365486 0.0096277975937450917 -0.014881752458367609 -0.046667652523583895 0.0026020210898961538 0.02895176098797065 -0.025467737400955155 -0.00052308235969754108 0.038440912417545346 0.0077300092597681058 0.052288330273909701 0.033708601912877688 0.021404198405569987 -0.048835799278070531 0.025763872472403443 0.034323108659332822 -0.022585424192484913 0.012689866353240278
leaf_weight=31680 5580 31680 44640 672 31680 5136 44640 1080 31680 44640 11160 44640 1080 31680 87975 17088 16524 49680 15300 44640 1080 4464 211200 3348 10680 1944 1440 5580 5136 3072 16485 3825 23040 432 288 4896 1008 1152 25260 25632 576 23040 720 1116 16485 7704 864 672 864 2304 3720 6912 23040 2232 576 11016 2496 720 7704 144 3720 288
leaf_count=31680 5580 31680 44640 672 31680 5136 44640 1080 31680 44640 11160 44640 1080 31680 87975 17088 16524 49680 15300 44640 1080 4464 211200 3348 10680 1944 1440 5580 5136 3072 16485 3825 23040 432 288 4896 1008 1152 25260 25632 576 23040 720 1116 16485 7704 864 672 864 2304 3720 6912 23040 2232 576 11016 2496 720 7704 144 3720 288
internal_value=8.41005e-11 -0.0274868 -0.0600986 -0.0341105 -0.00574555 0.0275101 -0.027435 -0.0103468 0.00509919 -0.0958322 0.00656202 -0.00571497 0.0053913 -0.0958511 0.0335822 0.0127576 0.0238637 0.0317461 0.00375857 0.0159134 0.0209824 0.0329622 0.0360118 0.0336038 -0.0182201 0.00683872 -0.00306018 0.0341463 0.0323785 0.0143299 0.010515 -0.0270496 0.0348482 0.00295112 -0.00173911 0.0147833 -0.0206871 -0.00659173 0.0312776 0.0238167 -0.0411896 0.0353145 0.00554617 0.0211504 0.0259922 0.00241919 0.00291602 -0.0199777 0.00435132 0.0202449 -0.0120771 -0.000294489 0.0357191 0.0229076 0.0224765 0.0269169 0.0120735 -0.00443468 0.0193253 -0.0261917 -0.0338183 -0.031257
internal_weight=1.05975e+06 530100 212040 122760 318060 529650 106020 61380 212040 89280 119025 106020 61380 63360 410625 95220 82125 59400 52500 106020 61380 29700 328500 29700 23805 9720 37200 29700 117300 7776 29325 13125 28620 22320 15984 6336 3888 2304 52800 42720 1584 28620 1872 5580 29325 12840 4704 1344 12096 2736 14880 9360 28620 5580 1440 27540 3360 7920 12840 432 9300 1008
internal_count=1059750 530100 212040 122760 318060 529650 106020 61380 212040 89280 119025 106020 61380 63360 410625 95220 82125 59400 52500 106020 61380 29700 328500 29700 23805 9720 37200 29700 117300 7776 29325 13125 28620 22320 15984 6336 3888 2304 52800 42720 1584 28620 1872 5580 29325 12840 4704 1344 12096 2736 14880 9360 28620 5580 1440 27540 3360 7920 12840 432 9300 1008
is_linear=0
shrinkage=0.05


Tree=11
num_leaves=63
num_cat=0
split_feature=1 6 2 2 6 7 2 2 6 6 11 2 2 6 10 7 7 7 3 2 2 10 7 7 7 7 2 7 0 7 7 2 0 8 8 6 6 8 0 0 2 2 0 2 2 7 2 2 0 6 7 7 10 10 8 6 7 8 9 7 10 8
split_gain=289286 135683 71084.8 180191 27007.5 24320.8 15367.1 38963.9 8951.81 7216.51 6597.27 6491.34 16534.4 5122.46 3500.17 3420.99 2934.06 2640.29 2142.54 1352.25 3599.73 1112 1010.59 900.579 831.491 823.331 729.495 1394.46 922.509 702.82 675.309 657.734 988.003 691.236 684.959 572.769 540.799 520.038 930.008 596.019 795.921 522.509 516.003 567.268 492.559 469.489 442.224 429.094 416.677 400.427 396.232 385.173 383.498 372.439 359.736 357.818 396.043 343.267 331.578 316.051 311.556 310.879
threshold=1.0000000180025095e-35 24.500000000000004 3.5000000000000004 1.5000000000000002 25.500000000000004 27.350000000000005 3.5000000000000004 1.5000000000000002 26.500000000000004 23.500000000000004 1.0000000180025095e-35 3.5000000000000004 1.5000000000000002 23.500000000000004 114.30000000000001 26.100000000000005 29.100000000000005 30.900000000000002 1.0000000180025095e-35 3.5000000000000004 1.5000000000000002 114.30000000000001 27.900000000000002 28.100000000000005 27.900000000000002 26.100000000000005 1.0000000180025095e-35 25.900000000000002 -0.37940952255126065 27.900000000000002 27.900000000000002 1.5000000000000002 -1.0000000180025095e-35 99.500000000000014 99.500000000000014 25.500000000000004 24.500000000000004 93.500000000000014 -0.78656609248549292 -1.0000000180025095e-35 3.5000000000000004 3.5000000000000004 -1.0000000180025095e-35 1.5000000000000002 1.0000000180025095e-35 30.900000000000002 4.5000000000000009 2.5000000000000004 -0.9159756150367534 25.500000000000004 30.350000000000005 30.900000000000002 28.150000000000002 28.150000000000002 93.500000000000014 24.500000000000004 30.900000000000002 89.500000000000014 75.500000000000014 30.900000000000002 114.30000000000001 93.500000000000014
decision_type=2 2 2 2 2 2 2 2 2 2 2 2 2 2 2 2 2 2 2 2 2 2 2 2 2 2 2 2 2 2 2 2 2 2 2 2 2 2 2 2 2 2 2 2 2 2 2 2 2 2 2 2 2 2 2 2 2 2 2 2 2 2
left_child=1 2 3 13 6 10 7 -3 11 -4 25 12 -6 -1 23 18 35 21 26 20 -10 30 61 42 -14 36 28 31 -12 -22 54 32 -28 -34 -33 47 -2 38 41 40 -39 -29 43 44 -7 52 -38 -16 55 58 -18 60 -24 -41 -5 56 -25 -45 -17 -31 -26 -9
right_child=5 4 9 17 8 14 -8 22 19 -11 15 -13 24 -15 16 49 50 -19 -20 -21 29 -23 45 48 51 -27 27 37 -30 59 -32 34 33 -35 -36 -37 46 39 -40 53 -42 -43 -44 57 -46 -47 -48 -49 -50 -51 -52 -53 -54 -55 -56 -57 -58 -59 -60 -61 -62 -63
leaf_value=-0.10527534005316828 -0.038127522462463481 -0.048401575729043939 -0.10525595634054113 0.0095695393940210746 -0.0200050252255504 0.027233428002339983 -0.048384797695930716 0.0078287726219859917 0.0082092761520708903 -0.076825319398261316 -0.025762379942971165 -0.019936785068309544 -0.011143266883262322 -0.076841760545667992 -0.0045636507849025751 0.017439744605883278 0.023150715979430556 0.035826382469793104 0.01932063541387349 0.0084961968822519149 -0.007155725356709876 -0.01834149927013674 0.030795506163983369 0.006901212584666104 0.027669541088015743 -0.007000837758273093 -0.067079826558215747 -0.06824244841933251 0.014641784249448179 0.02325638049134424 0.023312949319329021 -0.065956977066539579 0.016504609518454647 -0.031870196726673988 -0.013013330356867907 0.018547503802152341 -0.025008957315359539 -0.0057615053414560363 0.023800904547737992 -0.0044900146490594343 0.053013647741948569 0.022113499944219558 0.031301451357642167 0.021526024269172533 -0.0045130818768718333 0.03625731037541851 0.0010650561386333832 0.01117482631351573 0.035991235785582422 0.028554617517091187 0.032572320605653758 0.036403336462846915 0.0040390423263661403 -0.023885909796050826 -0.036341519776294719 0.034211717049675322 0.028169769189415158 0.042804347448276756 0.044888461456220191 0.036518868220348145 -0.0018670965711908303 -0.046157292792728795
leaf_weight=31680 5250 31680 44640 960 31680 1920 44640 600 31680 44640 1680 44640 1080 31680 7704 24480 16020 46080 15300 44640 1080 2664 3348 2880 4464 10680 720 480 8880 5580 8928 1680 1920 1200 960 11730 5580 1440 3840 9900 960 240 35280 6720 3360 23040 2295 9891 248580 17088 36780 23040 2232 3300 768 18000 9120 2640 1152 23040 1116 480
leaf_count=31680 5250 31680 44640 960 31680 1920 44640 600 31680 44640 1680 44640 1080 31680 7704 24480 16020 46080 15300 44640 1080 2664 3348 2880 4464 10680 720 480 8880 5580 8928 1680 1920 1200 960 11730 5580 1440 3840 9900 960 240 35280 6720 3360 23040 2295 9891 248580 17088 36780 23040 2232 3300 768 18000 9120 2640 1152 23040 1116 480
internal_value=4.96057e-12 -0.0261124 -0.0570937 -0.032405 -0.00545828 0.0261346 -0.0260633 -0.00982948 0.00484423 -0.0910406 0.00623392 -0.00542922 0.00512174 -0.0910586 0.0319031 0.0121197 0.0226705 0.0301588 0.00357064 0.0151177 0.0199333 0.010552 0.0313141 0.0342112 0.0319236 -0.0173091 -0.00290717 -0.00731551 0.00821385 0.032439 0.0177754 -0.0274928 -0.0142846 -0.00210109 -0.0467047 0.00998923 -0.0256972 -0.000829949 0.0140233 -0.00517167 0.0177486 -0.0381238 0.0280268 0.0201354 0.0070311 0.0331058 -0.0174102 0.00428371 0.0353195 0.0226259 0.0297137 0.0335488 0.0200929 -0.00933899 -0.0108354 0.0297532 0.0230653 0.0275276 0.0186734 0.0339331 0.0217622 -0.016165
internal_weight=1.05975e+06 530100 212040 122760 318060 529650 106020 61380 212040 89280 119025 106020 61380 63360 410625 95220 82125 59400 52500 106020 61380 13320 29700 328500 29700 23805 37200 26640 10560 29700 10656 6480 3840 3120 2640 29325 13125 20160 4560 15600 2400 720 49920 14640 5280 28620 7875 17595 278580 42720 52800 28620 5580 13200 1728 30000 12000 9360 25632 28620 5580 1080
internal_count=1059750 530100 212040 122760 318060 529650 106020 61380 212040 89280 119025 106020 61380 63360 410625 95220 82125 59400 52500 106020 61380 13320 29700 328500 29700 23805 37200 26640 10560 29700 10656 6480 3840 3120 2640 29325 13125 20160 4560 15600 2400 720 49920 14640 5280 28620 7875 17595 278580 42720 52800 28620 5580 13200 1728 30000 12000 9360 25632 28620 5580 1080
is_linear=0
shrinkage=0.05


Tree=12
num_leaves=63
num_cat=0
split_feature=1 6 2 2 6 7 2 2 6 6 10 2 2 6 11 7 7 7 2 2 2 10 7 7 7 6 6 7 2 0 6 7 8 2 7 7 9 2 7 6 0 0 9 2 0 7 10 9 6 10 8 9 2 0 6 7 2 0 8 6 8 0
split_gain=261080 122454 64154 162623 24374.3 21949.8 13868.8 35164.9 8079.01 6512.91 5874.69 5858.43 14922.3 4623.01 3200.87 3033.5 2697.15 2382.86 1933.64 1220.4 3248.76 1034.77 912.06 831.404 754.533 754.489 727.912 636.989 609.07 556.621 534.215 522.178 519.004 816.919 438.974 423.714 417.363 404.012 593.344 394.959 391.769 386.266 383.747 366.595 476.382 373.057 354.447 353.215 376.825 349.808 347.728 346.356 342.331 335.446 325.072 310.947 616.927 603.872 306.228 296.499 291.489 353.532
threshold=-1.0000000180025095e-35 24.500000000000004 3.5000000000000004 1.5000000000000002 25.500000000000004 27.100000000000005 3.5000000000000004 1.5000000000000002 26.500000000000004 23.500000000000004 114.30000000000001 3.5000000000000004 1.5000000000000002 23.500000000000004 1.0000000180025095e-35 26.100000000000005 29.100000000000005 30.900000000000002 4.5000000000000009 3.5000000000000004 1.5000000000000002 28.150000000000002 27.900000000000002 29.100000000000005 29.350000000000005 25.500000000000004 24.500000000000004 29.350000000000005 2.5000000000000004 -1.0000000180025095e-35 23.500000000000004 26.100000000000005 93.500000000000014 1.0000000180025095e-35 27.900000000000002 30.900000000000002 218.50000000000003 1.0000000180025095e-35 25.900000000000002 24.500000000000004 -0.9159756150367534 -1.0000000180025095e-35 218.50000000000003 1.5000000000000002 -1.0000000180025095e-35 24.500000000000004 28.150000000000002 75.500000000000014 24.500000000000004 114.30000000000001 99.500000000000014 218.50000000000003 2.5000000000000004 0.78656609248549325 24.500000000000004 25.900000000000002 1.5000000000000002 -1.0000000180025095e-35 97.000000000000014 25.500000000000004 93.500000000000014 -0.78656609248549292
decision_type=2 2 2 2 2 2 2 2 2 2 2 2 2 2 2 2 2 2 2 2 2 2 2 2 2 2 2 2 2 2 2 2 2 2 2 2 2 2 2 2 2 2 2 2 2 2 2 2 2 2 2 2 2 2 2 2 2 2 2 2 2 2
left_child=1 2 3 13 6 10 7 -3 11 -4 15 12 -6 -1 16 18 30 21 26 20 -10 34 -9 28 42 31 55 51 29 54 -7 -12 -31 -34 -5 49 -23 41 43 40 -18 -28 -14 44 -39 -46 -35 48 -17 -24 -45 -22 -32 -38 -16 56 57 -2 -59 -20 61 -40
right_child=5 4 9 17 8 14 -8 22 19 -11 25 -13 24 -15 23 47 39 -19 59 -21 27 36 35 -25 -26 -27 37 -29 -30 32 52 -33 33 46 -36 -37 53 38 60 -41 -42 -43 -44 50 45 -47 -48 -49 -50 -51 -52 -53 -54 -55 -56 -57 -58 58 -60 -61 -62 -63
leaf_value=-0.10001157042655094 -0.05879938619671319 -0.04598149603853622 -0.099993164216745714 -0.0052327581000551539 -0.019004774346496115 -0.0041020804938683578 -0.045965555451249564 -0.015356782771538109 0.0077988124768846191 -0.072984050381995444 -0.032350532306556309 -0.018939945068757808 0.00095611800889521556 -0.072999674945768686 0.0086331932252724126 0.014479047842100735 0.0051899636802080693 0.034035063215689873 0.012671435839674209 0.0080713871283760816 0.0034757993610615868 -0.019945586644442098 0.025347749417878113 0.034364375232182269 0.033852545389287274 -0.0055278990178372995 -0.0091303603187134295 0.034055932335982801 0.032303851420263589 0.035775567635910506 0.0059142180222848334 -0.013037738187596251 0.036859812272439507 0.020920250691398631 0.026558457153489447 0.034444444087987705 -0.007350433108232312 -0.052875821326893793 -0.022975935486869683 0.031758918914736645 0.025545548894604336 0.020328685850325118 0.029696090863969099 -0.054503818258406625 -0.071946724897457501 0.011817301858967835 0.0023335622758853076 0.042370081494251893 0.024375297776720758 -0.0059496256646916768 -0.0058041500956531114 0.030779724034139994 0.018046995570121762 0.030257178570686924 0.023144659433711176 -0.0065597900845704498 -0.055731491612534073 0.0096879176774012296 -0.024145376826995885 0.026879356884345923 -2.1180398135335505e-05 0.026314126615751679
leaf_weight=31680 576 31680 44640 1296 31680 5901 44640 1080 31680 44640 7875 44640 2940 31680 6432 16032 2712 46080 9180 44640 2940 2880 4464 211200 24840 9450 1440 24840 66180 14640 10368 6300 7440 10260 6696 23040 1440 432 432 31680 18408 4896 1920 1008 144 1728 3420 1920 24048 1116 576 1920 13236 1008 9648 10368 1056 1824 1056 6120 9360 2304
leaf_count=31680 576 31680 44640 1296 31680 5901 44640 1080 31680 44640 7875 44640 2940 31680 6432 16032 2712 46080 9180 44640 2940 2880 4464 211200 24840 9450 1440 24840 66180 14640 10368 6300 7440 10260 6696 23040 1440 432 432 31680 18408 4896 1920 1008 144 1728 3420 1920 24048 1116 576 1920 13236 1008 9648 10368 1056 1824 1056 6120 9360 2304
internal_value=-6.27869e-11 -0.0248068 -0.054239 -0.0307847 -0.00518536 0.0248279 -0.0247601 -0.009338 0.00460202 -0.0864886 0.00582946 -0.00515776 0.00486565 -0.0865056 0.0302812 0.0114047 0.0214619 0.0286509 0.00339211 0.0143618 0.0189367 0.0100244 0.0297484 0.0324861 0.0303274 -0.0164714 -0.00276182 0.030817 0.0291248 0.0250664 0.00935375 -0.0237671 0.0285407 0.0235255 0.0214031 0.0314505 -0.00704367 0.00294892 -0.00128638 0.028228 0.0229317 0.0136334 0.0123102 -0.0182781 -0.00554791 0.00537392 0.0162736 0.0214204 0.0204168 0.0190883 -0.0367948 0.0142625 0.0127177 0.00813505 0.0173401 -0.0113279 -0.0222845 -0.0120646 -0.00271762 0.0183546 0.00417526 0.0185315
internal_weight=1.05975e+06 530100 212040 122760 318060 529650 106020 61380 212040 89280 118125 106020 61380 63360 411525 94500 82305 59400 52500 106020 61380 13320 29700 329220 29700 23625 37200 29700 118020 51840 29505 14175 35760 21120 7992 28620 5328 22320 15984 52800 21120 6336 4860 3888 2304 1872 13680 42000 40080 5580 1584 4860 23604 2448 16080 14880 4512 3456 2880 15300 12096 2736
internal_count=1059750 530100 212040 122760 318060 529650 106020 61380 212040 89280 118125 106020 61380 63360 411525 94500 82305 59400 52500 106020 61380 13320 29700 329220 29700 23625 37200 29700 118020 51840 29505 14175 35760 21120 7992 28620 5328 22320 15984 52800 21120 6336 4860 3888 2304 1872 13680 42000 40080 5580 1584 4860 23604 2448 16080 14880 4512 3456 2880 15300 12096 2736
is_linear=0
shrinkage=0.05


Tree=13
num_leaves=63
num_cat=0
split_feature=1 6 2 2 6 7 2 2 6 6 10 2 2 6 11 7 7 7 2 2 2 7 7 7 6 6 10 7 6 0 2 2 10 9 0 7 7 2 6 7 9 7 6 7 7 8 7 2 0 8 8 8 8 0 6 0 10 1 8 9 8 10
split_gain=235625 110514 57899 146767 21997.8 19818.7 12516.6 31736.3 7291.3 5877.9 5375.22 5287.23 13467.4 4172.27 2850.24 2784.01 2388.16 2165.39 1745.11 1101.42 2932 828.12 762.422 708.855 695.854 679.888 670.734 598.929 495.849 440.667 482.142 444.535 414.2 385.68 379.072 375.411 367.988 388.629 340.309 338.561 335.623 331.695 321.163 349.041 314.384 311.14 309.338 489.657 513.442 302.119 301.945 299.549 296.219 295.386 292.912 292.032 290.635 290.538 340.129 299.911 282.991 279.374
threshold=1.0000000180025095e-35 24.500000000000004 3.5000000000000004 1.5000000000000002 25.500000000000004 27.350000000000005 3.5000000000000004 1.5000000000000002 26.500000000000004 23.500000000000004 114.30000000000001 3.5000000000000004 1.5000000000000002 23.500000000000004 1.0000000180025095e-35 26.100000000000005 29.100000000000005 29.350000000000005 4.5000000000000009 3.5000000000000004 1.5000000000000002 29.350000000000005 28.100000000000005 27.900000000000002 24.500000000000004 25.500000000000004 28.150000000000002 27.900000000000002 24.500000000000004 -1.0000000180025095e-35 1.5000000000000002 1.0000000180025095e-35 28.150000000000002 218.50000000000003 -0.9159756150367534 31.350000000000005 26.900000000000002 4.5000000000000009 23.500000000000004 26.100000000000005 218.50000000000003 27.900000000000002 24.500000000000004 30.900000000000002 30.900000000000002 89.500000000000014 25.900000000000002 1.5000000000000002 -1.0000000180025095e-35 93.500000000000014 93.500000000000014 93.500000000000014 93.500000000000014 -0.37940952255126065 25.500000000000004 -0.9159756150367534 28.150000000000002 -0.60355339059327384 83.500000000000014 113.50000000000001 84.500000000000014 114.30000000000001
decision_type=2 2 2 2 2 2 2 2 2 2 2 2 2 2 2 2 2 2 2 2 2 2 2 2 2 2 2 2 2 2 2 2 2 2 2 2 2 2 2 2 2 2 2 2 2 2 2 2 2 2 2 2 2 2 2 2 2 2 2 2 2 2
left_child=1 2 3 13 6 10 7 -3 11 -4 15 12 -6 -1 16 18 28 26 25 20 -10 33 29 51 39 32 40 52 53 30 31 50 46 -9 42 54 37 -26 -17 -12 -5 -28 43 -24 56 -32 47 48 -2 -33 -16 -14 -22 -7 55 -18 -25 58 -43 -60 -55 -19
right_child=5 4 9 17 8 14 -8 21 19 -11 24 -13 23 -15 22 38 35 61 -20 -21 27 -23 34 44 36 -27 41 -29 -30 -31 45 49 -34 -35 -36 -37 -38 -39 -40 -41 -42 57 -44 -45 -46 -47 -48 -49 -50 -51 -52 -53 -54 60 -56 -57 -58 -59 59 -61 -62 -63
leaf_value=-0.095010991069403541 -0.046558505173833302 -0.043682419733530035 -0.094993502771128044 0.006666896669116228 -0.018054536234192349 -0.012927604294877366 -0.043667277834748712 -0.0019970495211927468 0.0074088721748966566 -0.069334851373053799 -0.034603620779348004 -0.017992947962548998 0.012599242602481051 -0.069349689155516009 0.040363602247399516 0.011487178806854157 -0.0065555536539452291 0.033315721420254046 0.017436873672606882 0.0076678174900789795 0.016146104403616243 0.031953985113505633 0.00507639888900946 0.028980168739950192 -0.022714641420588207 0.0056549886984163383 -0.037772436267308272 0.030655454700007908 0.014330001177845539 0.028212454793554109 0.018994856937622838 0.00096644486570160849 -0.019940330897890126 0.026815210169552302 0.032537031694413875 0.0312288921802392 0.00047801441036200053 0.0015039948087973909 0.022643766477250846 -0.015647159486830067 0.031202649723341993 -0.060556122443328302 0.030811121099273128 0.025043061517242698 0.032890542680855665 0.039252989468813851 0.00027341589499765828 -0.042607350810940511 0.0021964647955754982 -0.041879689209066179 -0.00059332885415440417 -0.040393848958774473 -0.036551619935926281 0.020532236111598667 0.029096598465175674 0.020336154047384085 0.0056874094454190437 0.0099263892677299743 -0.058137436149020998 0.013323459257075088 0.00023501106970242236 0.023942003106194227
leaf_weight=31680 648 31680 44640 3528 31680 2856 44640 2940 31680 44640 5250 44640 600 31680 1200 8544 1080 39744 15300 44640 600 24840 2880 3348 5724 14880 864 28620 17595 35280 6720 2880 5580 1920 248580 25200 6228 2331 34176 4272 2304 384 18000 9120 23040 2640 11664 1188 3240 480 720 480 480 2328 11040 15480 2232 1824 192 624 6546 9936
leaf_count=31680 648 31680 44640 3528 31680 2856 44640 2940 31680 44640 5250 44640 600 31680 1200 8544 1080 39744 15300 44640 600 24840 2880 3348 5724 14880 864 28620 17595 35280 6720 2880 5580 1920 248580 25200 6228 2331 34176 4272 2304 384 18000 9120 23040 2640 11664 1188 3240 480 720 480 480 2328 11040 15480 2232 1824 192 624 6546 9936
internal_value=2.1663e-10 -0.0235665 -0.0515271 -0.0292455 -0.00492609 0.0235865 -0.0235221 -0.0088711 0.00437192 -0.0821642 0.00562194 -0.00489987 0.00462237 -0.0821803 0.0287938 0.0109347 0.0204624 0.0272183 0.00322251 0.0136437 0.0179898 0.028261 0.0308766 0.0288111 -0.015629 -0.00262373 0.0056358 0.0292762 0.0090214 0.0251863 0.0178937 0.00581254 -0.00814287 0.00938557 0.0318963 0.0268166 -0.00864914 -0.0157061 0.0204124 -0.0260989 0.01636 -0.0104506 0.0265871 0.0202511 0.0303116 0.0247087 -0.00421038 -0.0145136 -0.00592936 -0.00515443 0.0250048 -0.0109532 -0.00727511 0.0010585 0.022788 0.0185823 0.0196631 -0.0026443 -0.0217518 -0.00349087 0.00555977 0.031441
internal_weight=1.05975e+06 530100 212040 122760 318060 529650 106020 61380 212040 89280 119025 106020 61380 63360 410625 95220 82125 59400 52500 106020 61380 29700 328500 29700 23805 37200 9720 29700 29325 49920 14640 5280 22320 4860 278580 52800 14283 8055 42720 9522 5832 3888 30000 12000 28620 9360 16740 5076 3888 3360 1920 1080 1080 11730 27600 16560 5580 3024 1200 816 8874 49680
internal_count=1059750 530100 212040 122760 318060 529650 106020 61380 212040 89280 119025 106020 61380 63360 410625 95220 82125 59400 52500 106020 61380 29700 328500 29700 23805 37200 9720 29700 29325 49920 14640 5280 22320 4860 278580 52800 14283 8055 42720 9522 5832 3888 30000 12000 28620 9360 16740 5076 3888 3360 1920 1080 1080 11730 27600 16560 5580 3024 1200 816 8874 49680
is_linear=0
shrinkage=0.05


Tree=14
num_leaves=63
num_cat=0
split_feature=1 6 2 2 6 7 2 2 6 6 10 2 2 6 10 7 7 7 2 2 2 10 7 7 7 6 6 10 9 7 2 7 10 6 7 6 7 1 10 6 8 10 6 7 7 2 8 9 9 2 8 6 10 10 2 8 7 6 2 0 2 7
split_gain=212652 99739.2 52253.8 132457 19853 17886.4 11296.2 28642 6580.4 5304.8 4851.14 4771.73 12154.3 3765.47 2572.35 2512.57 2155.32 1976.66 1574.96 994.027 2646.13 894.013 777.946 700.397 639.741 638.97 613.599 560.366 552.817 549.402 467.074 425.25 373.816 371.786 355.361 353.459 345.775 338.648 325.127 324.246 315.039 312.696 303.623 283.732 279.178 445.413 277.817 272.934 272.018 271.809 270.343 268.028 263.946 263.709 252.75 335.34 255.97 251.903 240.182 234.257 232.884 217.335
threshold=-1.0000000180025095e-35 24.500000000000004 3.5000000000000004 1.5000000000000002 25.500000000000004 27.350000000000005 3.5000000000000004 1.5000000000000002 26.500000000000004 23.500000000000004 114.30000000000001 3.5000000000000004 1.5000000000000002 23.500000000000004 114.30000000000001 26.100000000000005 29.100000000000005 30.900000000000002 4.5000000000000009 3.5000000000000004 1.5000000000000002 114.30000000000001 27.900000000000002 29.100000000000005 27.900000000000002 25.500000000000004 25.500000000000004 28.150000000000002 218.50000000000003 29.350000000000005 2.5000000000000004 26.100000000000005 28.150000000000002 24.500000000000004 27.900000000000002 23.500000000000004 30.900000000000002 -0.78656609248549325 28.150000000000002 25.500000000000004 93.500000000000014 28.150000000000002 23.500000000000004 30.900000000000002 25.900000000000002 1.0000000180025095e-35 93.500000000000014 65.500000000000014 75.500000000000014 1.5000000000000002 93.500000000000014 24.500000000000004 114.30000000000001 28.150000000000002 1.0000000180025095e-35 93.500000000000014 25.900000000000002 23.500000000000004 3.5000000000000004 -0.9159756150367534 2.5000000000000004 31.100000000000005
decision_type=2 2 2 2 2 2 2 2 2 2 2 2 2 2 2 2 2 2 2 2 2 2 2 2 2 2 2 2 2 2 2 2 2 2 2 2 2 2 2 2 2 2 2 2 2 2 2 2 2 2 2 2 2 2 2 2 2 2 2 2 2 2
left_child=1 2 3 13 6 10 7 -3 11 -4 15 12 -6 -1 23 18 30 21 26 20 -10 28 46 27 50 31 32 57 34 41 42 58 44 60 40 49 38 -36 -24 48 -5 -22 -16 52 45 -2 -9 -32 53 -18 -14 -20 -26 -17 -28 -56 -57 -7 -12 -25 -29 -37
right_child=5 4 9 17 8 14 -8 22 19 -11 25 -13 24 -15 16 39 35 -19 51 -21 29 -23 36 59 43 -27 54 33 -30 -31 47 -33 -34 -35 37 61 -38 -39 -40 -41 -42 -43 -44 -45 -46 -47 -48 -49 -50 -51 -52 -53 -54 -55 55 56 -58 -59 -60 -61 -62 -63
leaf_value=-0.090260441276160286 0.0034211733799268829 -0.041498299909360506 -0.090243829166162831 0.006565787479190649 -0.017151808991576676 0.022879062145925461 -0.041483914993142572 0.0078728414332144888 0.0070384285669944915 -0.065868108142234094 -0.035932737762995937 -0.017093300786216521 0.011969280740716083 -0.065882206827101095 -0.013957135460454668 0.017713932000766642 0.0034417990010682689 0.030761260774764754 0.0084599053194471495 0.0072844270032439984 0.022793501963341515 -0.017014477602689922 0.027106864974063612 0.026714982242138675 0.024117177236543264 -0.0048148024453116356 0.015722454377939329 0.0053712171047975684 0.027721940487250692 0.030820362744229581 0.012955423062767778 -0.01197196377867378 -0.018943314131555193 0.024845872627534529 -0.012977065083721368 0.02408641749378174 0.03112452487203219 0.019483585653284275 0.0024706594557726697 0.024726863897953189 -0.041849498700797821 -0.0030950372838949975 0.0052647038405801115 0.031246014780049337 0.00025974553413186908 -0.026535353064215179 -0.043161813077240374 0.049099258586626365 0.039579288996497375 0.021939341357527065 -0.038374155877439385 0.021968446956056209 -0.0030691507119881473 0.0057292538592187189 0.019109625189819533 -0.017382924885180274 0.002118269822316133 0.029567848620213267 -0.017790530398965304 0.031692530215465392 0.01957165814814979 0.03126615035097071
leaf_weight=31680 2160 31680 44640 672 31680 17595 44640 600 31680 44640 5004 44640 600 31680 2568 18360 2652 46080 6120 44640 2916 2664 3348 27120 4464 9522 4224 5136 4896 24840 15945 6408 5580 17595 1056 22032 23040 3360 2232 17088 672 1944 10272 23040 11664 2916 480 540 1152 7908 480 9180 1116 6120 2112 2304 6240 70380 2871 184080 6594 20208
leaf_count=31680 2160 31680 44640 672 31680 17595 44640 600 31680 44640 5004 44640 600 31680 2568 18360 2652 46080 6120 44640 2916 2664 3348 27120 4464 9522 4224 5136 4896 24840 15945 6408 5580 17595 1056 22032 23040 3360 2232 17088 672 1944 10272 23040 11664 2916 480 540 1152 7908 480 9180 1116 6120 2112 2304 6240 70380 2871 184080 6594 20208
internal_value=9.46769e-12 -0.0223882 -0.0489507 -0.0277832 -0.00467979 0.0224072 -0.022346 -0.00842755 0.00415332 -0.078056 0.00534085 -0.00465488 0.00439125 -0.0780713 0.0273541 0.010388 0.0194392 0.0258574 0.00306138 0.0129615 0.0170903 0.00889268 0.0268479 0.0293328 0.0273705 -0.0148476 -0.00249254 0.0262348 0.0153695 0.0278124 0.00857033 -0.0215361 -0.00773572 0.0202491 0.00486986 0.0254758 0.0284199 0.0117213 0.0172524 0.0193918 -0.0176419 0.0124381 0.00142034 0.028796 -0.00399986 -0.0137879 -0.0148092 0.0141394 0.0158351 0.0172939 -0.0104056 0.016565 0.0186799 0.0147178 0.00537224 0.00126945 -0.00314048 0.0282301 -0.0293186 0.0310534 0.013354 0.0275213
internal_weight=1.05975e+06 530100 212040 122760 318060 529650 106020 61380 212040 89280 119025 106020 61380 63360 410625 95220 82125 59400 52500 106020 61380 13320 29700 328500 29700 23805 37200 117300 10656 29700 29325 14283 22320 29325 5760 52800 28620 4416 5580 42720 1344 4860 12840 28620 16740 5076 1080 16485 25632 10560 1080 15300 5580 24480 14880 10656 8544 87975 7875 211200 11730 42240
internal_count=1059750 530100 212040 122760 318060 529650 106020 61380 212040 89280 119025 106020 61380 63360 410625 95220 82125 59400 52500 106020 61380 13320 29700 328500 29700 23805 37200 117300 10656 29700 29325 14283 22320 29325 5760 52800 28620 4416 5580 42720 1344 4860 12840 28620 16740 5076 1080 16485 25632 10560 1080 15300 5580 24480 14880 10656 8544 87975 7875 211200 11730 42240
is_linear=0
shrinkage=0.05


Tree=15
num_leaves=63
num_cat=0
split_feature=1 6 2 2 6 7 2 2 6 6 2 2 7 10 6 10 7 2 11 7 2 2 10 7 8 0 2 0 7 2 7 0 2 7 6 0 10 2 6 2 2 1 8 9 8 2 7 7 2 0 7 1 2 8 0 0 7 2 0 10 0 8
split_gain=191918 90014.6 47159.1 119543 17917.4 16153.2 10194.8 25849.4 5938.81 4787.58 4306.48 10969.3 4082.38 3414.05 3398.34 2499.75 1783.93 1373.57 1266.23 945.436 897.11 2388.14 810.318 702.097 646.981 895.1 790.522 1012.87 779.097 593.758 577.367 537.907 718.319 516.866 491.341 556.425 447.887 434.178 393.629 388.003 376.371 706.05 582.784 371.627 354.032 352.916 494.254 348.019 342.574 475.97 337.719 338.823 322.894 505.409 536.639 320.525 312.062 306.562 747.971 296.388 293.25 290.241
threshold=1.0000000180025095e-35 24.500000000000004 3.5000000000000004 1.5000000000000002 25.500000000000004 26.650000000000002 3.5000000000000004 1.5000000000000002 26.500000000000004 23.500000000000004 3.5000000000000004 1.5000000000000002 28.100000000000005 114.30000000000001 23.500000000000004 114.30000000000001 30.900000000000002 4.5000000000000009 1.0000000180025095e-35 30.350000000000005 3.5000000000000004 1.5000000000000002 28.150000000000002 27.900000000000002 93.500000000000014 -0.78656609248549292 1.0000000180025095e-35 -1.0000000180025095e-35 25.900000000000002 2.5000000000000004 27.900000000000002 -1.0000000180025095e-35 3.5000000000000004 27.900000000000002 25.500000000000004 -0.60355339059327362 28.150000000000002 3.5000000000000004 25.500000000000004 3.5000000000000004 1.5000000000000002 0.91597561503675351 99.500000000000014 10.500000000000002 93.500000000000014 1.0000000180025095e-35 25.900000000000002 27.900000000000002 1.5000000000000002 -1.0000000180025095e-35 27.900000000000002 -0.60355339059327384 3.5000000000000004 99.500000000000014 0.91597561503675362 -0.9159756150367534 30.900000000000002 1.5000000000000002 0.91597561503675362 114.30000000000001 -0.37940952255126065 99.500000000000014
decision_type=2 2 2 2 2 2 2 2 2 2 2 2 2 2 2 2 2 2 2 2 2 2 2 2 2 2 2 2 2 2 2 2 2 2 2 2 2 2 2 2 2 2 2 2 2 2 2 2 2 2 2 2 2 2 2 2 2 2 2 2 2 2
left_child=1 2 3 14 6 15 7 -3 10 -4 11 -6 13 29 -1 17 22 24 19 34 21 -10 47 -9 25 39 27 -26 40 36 -13 32 -30 -23 35 -14 -7 45 -15 -2 41 43 -42 -28 -37 60 48 -5 49 -47 -24 -52 57 -54 -55 -20 59 58 -33 -25 -17 -50
right_child=5 4 9 16 8 12 -8 23 20 -11 -12 30 18 38 -16 37 -18 -19 55 -21 -22 33 50 56 26 -27 28 -29 31 -31 -32 52 -34 -35 -36 44 -38 -39 -40 -41 42 -43 -44 -45 -46 46 -48 -49 61 -51 51 -53 53 54 -56 -57 -58 -59 -60 -61 -62 -63
leaf_value=-0.085747421952811223 -0.051796699433285132 -0.039423384738690927 -0.08573163834737621 -0.0051990338692886372 -0.01629421884678493 0.019736444646463291 -0.03940971805844256 -0.014068766245462164 0.0066865070959060448 -0.062574701178885708 -0.016238635745246671 -0.0098853011213939825 -0.0079916322088235143 -0.006191133741023769 -0.062588096528944356 -0.05122819976310157 0.02922319862723536 0.015661952223702029 0.023924153614699073 0.026775333422058248 0.0069202053708948136 -0.0075332553437389531 -0.035269426663306284 0.022151493924273735 -0.025411074186034052 0.018417028390345435 -0.033403223900100046 0.015321970794871541 -0.0052174334030516759 0.025041730923561701 0.02735621919417433 -0.032455125428751862 0.050618962047932051 0.027703056347562444 0.022593228820880856 0.01961557452136542 0.0086922807095470046 -0.0094238028871251704 0.0071840822673869056 0.021612637979577208 -0.057827486924472309 0.041363908151785533 -0.0089920125881985773 0.015235013617457299 0.0042795652066356807 -0.11261859671937097 -0.025751370680014842 0.023107632368943348 -0.111189383041291 -0.022417505187980941 -0.016631127662886717 0.011113792387895491 -0.046438601867606247 -0.03859985607986649 0.067135612765947983 0.029395352921660341 0.029568298274996071 0.00041044368378096054 0.012342930760141322 -0.0066571547484879081 -0.0056675901307594893 -0.042262133903180565
leaf_weight=31680 720 31680 44640 1296 31680 36720 44640 1080 31680 44640 44640 1080 3492 13752 31680 420 46080 15540 30000 36780 44640 1080 864 4464 1920 6240 2160 7440 1440 42720 28620 2640 960 28620 13146 10296 12240 5025 9168 240 1680 480 960 480 5931 180 4080 6696 420 780 1968 2496 1200 240 240 248580 23040 7440 1440 1116 2220 240
leaf_count=31680 720 31680 44640 1296 31680 36720 44640 1080 31680 44640 44640 1080 3492 13752 31680 420 46080 15540 30000 36780 44640 1080 864 4464 1920 6240 2160 7440 1440 42720 28620 2640 960 28620 13146 10296 12240 5025 9168 240 1680 480 960 480 5931 180 4080 6696 420 780 1968 2496 1200 240 240 248580 23040 7440 1440 1116 2220 240
internal_value=-1.49673e-10 -0.0212687 -0.0465032 -0.0263941 -0.0044458 0.0212868 -0.0212287 -0.00800617 0.00394566 -0.0741532 -0.00442213 0.00417168 0.0246047 0.016419 -0.0741678 -0.00169286 0.0245645 0.00314239 0.0272986 0.0212685 0.0123135 0.0162358 0.00844804 0.0255055 -0.00198826 0.0115022 -0.00515008 0.00696647 -0.0104596 0.0207341 0.026002 -0.00465709 0.0171171 0.0264217 0.0151057 0.010114 0.0169754 -0.0210339 -0.000841047 -0.0334444 -0.0261747 -0.0144178 -0.0400691 -0.0245599 0.0140102 -0.0280291 -0.035029 0.0185174 -0.0583947 -0.0393302 -0.00665593 -0.00111784 -0.00861604 -0.0290939 0.0142679 0.0288062 0.0269989 -0.00562969 -0.016644 0.0163898 -0.0129159 -0.0861249
internal_weight=1.05975e+06 530100 212040 122760 318060 529650 106020 61380 212040 89280 106020 61380 462825 114600 63360 66825 59400 53460 348225 69645 106020 61380 13320 29700 37920 7200 30720 9360 21360 91680 29700 15600 2400 29700 32865 19719 48960 13365 22920 960 5760 3120 2640 2640 16227 8340 5700 7992 1620 960 5328 4464 13200 1680 480 278580 28620 11520 4080 5580 2640 660
internal_count=1059750 530100 212040 122760 318060 529650 106020 61380 212040 89280 106020 61380 462825 114600 63360 66825 59400 53460 348225 69645 106020 61380 13320 29700 37920 7200 30720 9360 21360 91680 29700 15600 2400 29700 32865 19719 48960 13365 22920 960 5760 3120 2640 2640 16227 8340 5700 7992 1620 960 5328 4464 13200 1680 480 278580 28620 11520 4080 5580 2640 660
is_linear=0
shrinkage=0.05


Tree=16
num_leaves=63
num_cat=0
split_feature=1 6 2 2 6 7 2 2 6 6 10 2 2 6 10 7 7 7 2 2 2 6 7 6 2 6 11 7 7 6 0 9 2 7 0 0 8 2 10 2 0 7 8 9 8 0 0 2 2 2 8 0 6 7 7 7 10 7 7 2 0 0
split_gain=173206 81238.2 42561.1 107887 16170.4 14672.2 9200.85 23329.1 5359.78 4320.8 3969.37 3886.6 9899.76 3067 2088.4 2022.55 2018.18 1620.41 1283.26 809.641 2155.29 747.292 633.642 578.767 573.006 572.258 538.351 538.079 483.669 427.961 590.105 427.798 424.011 659.206 469.295 404.839 512.384 524.691 372.249 364.24 591.027 451.339 406.925 321.754 312.322 492.735 374.426 422.64 328.354 300.803 352.53 377.718 294.381 293.571 291.859 281.636 275.646 272.169 271.822 318.792 263.977 261.624
threshold=-1.0000000180025095e-35 24.500000000000004 3.5000000000000004 1.5000000000000002 25.500000000000004 27.350000000000005 3.5000000000000004 1.5000000000000002 26.500000000000004 23.500000000000004 114.30000000000001 3.5000000000000004 1.5000000000000002 23.500000000000004 28.150000000000002 29.100000000000005 26.100000000000005 29.350000000000005 4.5000000000000009 3.5000000000000004 1.5000000000000002 25.500000000000004 27.900000000000002 23.500000000000004 2.5000000000000004 24.500000000000004 1.0000000180025095e-35 29.350000000000005 30.900000000000002 24.500000000000004 -0.9159756150367534 218.50000000000003 1.0000000180025095e-35 25.900000000000002 -1.0000000180025095e-35 -1.0000000180025095e-35 93.500000000000014 1.0000000180025095e-35 114.30000000000001 1.5000000000000002 -1.0000000180025095e-35 24.500000000000004 99.500000000000014 218.50000000000003 93.500000000000014 -0.78656609248549292 -1.0000000180025095e-35 3.5000000000000004 3.5000000000000004 3.5000000000000004 99.500000000000014 0.91597561503675362 23.500000000000004 32.100000000000009 31.350000000000005 30.900000000000002 28.150000000000002 28.100000000000005 26.900000000000002 4.5000000000000009 0.37940952255126054 -0.25881904510252113
decision_type=2 2 2 2 2 2 2 2 2 2 2 2 2 2 2 2 2 2 2 2 2 2 2 2 2 2 2 2 2 2 2 2 2 2 2 2 2 2 2 2 2 2 2 2 2 2 2 2 2 2 2 2 2 2 2 2 2 2 2 2 2 2
