tree
version=v4
num_class=1
num_tree_per_iteration=1
label_index=0
max_feature_idx=13
objective=regression
feature_names=outdoor_temp_c outdoor_rh_pct global_horizontal_radiation_wh_m2 wind_speed_m_s cloud_cover_pct hour_sin hour_cos dayofweek_sin dayofweek_cos month_sin month_cos office_hours_flag avg_setpoint_c detailed_area_m2
feature_infos=[11.1:32.200000000000003] [50:100] [0:405] [0.10000000000000001:7.9199999999999999] [0:100] [-1:1] [-1:1] [-0.97492791218182362:0.97492791218182362] [-0.90096886790241903:1] none none [0:1] [24.756493506493509:29.707792207792206] none
tree_sizes=866 888 897 887 898 900 886 883 896 894 974 895 889 974 973 978 891 898 967 972 886 818 970 885 882 967 884 968 882 883 969 823 888 893 961 984 890 885 906 973 905 912 983 824 909 903 982 892 913 977 893 907 994 987 906 994 892 891 979 981 999 889 892 892 914 914 910 993 998 911 998 978 1007 997 1002 1006 913 991 908 997 1003 1000 912 917 918 1005 915 831 832 995 830 1003 1003 923 915 1002 988 996 1000 904 999 998 1009 999 1004 919 917 998 1003 920 1001 1004 1002 1002 1005 996 915 992 1006 921 1002 1090 999 917 909 1005 913 917 1001 1002 1000 914 1000 1001 901 996 1068 1006 1001 915 1008 923 838 1004 911 1004 1005 1003 1005 919 920 1007 918 1003 1012 1004 1005 840 911 1001 919 1001 995 999 925 926 1005 843 929 1072 925 922 1007 913 917 1010 1014 998 1085 1013 1001 1008 925 913 912 898 1014 926 911 918 1007 926 927 988 925 917 832 912 918 1005 1005 998 921 1006 920 999 922 1005 921 918 1007 1002 1005 1008 920 1000 1007 925 1011 919 916 1086 927 924 924 832 1007 1009 922 921 998 931 1012 915 1011 995 915 922 915 921 928 920 920 1009 926 911 924 1009 829 915 915 925 1001 920 831 1000 926 1096 922 912 1002 1005 918 1012 1015 923 927 1008 902 1010 919 1005 1010 1013 921 921 1003 924 920 1003 1008 1007 1006 1001 920 920 920 922 1012 1089 924 1005 1006 1004 926 1010 1005 998 993 917 918 928 1008 1002 834 1009 1004 911 918 913 842 917 925 1010 1008 918 928 1008 922 1002 919 920 1007 918 917 926 933 921 1005 1010 923 1009 917 1009 924 914 921 1007 1018 833 1016 1101 927 928 1005 918 915 845 1008 1016 841 917 918 1016 1096 918 1014 913 1013 922 915 923 838 919 915 1004 1016 1010 919 1015 833 1011 1079 921 1014 1102 927 1012 1010 924 996 1013 931 922 930 929 925 930 993 1012 1005 926 836 1012 921 1002 924 926 921 926 918 1007 1008 1014 1006 927 1009 926 1011 1006 920 1010 925 914 917 930 1011 919 920 1005 1012 1003 909 845 921 837 1006 929 1014 1013 919 1009 932 923 1007 915 841 1007 929 1008 1013 1007 916 1015 1001 928 1011 923 923 1004 1000 923 1011 925 918 926 994 1008 1013 919 923 922 1009 842 927 935 927 1017 1009 1009 923 917 1014 924 832 921 996 1000 926 925 928 923 837 1007 931 911 1007 935 929 1013 839 1104 1002 835 1013 931 1012 924 923 999 904 1010 1018 929 924 1022 932 920 924 1011 842 843 928 1013 935 913 919 1006 1009 924 920 922 1018 1015 931 997 1011 919 931 1013 923 919 1010 1014 840 927 926 1007 927 922 839 836 925 1009 926 927 908 916 933 1017 920 1013 1012 934 1086 922 1012 930 1005 844 1011 931 905 923 907 1009 923 841 835 924 1019 1011 1098 1017 1009 825 844 997 1018 1103 925 1017 1017 1008 1013 928 923 1011 820 932 1012 1008 932 922 1000 933 1004 1009 1008 920 839 925 923 824 934 935 845 991 924 933 923 836 924 924 1013 924 924 1007 922 909 922 921 923 924 913 922 915 925 1012 914 1010 913 1008 1015 917 919 905 1009 929 928 924 927 922 827 1015 924 839 930 928 1020 922 929 930 929 835 928 835 924 844 827 1006 926 1007 929 931 841 994 919 1016 924 1013 1012 1008 910 1002 925 1014 932 1001 925 841 847 933 848 1017 922 910 920 1018 923 924 906 924 919 1017 845 922 928 1016 923 924 922 920 1008 932 1017 923 931 925 837 932 924 928 1017 928 926 913 919 1016 1006 922 920 933 1009 993 921 926 925 841 928 841 916 930 921 1010 1002 921 1014 921 1017 931 917 838 920 923 930 919 928 925 1018 1010 1007 824 930 925 919 922 922 926 1010 842 1004 1015 931 1009 922 1018 927 928 928 839 1008 923 1016 1015 930 1021 931 937 1008 922 840 1014 914 1012 923 928 1009 918 934 1016 911 905 913

Tree=0
num_leaves=9
num_cat=0
split_feature=12 12 5 5 7 7 6 3
split_gain=6.66959e+07 2.5241e+06 632668 106133 219191 1543.25 90.7753 2.32638
threshold=25.251623376623382 28.222402597402603 -0.25881904510252113 -0.5 -0.60785761079279388 -0.60785761079279388 0.38268343236508956 2.6850000000000005
decision_type=2 2 2 2 2 2 2 2
left_child=2 -2 -1 4 -3 6 -5 -7
right_child=1 3 -4 5 -6 7 -8 -9
leaf_value=233.4396478265119 211.17587285764674 202.88928444199667 229.03298546207611 202.83858885818745 205.97960601263151 203.054585794736 202.90484820013151 203.04510473133766
leaf_weight=159 122 128 167 107 104 174 100 103
leaf_count=159 122 128 167 107 104 174 100 103
internal_value=211.993 204.528 231.182 203.395 204.275 202.974 202.871 203.051
internal_weight=1164 838 326 716 232 484 207 277
internal_count=1164 838 326 716 232 484 207 277
is_linear=0
shrinkage=1


Tree=1
num_leaves=9
num_cat=0
split_feature=12 12 0 5 7 7 3 5
split_gain=6.23514e+07 2.33936e+06 490454 89625.3 205886 1260.94 118.735 3.95193
threshold=25.251623376623382 28.222402597402603 24.350000000000005 -0.5 -0.60785761079279388 -0.60785761079279388 2.6550000000000007 0.32075123873380545
decision_type=2 2 2 2 2 2 2 2
left_child=2 -2 -1 4 -3 6 -5 -7
right_child=1 3 -4 5 -6 7 -8 -9
leaf_value=16.338783953141196 -0.75111679327292524 -8.6889944172591616 20.151982125720465 -8.6512625451181453 -5.7475353240966802 -8.5382028367784297 -8.7255188791375424 -8.5261045837402349
leaf_weight=196 122 139 148 102 104 108 114 180
leaf_count=196 122 139 148 102 104 108 114 180
internal_value=-0.0381021 -7.17044 17.9793 -8.21884 -7.4301 -8.59913 -8.69045 -8.53064
internal_weight=1213 869 344 747 243 504 216 288
internal_count=1213 869 344 747 243 504 216 288
is_linear=0
shrinkage=0.05


Tree=2
num_leaves=9
num_cat=0
split_feature=12 12 5 5 6 8 7 7
split_gain=5.83196e+07 1.94964e+06 445114 75251.7 47692.6 1352.34 1953.75 4.03515
threshold=25.251623376623382 28.222402597402603 -0.25881904510252113 -0.5 0.44134171618254503 1.0000000180025095e-35 -1.0000000180025095e-35 1.0000000180025095e-35
decision_type=2 2 2 2 2 2 2 2
left_child=2 -2 -1 4 -3 7 -7 -5
right_child=1 3 -4 5 -6 6 -8 -9
leaf_value=19.394028930436999 -0.88479714923434793 -7.8512274946485254 15.775546575147054 -8.0900615039624668 -6.4384067893028263 -8.39452118646531 -8.108183470869486 -8.1024747367527166
leaf_weight=168 117 112 172 152 128 126 113 115
leaf_count=168 117 112 172 152 128 126 113 115
internal_value=0.0242791 -6.88573 17.5635 -7.82689 -7.09772 -8.17274 -8.25914 -8.09541
internal_weight=1203 863 340 746 240 506 239 267
internal_count=1203 863 340 746 240 506 239 267
is_linear=0
shrinkage=0.05


Tree=3
num_leaves=9
num_cat=0
split_feature=12 12 5 5 7 7 6 5
split_gain=4.72682e+07 1.9489e+06 497573 82794.7 174726 1292.36 125.908 3.86689
threshold=25.251623376623382 28.222402597402603 -0.25881904510252113 -0.5 -0.60785761079279388 -0.60785761079279388 0.38268343236508956 0.32075123873380545
decision_type=2 2 2 2 2 2 2 2
left_child=2 -2 -1 4 -3 6 -5 -7
right_child=1 3 -4 5 -6 7 -8 -9
leaf_value=18.077700362382114 -0.6112823947783439 -7.8808188302176339 14.14664861679077 -7.9010819601356435 -5.1262425116772929 -7.7070097743874726 -7.8235942802806893 -7.6947233494349891
leaf_weight=162 124 126 160 109 106 101 101 175
leaf_count=162 124 126 160 109 106 101 101 175
internal_value=-0.168813 -6.3997 16.1244 -7.39937 -6.62226 -7.77034 -7.86381 -7.69922
internal_weight=1164 842 322 718 232 486 210 276
internal_count=1164 842 322 718 232 486 210 276
is_linear=0
shrinkage=0.05


Tree=4
num_leaves=9
num_cat=0
split_feature=12 12 5 5 6 8 7 7
split_gain=4.55778e+07 1.70196e+06 439521 62622.7 35659.3 1279.85 1675.1 6.09183
threshold=25.251623376623382 28.222402597402603 -0.25881904510252113 -0.5 0.44134171618254503 1.0000000180025095e-35 -1.0000000180025095e-35 1.0000000180025095e-35
decision_type=2 2 2 2 2 2 2 2
left_child=2 -2 -1 4 -3 7 -7 -5
right_child=1 3 -4 5 -6 6 -8 -9
leaf_value=17.196919300158822 -0.68553565916467896 -7.0169079596536212 13.631313709730513 -7.2970173167533616 -5.7769506616107487 -7.5842105079243201 -7.3182347615559893 -7.3124568027732657
leaf_weight=168 122 114 178 147 118 131 108 113
leaf_count=168 122 114 178 147 118 131 108 113
internal_value=0.0561661 -6.15254 15.3626 -7.06495 -6.38624 -7.3805 -7.46402 -7.30373
internal_weight=1199 853 346 731 232 499 239 260
internal_count=1199 853 346 731 232 499 239 260
is_linear=0
shrinkage=0.05


Tree=5
num_leaves=9
num_cat=0
split_feature=12 12 2 6 7 6 1 7
split_gain=4.09295e+07 1.55023e+06 353039 115362 43921.5 25330.7 28387.3 2965.69
threshold=25.251623376623382 28.222402597402603 74.250000000000014 -0.89495246814786256 -0.60785761079279388 0.89495246814786289 93.500000000000014 -0.8783796973249266
decision_type=2 2 2 2 2 2 2 2
left_child=2 -2 -1 -4 7 6 -6 -3
right_child=1 4 3 -5 5 -7 -8 -9
leaf_value=12.377845477312803 -0.66454741570257381 -6.9481407466687664 14.703851751180796 16.953750539204432 -5.6354071617126467 -6.9516883593647423 -6.6631968288098351 -7.2424287640318585
leaf_weight=100 124 152 104 126 156 119 118 196
leaf_count=100 124 152 104 126 156 119 118 196
internal_value=-0.12344 -5.83892 14.8581 15.9364 -6.70481 -6.34257 -6.07803 -7.11389
internal_weight=1195 865 330 230 741 393 274 348
internal_count=1195 865 330 230 741 393 274 348
is_linear=0
shrinkage=0.05


Tree=6
num_leaves=9
num_cat=0
split_feature=12 12 5 5 6 7 6 1
split_gain=3.79624e+07 1.48807e+06 313120 55496.4 36909.7 570.043 92.5146 22.9963
threshold=25.251623376623382 28.222402597402603 -0.25881904510252113 -0.5 0.44134171618254503 -0.60785761079279388 0.13052619222005152 91.500000000000014
decision_type=2 2 2 2 2 2 2 2
left_child=2 -2 -1 4 -3 6 -5 -7
right_child=1 3 -4 5 -6 7 -8 -9
leaf_value=15.5377038504908 -0.52322808653116226 -6.4058109065464564 12.534065382986359 -6.7640091848845536 -5.1221620909372971 -6.6390999960243153 -6.6981551988989914 -6.6098110242821706
leaf_weight=183 128 105 165 101 120 109 113 174
leaf_count=183 128 105 165 101 120 109 113 174
internal_value=0.203216 -5.49185 14.1136 -6.37271 -5.7212 -6.66766 -6.72924 -6.62109
internal_weight=1198 850 348 722 225 497 214 283
internal_count=1198 850 348 722 225 497 214 283
is_linear=0
shrinkage=0.05


Tree=7
num_leaves=9
num_cat=0
split_feature=12 12 0 5 7 7 3 1
split_gain=3.41822e+07 1.147e+06 364227 53285.1 142511 511.003 73.8091 20.1154
threshold=25.251623376623382 28.222402597402603 24.350000000000005 -0.5 -0.60785761079279388 -0.60785761079279388 2.8350000000000004 91.500000000000014
decision_type=2 2 2 2 2 2 2 2
left_child=2 -2 -1 4 -3 6 -5 -7
right_child=1 3 -4 5 -6 7 -8 -9
leaf_value=12.150463584473897 -0.81633956257889917 -6.491747636937383 15.486063369682856 -6.3634791564941411 -4.0114838656257179 -6.3068407486225002 -6.4235007040841241 -6.2798345453598925
leaf_weight=197 123 134 140 100 102 116 105 170
leaf_count=197 123 134 140 100 102 116 105 170
internal_value=0.0608543 -5.28171 13.5362 -6.0372 -5.41977 -6.33397 -6.39422 -6.29079
internal_weight=1187 850 337 727 236 491 205 286
internal_count=1187 850 337 727 236 491 205 286
is_linear=0
shrinkage=0.05


Tree=8
num_leaves=9
num_cat=0
split_feature=12 12 5 5 7 8 7 7
split_gain=3.08853e+07 1.20846e+06 264525 50688 122814 992.102 992.566 35.5969
threshold=25.251623376623382 28.222402597402603 -0.25881904510252113 -0.5 -0.60785761079279388 1.0000000180025095e-35 -1.0000000180025095e-35 1.0000000180025095e-35
decision_type=2 2 2 2 2 2 2 2
left_child=2 -2 -1 4 -3 7 -7 -5
right_child=1 3 -4 5 -6 6 -8 -9
leaf_value=14.21504886982053 -0.46830712716410483 -6.1612169235471699 11.417076267104552 -5.9416243227516734 -3.8144854850769043 -6.1842930344974292 -5.9785331577930636 -5.9781922136034282
leaf_weight=172 127 126 166 164 100 136 103 112
leaf_count=172 127 126 166 164 100 136 103 112
internal_value=0.0183661 -4.97474 12.8409 -5.7471 -5.12284 -6.02104 -6.09562 -5.95646
internal_weight=1206 868 338 741 226 515 239 276
internal_count=1206 868 338 741 226 515 239 276
is_linear=0
shrinkage=0.05


Tree=9
num_leaves=9
num_cat=0
split_feature=12 12 5 5 7 8 7 7
split_gain=2.73025e+07 990458 259888 44465.3 113790 817.404 983.359 27.7412
threshold=25.251623376623382 28.222402597402603 -0.25881904510252113 -0.5 -0.60785761079279388 1.0000000180025095e-35 -1.0000000180025095e-35 1.0000000180025095e-35
decision_type=2 2 2 2 2 2 2 2
left_child=2 -2 -1 4 -3 7 -7 -5
right_child=1 3 -4 5 -6 6 -8 -9
leaf_value=13.410297227893356 -0.67512020051010024 -5.8593668864323547 10.633270658765522 -5.643956280394689 -3.6222100021815535 -5.8792475559914763 -5.6757618990811443 -5.6764092073602193
leaf_weight=169 127 130 168 149 101 129 110 118
leaf_count=169 127 130 168 149 101 129 110 118
internal_value=-0.0450408 -4.75327 12.0259 -5.45602 -4.88122 -5.71842 -5.78559 -5.6583
internal_weight=1201 864 337 737 231 506 239 267
internal_count=1201 864 337 737 231 506 239 267
is_linear=0
shrinkage=0.05


Tree=10
num_leaves=10
num_cat=0
split_feature=12 12 2 5 5 6 8 7 8
split_gain=2.46807e+07 1.07033e+06 327645 260838 32290.9 17056.6 707.177 780.59 22.6212
threshold=25.251623376623382 28.222402597402603 85.250000000000014 -0.25881904510252113 -0.5 0.44134171618254503 1.0000000180025095e-35 -1.0000000180025095e-35 -0.56174490092936669
decision_type=2 2 2 2 2 2 2 2 2
left_child=2 -2 -1 -4 5 -3 8 -8 -6
right_child=1 4 3 -5 6 -7 7 -9 -10
leaf_value=9.4251875404419945 -0.21041193689618792 -5.1612202090308781 14.231870898078469 10.76766396713257 -5.3936009172533383 -4.2741829293114799 -5.5801248080913837 -5.3973093428701731 -5.3638420845145616
leaf_weight=123 126 105 119 100 122 112 130 106 134
leaf_count=123 126 105 119 100 122 112 130 106 134
internal_value=0.176893 -4.45683 11.4902 12.65 -5.21148 -4.70339 -5.43558 -5.49801 -5.37802
internal_weight=1177 835 342 219 709 217 492 236 256
internal_count=1177 835 342 219 709 217 492 236 256
is_linear=0
shrinkage=0.05


Tree=11
num_leaves=9
num_cat=0
split_feature=12 12 0 5 7 8 7 7
split_gain=2.12174e+07 876068 257614 40746.6 100810 654.547 816.321 25.8956
threshold=25.251623376623382 28.222402597402603 24.350000000000005 -0.5 -0.60785761079279388 1.0000000180025095e-35 -1.0000000180025095e-35 1.0000000180025095e-35
decision_type=2 2 2 2 2 2 2 2
left_child=2 -2 -1 4 -3 7 -7 -5
right_child=1 3 -4 5 -6 6 -8 -9
leaf_value=9.4859310188874382 -0.31521844627443429 -5.3197548706054691 12.321394716898601 -5.0931397332085506 -3.2236158928781187 -5.3085684631347654 -5.1222568615062825 -5.1246998812245064
leaf_weight=197 121 125 135 153 106 125 111 113
leaf_count=197 121 125 135 153 106 125 111 113
internal_value=-0.0869987 -4.25679 10.6389 -4.90744 -4.35789 -5.16032 -5.22094 -5.10655
internal_weight=1186 854 332 733 231 502 236 266
internal_count=1186 854 332 733 231 502 236 266
is_linear=0
shrinkage=0.05


Tree=12
num_leaves=9
num_cat=0
split_feature=12 12 5 5 3 8 7 8
split_gain=1.96436e+07 754401 251367 30220.5 8945.65 551.935 661.598 20.7354
threshold=25.251623376623382 28.222402597402603 -0.25881904510252113 -0.5 2.6950000000000007 1.0000000180025095e-35 -1.0000000180025095e-35 -0.56174490092936669
decision_type=2 2 2 2 2 2 2 2
left_child=2 -2 -1 4 -3 7 -7 -5
right_child=1 3 -4 5 -6 6 -8 -9
leaf_value=11.61673244316421 -0.41379337626055251 -3.8525688972473149 8.881510573167068 -4.8673159360885627 -4.4826533029245779 -5.0359230311836782 -4.8696079963076428 -4.8383120488076319
leaf_weight=167 121 100 169 112 129 127 113 137
leaf_count=167 121 100 169 112 129 127 113 137
internal_value=0.025162 -4.06604 10.241 -4.68153 -4.20751 -4.90351 -4.95762 -4.85136
internal_weight=1175 839 336 718 229 489 240 249
internal_count=1175 839 336 718 229 489 240 249
is_linear=0
shrinkage=0.05


Tree=13
num_leaves=10
num_cat=0
split_feature=12 12 2 5 5 6 8 7 8
split_gain=1.77346e+07 678091 382247 269031 29942.3 18976.3 549.439 639.317 28.3066
threshold=25.251623376623382 28.222402597402603 85.250000000000014 -0.25881904510252113 -0.5 0.44134171618254503 1.0000000180025095e-35 -1.0000000180025095e-35 -0.56174490092936669
decision_type=2 2 2 2 2 2 2 2 2
left_child=2 -2 -1 -4 5 -3 8 -8 -6
right_child=1 4 3 -5 6 -7 7 -9 -10
leaf_value=7.3851550905328054 -0.42705965972528226 -4.4436664616950203 12.578172897080243 9.0719340978884233 -4.6236852948627778 -3.5242033295712227 -4.7865762531757357 -4.6209743963223753 -4.5911277126258527
leaf_weight=114 123 107 118 102 126 118 128 107 142
leaf_count=114 123 107 118 102 126 118 128 107 142
internal_value=-0.0287239 -3.86076 9.73494 10.9526 -4.4409 -3.96146 -4.65537 -4.71117 -4.60643
internal_weight=1185 851 334 220 728 225 503 235 268
internal_count=1185 851 334 220 728 225 503 235 268
is_linear=0
shrinkage=0.05


Tree=14
num_leaves=10
num_cat=0
split_feature=12 12 6 1 5 7 8 7 8
split_gain=1.62817e+07 555939 181392 36795.3 26632.5 89000 492.697 538.977 19.8821
threshold=25.251623376623382 28.222402597402603 -0.70710678118654757 73.500000000000014 -0.5 -0.60785761079279388 1.0000000180025095e-35 -1.0000000180025095e-35 -0.56174490092936669
decision_type=2 2 2 2 2 2 2 2 2
left_child=2 -2 3 -1 5 -3 8 -8 -6
right_child=1 4 -4 -5 6 -7 7 -9 -10
leaf_value=9.5699676027297969 -0.53438183439879861 -4.6318668849432649 7.8813424517126656 10.926346356391907 -4.3935359118277573 -2.677220637127034 -4.5451606234213466 -4.3951839622007602 -4.3654551161096453
leaf_weight=100 119 134 136 100 114 103 133 109 141
leaf_count=100 119 134 136 100 114 103 133 109 141
internal_value=-0.032376 -3.70456 9.29016 10.2482 -4.21853 -3.78238 -4.42651 -4.47761 -4.37801
internal_weight=1189 853 336 200 734 237 497 242 255
internal_count=1189 853 336 200 734 237 497 242 255
is_linear=0
shrinkage=0.05


Tree=15
num_leaves=10
num_cat=0
split_feature=12 12 0 6 5 7 8 7 7
split_gain=1.44233e+07 517538 290041 116818 27469.2 78620.7 415.275 521.798 17.781
threshold=25.251623376623382 28.222402597402603 24.850000000000005 -0.82968937203783677 -0.5 -0.60785761079279388 1.0000000180025095e-35 -1.0000000180025095e-35 1.0000000180025095e-35
decision_type=2 2 2 2 2 2 2 2 2
left_child=2 -2 3 -1 5 -3 8 -8 -6
right_child=1 4 -4 -5 6 -7 7 -9 -10
leaf_value=8.9274183368682856 -0.38395231164020044 -4.3954495183883173 10.755928688801703 6.5661875395341358 -4.1499557088216141 -2.5361440367925736 -4.3200009877445131 -4.1719272333547606 -4.1769358292366698
leaf_weight=100 115 124 122 110 150 105 131 109 103
leaf_count=100 115 124 122 110 150 105 131 109 103
internal_value=-0.00138371 -3.49924 8.81701 7.69058 -3.99544 -3.54293 -4.20563 -4.25275 -4.16094
internal_weight=1169 837 332 210 722 229 493 240 253
internal_count=1169 837 332 210 722 229 493 240 253
is_linear=0
shrinkage=0.05


Tree=16
num_leaves=9
num_cat=0
split_feature=12 12 2 5 7 8 7 7
split_gain=1.3178e+07 554707 184360 23103.4 74686.3 380.917 430.88 19.6572
threshold=25.251623376623382 28.222402597402603 136.75000000000003 -0.5 -0.60785761079279388 1.0000000180025095e-35 -1.0000000180025095e-35 1.0000000180025095e-35
decision_type=2 2 2 2 2 2 2 2
left_child=2 -2 -1 4 -3 7 -7 -5
right_child=1 3 -4 5 -6 6 -8 -9
leaf_value=7.5581919588111148 -0.24158059275427532 -4.1864572740138923 9.984906793697629 -3.9411423944363926 -2.4119476567919009 -4.1038984483288186 -3.9669518194465994 -3.9691699431492733
leaf_weight=199 129 133 129 157 107 124 107 104
leaf_count=199 129 133 129 157 107 124 107 104
internal_value=-0.0158185 -3.26474 8.5126 -3.79751 -3.39532 -3.9937 -4.04046 -3.95231
internal_weight=1189 861 328 732 240 492 231 261
internal_count=1189 861 328 732 240 492 231 261
is_linear=0
shrinkage=0.05


Tree=17
num_leaves=9
num_cat=0
split_feature=12 12 6 1 7 6 0 7
split_gain=1.21389e+07 422066 230811 65454.2 15663.6 7466.31 9064.07 1551.61
threshold=25.251623376623382 28.222402597402603 -0.70710678118654757 72.500000000000014 -0.60785761079279388 0.89495246814786289 20.750000000000004 -0.8783796973249266
decision_type=2 2 2 2 2 2 2 2
left_child=2 -2 3 -1 7 6 -6 -3
right_child=1 4 -4 -5 5 -7 -8 -9
leaf_value=8.2159348959922802 -0.41483401851493773 -3.7626020665322581 6.4727978589723438 10.020514896600554 -3.5311071816806137 -3.7520111015864779 -2.9436450338363649 -3.9778680235474972
leaf_weight=100 119 155 139 101 145 112 120 182
leaf_count=100 119 155 139 101 145 112 120 182
internal_value=0.0778948 -3.17169 8.03937 9.12271 -3.63116 -3.40974 -3.26509 -3.87886
internal_weight=1173 833 340 201 714 377 265 337
internal_count=1173 833 340 201 714 377 265 337
is_linear=0
shrinkage=0.05


Tree=18
num_leaves=10
num_cat=0
split_feature=12 12 2 5 5 3 8 6 5
split_gain=1.08495e+07 450851 218393 199646 19884.3 4943.98 296.131 55.6784 37.9216
threshold=25.251623376623382 28.222402597402603 85.250000000000014 -0.25881904510252113 -0.5 3.1850000000000005 1.0000000180025095e-35 0.38268343236508956 0.44134171618254497
decision_type=2 2 2 2 2 2 2 2 2
left_child=2 -2 -1 -4 5 -3 8 -8 -6
right_child=1 4 3 -5 6 -7 7 -9 -10
leaf_value=5.6904402979489035 -0.26142461950128731 -2.8197994054374051 9.6758397996425636 6.7568060377129804 -3.549501762040165 -3.2938718906884059 -3.6764148971409476 -3.6280555643933887 -3.5879397465632517
leaf_weight=116 132 118 128 108 109 103 103 141 156
leaf_count=116 132 118 128 108 109 103 103 141 156
internal_value=0.0699997 -2.95053 7.46686 8.34001 -3.43678 -3.04075 -3.60872 -3.64847 -3.57213
internal_weight=1214 862 352 236 730 221 509 244 265
internal_count=1214 862 352 236 730 221 509 244 265
is_linear=0
shrinkage=0.05


Tree=19
num_leaves=10
num_cat=0
split_feature=12 12 6 1 5 7 8 7 5
split_gain=9.97976e+06 322050 234203 84344.1 19427 65149 228.742 315.431 37.5826
threshold=25.251623376623382 28.222402597402603 -0.70710678118654757 71.500000000000014 -0.5 -0.60785761079279388 1.0000000180025095e-35 -1.0000000180025095e-35 0.44134171618254497
decision_type=2 2 2 2 2 2 2 2 2
left_child=2 -2 3 -1 5 -3 8 -8 -6
right_child=1 4 -4 -5 6 -7 7 -9 -10
leaf_value=7.1874951119422921 -0.39008269520987454 -3.6350996942231149 5.5843643859768592 9.2118100522824058 -3.3751885753566939 -1.9915667868949272 -3.5170798504446439 -3.4008434013084128 -3.4124833915807025
leaf_weight=100 113 132 141 106 118 111 127 108 158
leaf_count=100 113 132 141 106 118 111 127 108 158
internal_value=-0.0113546 -2.87933 7.15446 8.22913 -3.25239 -2.88435 -3.42741 -3.46366 -3.39654
internal_weight=1214 867 347 206 754 243 511 235 276
internal_count=1214 867 347 206 754 243 511 235 276
is_linear=0
shrinkage=0.05


Tree=20
num_leaves=9
num_cat=0
split_feature=12 12 5 5 6 8 6 5
split_gain=8.73793e+06 305896 230211 17334 8981.8 215.167 43.0636 31.2846
threshold=25.251623376623382 28.222402597402603 -0.25881904510252113 -0.5 0.44134171618254503 1.0000000180025095e-35 0.38268343236508956 0.44134171618254497
decision_type=2 2 2 2 2 2 2 2
left_child=2 -2 -1 4 -3 7 -7 -5
right_child=1 3 -4 5 -6 6 -8 -9
leaf_value=8.0995540731757352 -0.45763630757805046 -3.0851129404703777 5.5011758535407314 -3.2052062286520902 -2.4695164245717667 -3.3174807815551759 -3.2733807886800457 -3.2406435278077788
leaf_weight=169 131 105 172 106 136 100 124 151
leaf_count=169 131 105 172 106 136 100 124 151
internal_value=0.0239105 -2.68051 6.78894 -3.08383 -2.73772 -3.25725 -3.29307 -3.22603
internal_weight=1194 853 341 722 241 481 224 257
internal_count=1194 853 341 722 241 481 224 257
is_linear=0
shrinkage=0.05


Tree=21
num_leaves=8
num_cat=0
split_feature=12 12 2 7 5 7 5
split_gain=7.73307e+06 301660 252078 14325.8 39783.3 1166.52 38.5934
threshold=25.251623376623382 28.222402597402603 106.25000000000001 -0.60785761079279388 -0.32075123873380551 -0.8783796973249266 0.44134171618254497
decision_type=2 2 2 2 2 2 2
left_child=2 -2 -1 5 -5 -3 -6
right_child=1 3 -4 4 6 -7 -8
leaf_value=4.8189953150020708 -0.23646235746495867 -3.0805330932914439 7.583342818522083 -1.9557342622132428 -3.0587432823558847 -3.2644249448970877 -3.0985151303278937
leaf_weight=144 119 154 193 113 101 196 154
leaf_count=144 119 154 193 113 101 196 154
internal_value=0.00685665 -2.56807 6.40214 -2.9545 -2.73669 -3.18351 -3.08276
internal_weight=1174 837 337 718 368 350 255
internal_count=1174 837 337 718 368 350 255
is_linear=0
shrinkage=0.05


Tree=22
num_leaves=10
num_cat=0
split_feature=12 12 0 5 5 6 8 6 8
split_gain=7.53792e+06 310187 155066 93378.4 10818.2 6933.84 180.189 43.1027 26.9037
threshold=25.251623376623382 28.222402597402603 25.450000000000003 1.0000000180025095e-35 -0.5 0.44134171618254503 1.0000000180025095e-35 0.65793410509763406 -0.56174490092936669
decision_type=2 2 2 2 2 2 2 2 2
left_child=2 -2 3 -1 5 -3 8 -8 -6
right_child=1 4 -4 -5 6 -7 7 -9 -10
leaf_value=4.7533105652907803 -0.13271958884291762 -2.809576523419723 8.0955655740756622 6.7595340958443195 -2.9305924155495386 -2.2374488795569185 -2.9920893174365055 -2.9490035473721701 -2.898608958721161
leaf_weight=116 127 103 102 116 121 109 133 103 144
leaf_count=116 127 103 102 116 121 109 133 103 144
internal_value=0.117051 -2.40931 6.47077 5.75642 -2.81482 -2.51542 -2.94151 -2.97328 -2.91321
internal_weight=1174 840 334 232 713 212 501 236 265
internal_count=1174 840 334 232 713 212 501 236 265
is_linear=0
shrinkage=0.05


Tree=23
num_leaves=9
num_cat=0
split_feature=12 12 5 7 5 5 5 0
split_gain=6.32098e+06 214943 163826 12203.8 34659 1259.18 28.3302 11.4632
threshold=25.251623376623382 28.222402597402603 -0.25881904510252113 -0.60785761079279388 -0.32075123873380551 -0.5 0.44134171618254497 21.850000000000005
decision_type=2 2 2 2 2 2 2 2
left_child=2 -2 -1 5 -5 -3 -6 -7
right_child=1 3 -4 4 6 7 -8 -9
leaf_value=6.9501473323408378 -0.33583680537709021 -3.0030096887659146 4.7044554513861554 -1.7354509268488205 -2.7620654293135103 -2.7971051965441025 -2.7955471912062313 -2.8202159363089256
leaf_weight=166 114 135 159 112 102 112 166 103
leaf_count=166 114 135 159 112 102 112 166 103
internal_value=-0.0734635 -2.35499 5.85149 -2.67031 -2.47411 -2.88333 -2.7828 -2.80818
internal_weight=1169 844 325 730 380 350 268 215
internal_count=1169 844 325 730 380 350 268 215
is_linear=0
shrinkage=0.05


Tree=24
num_leaves=9
num_cat=0
split_feature=12 12 5 5 6 8 1 5
split_gain=5.75488e+06 255771 181043 10386.4 5249.83 171.85 39.1444 5.99919
threshold=25.251623376623382 28.222402597402603 -0.25881904510252113 -0.5 0.44134171618254503 -0.22252093395631442 93.500000000000014 0.55438071450436044
decision_type=2 2 2 2 2 2 2 2
left_child=2 -2 -1 4 -3 7 -7 -5
right_child=1 3 -4 5 -6 6 -8 -9
leaf_value=6.6513253870464517 -0.096500887833242344 -2.51891066794302 4.362915515397372 -2.6129097545848174 -2.0388968112856847 -2.6971145480512138 -2.660152436816503 -2.6299758085837732
leaf_weight=168 127 102 178 102 129 166 126 104
leaf_count=168 127 102 178 102 129 166 126 104
internal_value=0.0323502 -2.16722 5.47405 -2.52796 -2.25085 -2.65649 -2.68117 -2.62153
internal_weight=1202 856 346 729 231 498 292 206
internal_count=1202 856 346 729 231 498 292 206
is_linear=0
shrinkage=0.05


Tree=25
num_leaves=10
num_cat=0
split_feature=12 6 12 2 7 5 5 0 5
split_gain=5.26809e+06 219657 181928 24502.4 12061.6 31209.3 1470.29 19.6663 18.3499
threshold=25.251623376623382 -0.70710678118654757 28.222402597402603 138.75000000000003 -0.60785761079279388 -0.32075123873380551 -0.5 21.850000000000005 0.55438071450436044
decision_type=2 2 2 2 2 2 2 2 2
left_child=1 3 -2 -1 6 -6 -4 -8 -7
right_child=2 -3 4 -5 5 8 7 -9 -10
leaf_value=6.9154516352285258 -0.34253157501220705 3.7110030384514276 -2.7478506315999955 5.8140941346045771 -1.5237110950635828 -2.4956206945939501 -2.5233118123021621 -2.5534093202329151 -2.5223952586354774
leaf_weight=101 125 127 134 101 115 110 116 102 153
leaf_count=101 125 127 134 101 115 110 116 102 153
internal_value=-0.0362081 5.34037 -2.10509 6.36477 -2.4069 -2.21077 -2.61751 -2.53739 -2.5112
internal_weight=1184 329 855 202 730 378 352 218 263
internal_count=1184 329 855 202 730 378 352 218 263
is_linear=0
shrinkage=0.05


Tree=26
num_leaves=9
num_cat=0
split_feature=12 5 5 5 7 6 6 1
split_gain=4.37959e+06 217207 170324 8275.02 10121.5 906.023 55.7821 25.7251
threshold=25.251623376623382 -0.89495246814786256 -0.25881904510252113 -0.5 -0.8783796973249266 -0.19467261866128607 0.94490267940017758 93.500000000000014
decision_type=2 2 2 2 2 2 2 2
left_child=2 -2 -1 -3 -5 -6 7 -7
right_child=1 3 -4 4 5 6 -8 -9
leaf_value=5.8860128957171778 0.16964640257493505 -1.9276757307113357 3.640849484018533 -1.929223538233229 -2.5644134289285412 -2.4343489538948493 -2.3725294844012397 -2.4014915312037748
leaf_weight=172 106 157 166 121 115 106 107 136
leaf_count=172 106 157 166 121 115 106 107 136
internal_value=-0.0292879 -1.94754 4.78336 -2.24999 -2.33649 -2.4427 -2.40259 -2.41588
internal_weight=1186 848 338 742 585 464 349 242
internal_count=1186 848 338 742 585 464 349 242
is_linear=0
shrinkage=0.05


Tree=27
num_leaves=10
num_cat=0
split_feature=12 12 5 5 7 5 5 3 3
split_gain=4.30316e+06 188136 129660 65688.7 11998.2 34358.2 2113.74 8.7318 7.72174
threshold=25.251623376623382 28.222402597402603 1.0000000180025095e-35 -0.70710678118654735 -0.60785761079279388 -0.44134171618254464 -0.5 2.6550000000000007 2.5250000000000004
decision_type=2 2 2 2 2 2 2 2 2
left_child=2 -2 3 -1 6 -6 -3 -8 -7
right_child=1 4 -4 -5 5 8 7 -9 -10
leaf_value=4.9075226056693815 -0.05214265982309977 -2.5491218707140755 6.0178766452349155 3.1172677480257476 -1.2045524905709659 -2.2660629283747027 -2.2878516159057618 -2.3077821340717253 -2.2827309559967559
leaf_weight=101 120 136 130 104 102 169 100 122 118
leaf_count=101 120 136 130 104 102 169 100 122 118
internal_value=-0.0301863 -1.88981 4.78263 3.9993 -2.18502 -1.99278 -2.3939 -2.2988 -2.27292
internal_weight=1202 867 335 205 747 389 358 222 287
internal_count=1202 867 335 205 747 389 358 222 287
is_linear=0
shrinkage=0.05


Tree=28
num_leaves=9
num_cat=0
split_feature=12 5 0 5 7 6 7 3
split_gain=3.93133e+06 181754 167306 5308.73 8001.49 1512.49 56.31 6.81927
threshold=25.251623376623382 -0.89495246814786256 23.950000000000003 -0.5 -0.8783796973249266 -0.19467261866128607 -1.0000000180025095e-35 2.2050000000000005
decision_type=2 2 2 2 2 2 2 2
left_child=2 -2 -1 -3 -5 -6 -7 -8
right_child=1 3 -4 4 5 6 7 -9
leaf_value=3.5055662891407708 0.12545898578785084 -1.7956091338641025 5.7074671537448198 -1.774044589996338 -2.375658219707899 -2.1969857826507346 -2.147430207796186 -2.1647237918416007
leaf_weight=193 108 146 156 125 121 139 107 122
leaf_count=193 108 146 156 125 121 139 107 122
internal_value=0.00810783 -1.79386 4.4898 -2.06661 -2.13105 -2.2223 -2.17188 -2.15664
internal_weight=1217 868 349 760 614 489 368 229
internal_count=1217 868 349 760 614 489 368 229
is_linear=0
shrinkage=0.05


Tree=29
num_leaves=9
num_cat=0
split_feature=12 12 2 7 5 5 1 0
split_gain=3.3512e+06 187592 126003 11666.8 29328.9 2697.34 16.3037 6.54452
threshold=25.251623376623382 28.222402597402603 113.00000000000001 -0.60785761079279388 -0.44134171618254464 -0.5 93.500000000000014 21.850000000000005
decision_type=2 2 2 2 2 2 2 2
left_child=2 -2 -1 5 -5 -3 -6 -7
right_child=1 3 -4 4 6 7 -8 -9
leaf_value=3.2010020394868492 0.17269881054506464 -2.3635849028143263 5.1435303273174053 -1.0634491614925052 -2.0641195556640626 -2.0682361035733612 -2.0398143409134506 -2.0855246120029025
leaf_weight=158 118 131 177 103 125 111 154 108
leaf_count=158 118 131 177 103 125 111 154 108
internal_value=-0.00808477 -1.67735 4.22735 -1.97558 -1.78451 -2.18412 -2.0507 -2.07676
internal_weight=1185 850 335 732 382 350 279 219
internal_count=1185 850 335 732 382 350 279 219
is_linear=0
shrinkage=0.05


Tree=30
num_leaves=10
num_cat=0
split_feature=12 5 6 5 5 7 6 6 7
split_gain=3.09941e+06 143883 136336 433027 6618.73 6641.78 2055 47.1388 48.8108
threshold=25.251623376623382 -0.89495246814786256 -0.70710678118654757 1.0000000180025095e-35 -0.5 -0.8783796973249266 -0.19467261866128607 0.94490267940017758 -1.0000000180025095e-35
decision_type=2 2 2 2 2 2 2 2 2
left_child=2 -2 3 -1 -3 -6 -7 8 -8
right_child=1 4 -4 -5 5 6 7 -9 -10
leaf_value=2.5829138606202369 0.065114477702549522 -1.573652808840682 2.808849424304384 7.2131502799987803 -1.611864007364108 -2.202111194873678 -1.9982917747497559 -1.9315084277458912 -1.9528843452190534
leaf_weight=102 112 164 132 100 127 116 100 106 145
leaf_count=102 112 164 132 100 127 116 100 106 145
internal_value=-0.0358262 -1.60767 4.0585 4.87511 -1.85484 -1.93247 -2.01966 -1.95937 -1.97142
internal_weight=1204 870 334 202 758 594 467 351 245
internal_count=1204 870 334 202 758 594 467 351 245
is_linear=0
shrinkage=0.05


Tree=31
num_leaves=8
num_cat=0
split_feature=12 12 6 2 5 6 1
split_gain=2.76715e+06 156675 151920 3828.58 9189.17 22.1312 15.3525
threshold=25.251623376623382 28.222402597402603 -0.70710678118654757 1.0000000180025095e-35 -0.44134171618254464 0.94490267940017758 92.500000000000014
decision_type=2 2 2 2 2 2 2
left_child=2 -2 -1 4 -3 6 -6
right_child=1 3 -4 -5 5 -7 -8
leaf_value=4.7405022014271134 0.089585148271664181 -1.3992060799434267 2.5653007804022896 -2.0286299576630462 -1.8815738490649634 -1.8424853324890138 -1.8581184758366764
leaf_weight=198 129 145 135 148 112 134 185
leaf_count=198 129 145 135 148 112 134 185
internal_value=-0.00675532 -1.51576 3.85866 -1.8018 -1.74352 -1.85935 -1.86696
internal_weight=1186 853 333 724 576 431 297
internal_count=1186 853 333 724 576 431 297
is_linear=0
shrinkage=0.05


Tree=32
num_leaves=9
num_cat=0
split_feature=12 5 12 7 5 5 1 1
split_gain=2.62333e+06 204459 124705 11677.5 23774.7 4167.75 12.9621 2.37061
threshold=25.251623376623382 -0.25881904510252113 28.222402597402603 -0.60785761079279388 -0.44134171618254464 -0.5 93.500000000000014 88.500000000000014
decision_type=2 2 2 2 2 2 2 2
left_child=1 -1 -2 5 -5 -4 -6 -7
right_child=2 -3 3 4 6 7 -8 -9
leaf_value=5.0474440892537444 0.015900217900510695 2.5579128225644432 -2.1352619746152093 -0.86968787850685492 -1.7678314098413441 -1.7762780720332885 -1.7464233700982454 -1.7867796189194427
leaf_weight=162 122 168 136 103 138 106 145 109
leaf_count=162 122 168 136 103 138 106 145 109
internal_value=-0.00912947 3.78005 -1.46481 -1.70992 -1.52013 -1.91863 -1.75686 -1.7816
internal_weight=1189 330 859 737 386 351 283 215
internal_count=1189 330 859 737 386 351 283 215
is_linear=0
shrinkage=0.05


Tree=33
num_leaves=9
num_cat=0
split_feature=11 2 5 5 5 6 6 8
split_gain=2.08428e+06 892321 139474 25846.2 2329.32 3382.94 36.6988 17.937
threshold=1.0000000180025095e-35 43.500000000000007 1.0000000180025095e-35 -0.82968937203783699 -0.5 -0.44134171618254464 0.94490267940017758 -0.22252093395631442
decision_type=2 2 2 2 2 2 2 2
left_child=3 -2 -3 -1 -5 -6 7 -7
right_child=1 2 -4 4 5 6 -8 -9
leaf_value=-0.77713477025266553 -0.92260432462079811 3.5416590958833698 5.7745816092057662 -1.3704314215977986 -1.3595421218872072 -1.6715522681342234 -1.6529969684539303 -1.6958703928600158
leaf_weight=122 109 192 110 120 105 135 124 173
leaf_count=122 109 192 110 120 105 135 124 173
internal_value=0.0744603 2.95533 4.35498 -1.44548 -1.56959 -1.61409 -1.67596 -1.68521
internal_weight=1190 411 302 779 657 537 432 308
internal_count=1190 411 302 779 657 537 432 308
is_linear=0
shrinkage=0.05


Tree=34
num_leaves=10
num_cat=0
split_feature=12 6 5 1 5 5 2 3 6
split_gain=2.05888e+06 137966 114075 45312 4994.47 2111.87 2446.69 131.558 40.1066
threshold=25.251623376623382 -0.70710678118654757 -0.89495246814786256 72.500000000000014 0.82968937203783699 -0.5 19.250000000000004 2.4150000000000005 0.94490267940017758
decision_type=2 2 2 2 2 2 2 2 2
left_child=1 3 -2 -1 5 -4 8 -6 -7
right_child=2 -3 4 -5 7 6 -8 -9 -10
leaf_value=3.3606380292684728 0.189985567814595 2.0749159608568468 -1.2926624064232894 4.8510703855347863 -1.7743302907943725 -1.6084882293208953 -1.3016303062438965 -1.6959152026798414 -1.5687985075844659
leaf_weight=101 111 140 157 103 100 155 100 115 108
leaf_count=101 111 140 157 103 100 155 100 115 108
internal_value=0.0221354 3.28364 -1.30406 4.11316 -1.52969 -1.44588 -1.51215 -1.73239 -1.59219
internal_weight=1190 344 846 204 735 520 363 215 263
internal_count=1190 344 846 204 735 520 363 215 263
is_linear=0
shrinkage=0.05


Tree=35
num_leaves=10
num_cat=0
split_feature=12 12 0 6 7 6 1 1 6
split_gain=1.94183e+06 91630.1 65269.5 57530.4 11474.1 2960.07 2370.14 963.574 1131.43
threshold=25.251623376623382 28.222402597402603 25.450000000000003 -0.75023006073889131 -0.60785761079279388 0.89495246814786289 92.500000000000014 91.500000000000014 -0.32075123873380501
decision_type=2 2 2 2 2 2 2 2 2
left_child=2 -2 3 -1 7 6 -6 8 -3
right_child=1 4 -4 -5 5 -7 -8 -9 -10
leaf_value=3.4171688812366434 -0.0013596104412544065 -1.6124369115829467 4.2611453330162723 1.8598770948556755 -1.0650664348602294 -1.5009856106942161 -1.3653104977729995 -1.5598836439960408 -1.8326409823553904
leaf_weight=138 123 100 101 104 150 114 117 106 140
leaf_count=138 123 100 101 104 150 114 117 106 140
internal_value=0.0179633 -1.26346 3.1935 2.74792 -1.47699 -1.2877 -1.19663 -1.68544 -1.74089
internal_weight=1193 850 343 242 727 381 267 346 240
internal_count=1193 850 343 242 727 381 267 346 240
is_linear=0
shrinkage=0.05


Tree=36
num_leaves=9
num_cat=0
split_feature=11 2 5 5 5 7 7 3
split_gain=1.48689e+06 640075 165254 22656.6 2390.7 3199.42 82.1723 16.3809
threshold=1.0000000180025095e-35 43.500000000000007 1.0000000180025095e-35 -0.82968937203783699 -0.5 -0.8783796973249266 -0.60785761079279388 2.6850000000000005
decision_type=2 2 2 2 2 2 2 2
left_child=3 -2 -3 -1 -5 -6 -7 -8
right_child=1 2 -4 4 5 6 7 -9
leaf_value=-0.59302172934422737 -0.82760254365426522 2.7642267090235002 5.1672884662594418 -1.1280294758340588 -1.1628656794474677 -1.4806933015584947 -1.4228935921329191 -1.4476133477797202
leaf_weight=122 108 195 113 115 130 128 174 109
leaf_count=122 108 195 113 115 130 128 174 109
internal_value=0.0715243 2.48449 3.64587 -1.2187 -1.33506 -1.37907 -1.44745 -1.43241
internal_weight=1194 416 308 778 656 541 411 283
internal_count=1194 416 308 778 656 541 411 283
is_linear=0
shrinkage=0.05


Tree=37
num_leaves=9
num_cat=0
split_feature=12 5 12 7 5 5 5 3
split_gain=1.62128e+06 223940 105846 9983.72 13000 5906.87 29.5609 2.79003
threshold=25.251623376623382 -0.25881904510252113 28.222402597402603 -0.60785761079279388 -0.32075123873380551 -0.5 0.44134171618254497 2.8350000000000004
decision_type=2 2 2 2 2 2 2 2
left_child=1 -1 -2 5 -5 -4 -6 -7
right_child=2 -3 3 4 6 7 -8 -9
leaf_value=4.2688457409064924 0.29992899724415373 1.6871549674039763 -1.8164057363675337 -0.71852968533833828 -1.3372973415339107 -1.3827234343478556 -1.3707316861676344 -1.3939923151484077
leaf_weight=167 112 169 127 111 107 114 173 106
leaf_count=167 112 169 127 111 107 114 173 106
internal_value=0.0299807 2.97032 -1.13232 -1.34968 -1.17643 -1.54489 -1.35795 -1.38815
internal_weight=1186 336 850 738 391 347 280 220
internal_count=1186 336 850 738 391 347 280 220
is_linear=0
shrinkage=0.05


Tree=38
num_leaves=9
num_cat=0
split_feature=12 5 5 5 7 5 5 7
split_gain=1.25737e+06 150768 99402.7 5981.91 3344.25 8944.6 3512.71 1247.63
threshold=25.251623376623382 -0.25881904510252113 -0.89495246814786256 0.82968937203783699 -0.60785761079279388 -0.32075123873380551 -0.25881904510252113 -1.0000000180025095e-35
decision_type=2 2 2 2 2 2 2 2
left_child=1 -1 -2 4 6 -6 -4 -5
right_child=2 -3 3 7 5 -7 -8 -9
leaf_value=3.6092727479480562 0.35530736290405845 1.4714626076780721 -1.5328214933287425 -1.3693739806380227 -0.70126769767617292 -1.2871636458402556 -1.1573159928353418 -1.6070935215866358
leaf_weight=168 107 162 106 107 106 169 151 114
leaf_count=168 107 162 106 107 106 169 151 114
internal_value=-0.063931 2.5598 -1.07071 -1.27335 -1.18252 -1.06133 -1.31219 -1.492
internal_weight=1190 330 860 753 532 275 257 221
internal_count=1190 330 860 753 532 275 257 221
is_linear=0
shrinkage=0.05


Tree=39
num_leaves=10
num_cat=0
split_feature=11 2 5 7 5 5 7 5 1
split_gain=1.04932e+06 435516 176449 21557.5 73137 10071.6 1640.22 243.319 11.4331
threshold=1.0000000180025095e-35 43.500000000000007 1.0000000180025095e-35 -0.60785761079279388 -0.55438071450436044 -0.5 -0.8783796973249266 0.19467261866128641 94.500000000000014
decision_type=2 2 2 2 2 2 2 2 2
left_child=3 -2 -3 5 -5 -1 -7 -6 -9
right_child=1 2 -4 4 7 6 -8 8 -10
leaf_value=-1.6943925297449507 -0.64813962069424713 2.1526672842514576 4.6939767177288347 0.34649178866043834 -1.127835964202881 -1.0200951311323379 -1.2718392788019397 -1.234087841533055 -1.2106923206179749
leaf_weight=126 110 199 104 103 100 126 133 107 102
leaf_count=126 110 199 104 103 100 126 133 107 102
internal_value=0.00119503 2.04663 3.02493 -1.05874 -0.807362 -1.32774 -1.14937 -1.19198 -1.22267
internal_weight=1210 413 303 797 412 385 259 309 209
internal_count=1210 413 303 797 412 385 259 309 209
is_linear=0
shrinkage=0.05


Tree=40
num_leaves=9
num_cat=0
split_feature=12 0 5 5 6 7 5 5
split_gain=1.10781e+06 139635 79459.2 4102.94 2275.82 1981.53 4525.41 3546.87
threshold=25.251623376623382 24.450000000000003 -0.89495246814786256 0.82968937203783699 0.13052619222005152 -0.60785761079279388 -0.13052619222005171 -0.32075123873380551
decision_type=2 2 2 2 2 2 2 2
left_child=1 -1 -2 5 -5 7 -7 -4
right_child=2 -3 3 4 -6 6 -8 -9
leaf_value=1.5776223570857217 0.32509146110684267 3.6702084935697403 -1.4151822996611643 -1.486235613510257 -1.1687111854553223 -0.74717104434967041 -1.1648768146316726 -1.0380964952012512
leaf_weight=199 102 133 101 122 105 112 154 163
leaf_count=199 102 133 101 122 105 112 154 163
internal_value=-0.0369512 2.41592 -0.984975 -1.1615 -1.33936 -1.08532 -0.989001 -1.18236
internal_weight=1191 332 859 757 227 530 266 264
internal_count=1191 332 859 757 227 530 266 264
is_linear=0
shrinkage=0.05


Tree=41
num_leaves=9
num_cat=0
split_feature=12 5 5 5 7 5 5 7
split_gain=1.20794e+06 110486 80789.7 4653.02 1907.85 5110.18 3007.12 722.079
threshold=25.251623376623382 -0.25881904510252113 -0.89495246814786256 0.82968937203783699 -0.60785761079279388 -0.32075123873380551 -0.19467261866128624 -1.0000000180025095e-35
decision_type=2 2 2 2 2 2 2 2
left_child=1 -1 -2 4 6 -6 -4 -5
right_child=2 -3 3 7 5 -7 -8 -9
leaf_value=3.4505409717559816 0.40001422409872406 1.6592961155284536 -1.3056603145599366 -1.1872592061479517 -0.65225157296216052 -1.1002621146171323 -0.96049422508961446 -1.3655566656885068
leaf_weight=180 103 165 110 107 108 155 148 121
leaf_count=180 103 165 110 107 108 155 148 121
internal_value=0.0977895 2.59386 -0.912943 -1.0935 -1.01105 -0.916288 -1.10766 -1.28188
internal_weight=1197 345 852 749 521 263 258 228
internal_count=1197 345 852 749 521 263 258 228
is_linear=0
shrinkage=0.05


Tree=42
num_leaves=10
num_cat=0
split_feature=12 6 12 1 7 6 1 6 1
split_gain=890367 108338 80924.7 26405.6 8436.37 1776.17 1447.13 1695.12 1092.64
threshold=25.251623376623382 -0.70710678118654757 28.222402597402603 73.500000000000014 -0.60785761079279388 0.89495246814786289 92.500000000000014 -0.32075123873380501 93.500000000000014
decision_type=2 2 2 2 2 2 2 2 2
left_child=1 3 -2 -1 6 8 7 -4 -6
right_child=2 -3 4 -5 5 -7 -8 -9 -10
leaf_value=2.3099691995299692 0.29136676602065564 1.0553421967117875 -1.1585107494283606 3.4504964080511358 -0.75148818969726561 -1.0722314242658946 -1.0852861262784146 -1.4194078101592811 -0.95389962583525567
leaf_weight=101 128 135 108 102 155 116 101 147 117
leaf_count=101 128 135 108 102 155 116 101 147 117
internal_value=-0.0254778 2.15304 -0.869905 2.88304 -1.06969 -0.908417 -1.24547 -1.30891 -0.838555
internal_weight=1210 338 872 203 744 388 356 255 272
internal_count=1210 338 872 203 744 388 356 255 272
is_linear=0
shrinkage=0.05


Tree=43
num_leaves=8
num_cat=0
split_feature=12 6 12 2 5 5 6
split_gain=719584 121462 54901.7 4357.93 2340.14 34.3719 61.8852
threshold=25.251623376623382 -0.70710678118654757 28.222402597402603 1.0000000180025095e-35 -0.44134171618254464 0.82968937203783699 0.94490267940017758
decision_type=2 2 2 2 2 2 2
left_child=1 -1 -2 4 -4 6 -6
right_child=2 -3 3 -5 5 -7 -8
leaf_value=2.7214288999163916 0.14185320810109628 0.75350813936831351 -0.78403325280835556 -1.2443252101448012 -1.0412921571427851 -0.99091035359865653 -0.99455073896304591
leaf_weight=189 119 134 155 161 157 154 129
leaf_count=189 119 134 155 161 157 154 129
internal_value=-0.111887 1.90502 -0.856413 -1.01355 -0.951101 -1.00995 -1.02021
internal_weight=1198 323 875 756 595 440 286
internal_count=1198 323 875 756 595 440 286
is_linear=0
shrinkage=0.05


Tree=44
num_leaves=9
num_cat=0
split_feature=12 5 5 5 7 5 2 7
split_gain=713040 96708.9 80564.1 5759.89 1907.04 4551.41 1961.3 1798.18
threshold=25.251623376623382 -0.25881904510252113 -0.89495246814786256 0.82968937203783699 -0.60785761079279388 -0.32075123873380551 19.250000000000004 -1.0000000180025095e-35
decision_type=2 2 2 2 2 2 2 2
left_child=1 -1 -2 4 6 -6 -4 -5
right_child=2 -3 3 7 5 -7 -8 -9
leaf_value=2.8617925170200325 0.49237870022102642 1.154171212338611 -1.1151941602544269 -1.0395373697634098 -0.52898402168637237 -0.94720398138838213 -0.84053265411435207 -1.3267523713545366
leaf_weight=153 108 181 129 108 105 171 131 110
leaf_count=153 108 181 129 108 105 171 131 110
internal_value=-0.0248843 1.9364 -0.784827 -0.967769 -0.879636 -0.788099 -0.976807 -1.18446
internal_weight=1196 334 862 754 536 276 260 218
internal_count=1196 334 862 754 536 276 260 218
is_linear=0
shrinkage=0.05


Tree=45
num_leaves=9
num_cat=0
split_feature=12 5 5 5 6 7 5 5
split_gain=842823 104960 59690.9 4708.19 3623.95 1413.57 2811.71 2325.5
threshold=25.251623376623382 -0.25881904510252113 -0.89495246814786256 0.82968937203783699 0.13052619222005152 -0.60785761079279388 -0.13052619222005171 -0.32075123873380551
decision_type=2 2 2 2 2 2 2 2
left_child=1 -1 -2 5 -5 7 -7 -4
right_child=2 -3 3 4 -6 6 -8 -9
leaf_value=2.9644888572271362 0.33383043752897773 1.2545499769489419 -1.107754352777311 -1.2935965397318858 -0.8886730090226278 -0.5716239297491873 -0.89816741122315258 -0.80581513250494285
leaf_weight=181 109 178 101 122 101 117 151 173
leaf_count=181 109 178 101 122 101 117 151 173
internal_value=0.0769689 2.11666 -0.760846 -0.91682 -1.1102 -0.837256 -0.755609 -0.917114
internal_weight=1233 359 874 765 223 542 268 274
internal_count=1233 359 874 765 223 542 268 274
is_linear=0
shrinkage=0.05


Tree=46
num_leaves=10
num_cat=0
split_feature=12 5 6 2 7 5 5 6 1
split_gain=691012 351086 220933 56106.8 7922.94 9595.47 4042.11 140.516 28.088
threshold=28.222402597402603 0.55438071450436044 -0.94490267940017736 119.25000000000001 -0.60785761079279388 -0.70710678118654735 -0.32075123873380551 0.60876142900872032 93.500000000000014
decision_type=2 2 2 2 2 2 2 2 2
left_child=1 2 -1 -4 5 -2 -6 -7 -8
right_child=4 -3 3 -5 6 7 8 -9 -10
leaf_value=0.39174762391127071 -1.4644634781596819 -0.91687634450580002 2.4966421229263833 4.014283284459796 -0.49116796087800413 -0.86725927868934538 -0.86372235193848612 -0.94309926078433082 -0.83126047395116132
leaf_weight=104 107 109 145 105 114 146 128 105 139
leaf_count=104 107 109 145 105 114 146 128 105 139
internal_value=0.0498148 1.5644 2.3284 3.13405 -0.899104 -1.068 -0.740406 -0.898985 -0.846823
internal_weight=1202 463 354 250 739 358 381 251 267
internal_count=1202 463 354 250 739 358 381 251 267
is_linear=0
shrinkage=0.05


Tree=47
num_leaves=9
num_cat=0
split_feature=12 0 5 5 6 5 6 6
split_gain=540266 86967.8 59370.2 3896.24 3422.26 927.543 514.839 62.4414
threshold=25.251623376623382 24.350000000000005 -0.89495246814786256 0.82968937203783699 0.13052619222005152 -0.5 0.65793410509763406 0.94490267940017758
decision_type=2 2 2 2 2 2 2 2
left_child=1 -1 -2 5 -5 -4 -7 -8
right_child=2 -3 3 4 -6 6 7 -9
leaf_value=1.0317729533044369 0.44238770787532511 2.7046741669266314 -0.65419405589695856 -1.1893324653307598 -0.79944705603257671 -0.71486402311895647 -0.86711989669799816 -0.81651731739525035
leaf_weight=183 104 135 153 120 106 117 125 119
leaf_count=183 104 135 153 120 106 117 125 119
internal_value=-0.0144525 1.74197 -0.676231 -0.833443 -1.00647 -0.757366 -0.801093 -0.842441
internal_weight=1162 318 844 740 226 514 361 244
internal_count=1162 318 844 740 226 514 361 244
is_linear=0
shrinkage=0.05


Tree=48
num_leaves=9
num_cat=0
split_feature=12 5 5 12 2 5 5 6
split_gain=490809 113446 43746.2 29560.7 3715.37 930.996 137.08 36.1198
threshold=25.251623376623382 1.0000000180025095e-35 -0.70710678118654735 28.222402597402603 1.0000000180025095e-35 -0.44134171618254464 0.82968937203783699 0.94490267940017758
decision_type=2 2 2 2 2 2 2 2
left_child=1 2 -1 -2 5 -5 7 -7
right_child=3 -3 -4 4 -6 6 -8 -9
leaf_value=1.5374267218247901 0.045658754120188313 2.6916159786395175 0.086923909187316906 -0.63203835430599398 -1.0211044082770477 -0.81363803803920742 -0.74074963776462055 -0.77784649455358112
leaf_weight=106 121 134 102 147 148 160 166 126
leaf_count=106 121 134 102 147 148 160 166 126
internal_value=-0.0472343 1.55705 0.826122 -0.679336 -0.796771 -0.741344 -0.776892 -0.79787
internal_weight=1210 342 208 868 747 599 452 286
internal_count=1210 342 208 868 747 599 452 286
is_linear=0
shrinkage=0.05


Tree=49
num_leaves=10
num_cat=0
split_feature=12 5 5 5 5 5 5 5 5
split_gain=562019 386394 124990 189143 7806.59 1201.52 161.546 24.5746 25.7483
threshold=28.222402597402603 0.55438071450436044 1.0000000180025095e-35 -0.70710678118654735 -0.82968937203783699 -0.5 0.82968937203783699 -1.0000000180025095e-35 0.44134171618254497
decision_type=2 2 2 2 2 2 2 2 2
left_child=1 2 3 -1 -2 -6 7 -7 -9
right_child=4 -3 -4 -5 5 6 -8 8 -10
leaf_value=2.8477126581205741 -1.1536161740620932 -1.1013770221627277 3.6221284333650057 0.10003485303176077 -0.56296296530082579 -0.77723611875013876 -0.69780459262075878 -0.7318395519256593 -0.76559841181780852
leaf_weight=139 114 115 111 114 122 110 168 115 111
leaf_count=139 114 115 111 114 122 110 168 115 111
internal_value=0.0907056 1.42512 2.22333 1.60963 -0.773059 -0.703757 -0.737838 -0.757854 -0.74842
internal_weight=1219 479 364 253 740 626 504 336 226
internal_count=1219 479 364 253 740 626 504 336 226
is_linear=0
shrinkage=0.05


Tree=50
num_leaves=9
num_cat=0
split_feature=12 5 12 7 5 5 5 0
split_gain=388821 110392 38954.4 6468.44 8197.72 5615.54 71.4883 11.2847
threshold=25.251623376623382 -0.25881904510252113 28.222402597402603 -0.60785761079279388 -0.5 -0.44134171618254464 0.75023006073889154 21.750000000000004
decision_type=2 2 2 2 2 2 2 2
left_child=1 -1 -2 4 -4 -5 -7 -6
right_child=2 -3 3 5 7 6 -8 -9
leaf_value=2.3627976322766417 0.24689493845490851 0.55110293410041122 -1.2150305996096231 -0.26772252148389819 -0.69080283121629193 -0.72136516226662539 -0.67048674353531434 -0.71389082459842468
leaf_weight=161 119 176 123 100 110 180 112 102
leaf_count=161 119 176 123 100 110 180 112 102
internal_value=-0.0195954 1.41663 -0.591709 -0.728977 -0.89031 -0.591103 -0.70185 -0.701911
internal_weight=1183 337 846 727 335 392 292 212
internal_count=1183 337 846 727 335 392 292 212
is_linear=0
shrinkage=0.05


Tree=51
num_leaves=9
num_cat=0
split_feature=6 5 7 6 6 5 7 5
split_gain=246683 387307 398901 291262 96618 21955.3 793.088 1031.27
threshold=-0.065263096110025884 0.65793410509763428 -0.60785761079279388 -0.89495246814786256 0.19467261866128602 -0.7502300607388912 -0.60785761079279388 -1.0000000180025095e-35
decision_type=2 2 2 2 2 2 2 2
left_child=1 2 -1 -4 -2 -6 -7 -8
right_child=4 -3 3 -5 5 6 7 -9
leaf_value=-0.76160799609290231 -2.1591214306214277 -1.4447194715340934 0.6447649862806677 3.898052171938347 0.18432786854186861 -0.73790166451380801 -0.46274545129675132 -0.65736664515461418
leaf_weight=135 102 156 118 165 101 130 104 197
leaf_count=135 102 156 118 165 101 130 104 197
internal_value=-0.0696189 0.681302 1.47475 2.54156 -0.749475 -0.479205 -0.634696 -0.590122
internal_weight=1208 574 418 283 634 532 431 301
internal_count=1208 574 418 283 634 532 431 301
is_linear=0
shrinkage=0.05


Tree=52
num_leaves=10
num_cat=0
split_feature=12 5 5 5 5 7 5 6 5
split_gain=296872 252707 120640 45322.5 7523.1 976.497 1321.23 520.472 105.985
threshold=28.222402597402603 0.55438071450436044 1.0000000180025095e-35 -0.79335334029123528 -0.82968937203783699 -0.60785761079279388 -0.13052619222005171 0.55438071450436011 0.82968937203783699
decision_type=2 2 2 2 2 2 2 2 2
left_child=1 2 3 -1 -2 7 -7 -6 -8
right_child=4 -3 -4 -5 5 6 8 -9 -10
leaf_value=1.7033665641148887 -1.0498110265375298 -1.1010569073058463 3.0856495258854886 0.31119805428019742 -0.60550360523797331 -0.38918615334694934 -0.62768272813761017 -0.74303140163421633 -0.56238269338420799
leaf_weight=120 107 111 102 114 153 101 159 125 102
leaf_count=120 107 111 102 114 153 101 159 125 102
internal_value=-0.0518623 0.967337 1.65065 1.02513 -0.661745 -0.596865 -0.542741 -0.667342 -0.602163
internal_weight=1194 447 336 234 747 640 362 278 261
internal_count=1194 447 336 234 747 640 362 278 261
is_linear=0
shrinkage=0.05


Tree=53
num_leaves=10
num_cat=0
split_feature=12 5 6 5 7 5 5 5 5
split_gain=304886 244533 142728 65917.4 5458.18 7780.06 2133 184.866 58.188
threshold=28.222402597402603 0.55438071450436044 -0.94490267940017736 -0.89495246814786256 -0.60785761079279388 -0.70710678118654735 -0.32075123873380551 0.55438071450436044 0.75023006073889154
decision_type=2 2 2 2 2 2 2 2 2
left_child=1 2 -1 -4 5 -2 -6 -7 -8
right_child=4 -3 3 -5 6 7 8 -9 -10
leaf_value=0.15877680012939174 -1.1414379950797204 -1.0387305444749919 1.3681590529049146 3.0368024541976606 -0.31246962351304997 -0.65620020502930754 -0.59622422143922627 -0.56783837091804734 -0.54852687436291292
leaf_weight=109 101 110 102 141 111 143 141 101 117
leaf_count=109 101 110 102 141 111 143 141 101 117
internal_value=0.0181843 1.01902 1.66207 2.33638 -0.629416 -0.772387 -0.495744 -0.619624 -0.574594
internal_weight=1176 462 352 243 714 345 369 244 258
internal_count=1176 462 352 243 714 345 369 244 258
is_linear=0
shrinkage=0.05


Tree=54
num_leaves=9
num_cat=0
split_feature=6 5 7 6 1 7 5 3
split_gain=233837 326756 373620 180945 38687.8 6728.94 12763.7 1.02478
threshold=-0.065263096110025884 0.65793410509763428 -0.60785761079279388 -0.89495246814786256 80.500000000000014 -0.60785761079279388 -0.32075123873380551 2.2050000000000005
decision_type=2 2 2 2 2 2 2 2
left_child=1 2 -1 -4 -2 -6 -7 -8
right_child=4 -3 3 -5 5 6 7 -9
leaf_value=-0.72565250589567076 -1.373373565720577 -1.3215168949653364 0.98221459348996487 3.5339371571396336 -0.72696749944435934 0.14351164832711222 -0.54132774376869208 -0.54838387921171372
leaf_weight=136 153 145 120 165 152 100 100 106
leaf_count=136 153 145 120 165 152 100 100 106
internal_value=-0.00669399 0.725542 1.43059 2.45953 -0.685001 -0.455042 -0.319968 -0.544959
internal_weight=1177 566 421 285 611 458 306 206
internal_count=1177 566 421 285 611 458 306 206
is_linear=0
shrinkage=0.05


Tree=55
num_leaves=10
num_cat=0
split_feature=12 5 5 0 5 7 6 5 6
split_gain=251478 204651 128215 62677.3 5247.86 691.805 997.138 1074.18 516.291
threshold=28.222402597402603 0.55438071450436044 1.0000000180025095e-35 23.950000000000003 -0.82968937203783699 -0.60785761079279388 0.89495246814786289 0.65793410509763428 0.55438071450436011
decision_type=2 2 2 2 2 2 2 2 2
left_child=1 2 3 -1 -2 8 7 -7 -6
right_child=4 -3 -4 -5 5 6 -8 -9 -10
leaf_value=-0.01495794969446519 -0.88782578930996436 -0.90159289149847721 3.0481032768098437 1.6246649373980131 -0.49877284735441213 -0.27328244316057093 -0.57131465170994289 -0.48699746653981457 -0.6340907077940684
leaf_weight=102 101 113 101 136 160 103 121 137 126
leaf_count=102 101 113 101 136 160 103 121 137 126
internal_value=0.0100349 0.941166 1.55542 0.921969 -0.552627 -0.500301 -0.454282 -0.395278 -0.558388
internal_weight=1200 452 339 238 748 647 361 240 286
internal_count=1200 452 339 238 748 647 361 240 286
is_linear=0
shrinkage=0.05


Tree=56
num_leaves=9
num_cat=0
split_feature=6 12 5 1 6 7 5 3
split_gain=188589 329504 282932 42529 5782.42 4717.02 6619.92 5.68461
threshold=-0.065263096110025884 25.251623376623382 -0.25881904510252113 80.500000000000014 -0.5 -0.60785761079279388 -0.13052619222005171 2.2050000000000005
decision_type=2 2 2 2 2 2 2 2
left_child=1 2 -1 -2 -3 -5 -7 -8
right_child=3 4 -4 5 -6 6 7 -9
leaf_value=3.2173372356515184 -1.3904612733897839 -0.51978639151368833 0.25661368536394696 -0.65601546885092055 -0.99068952955183431 -0.014970945893267616 -0.48529752588272096 -0.50215665531158449
leaf_weight=152 154 140 172 158 122 113 100 100
leaf_count=152 154 140 172 158 122 113 100 100
internal_value=-0.0649711 0.579417 1.6456 -0.66915 -0.739062 -0.433307 -0.320885 -0.493727
internal_weight=1211 586 324 625 262 471 313 200
internal_count=1211 586 324 625 262 471 313 200
is_linear=0
shrinkage=0.05


Tree=57
num_leaves=9
num_cat=0
split_feature=6 12 5 6 5 6 7 6
split_gain=232089 373417 165302 114782 11418 4046.33 192.244 348.414
threshold=-0.065263096110025884 25.251623376623382 -0.25881904510252113 0.19467261866128602 -0.65793410509763384 -0.5 -0.60785761079279388 0.89495246814786289
decision_type=2 2 2 2 2 2 2 2
left_child=1 2 -1 -2 -5 -3 -6 -8
right_child=3 5 -4 4 6 -7 7 -9
leaf_value=3.128354402712068 -2.1760507130155378 -0.49666383234840455 0.81681387218428247 0.087308540642261512 -0.51966356754302978 -0.90237144428750737 -0.39221336441508065 -0.50768062910757772
leaf_weight=148 102 132 162 120 130 115 142 121
leaf_count=148 102 132 162 120 130 115 142 121
internal_value=0.0254504 0.76479 1.92039 -0.644163 -0.339577 -0.685556 -0.469923 -0.445337
internal_weight=1172 557 310 615 513 247 393 263
internal_count=1172 557 310 615 513 247 393 263
is_linear=0
shrinkage=0.05


Tree=58
num_leaves=10
num_cat=0
split_feature=12 5 5 5 2 5 5 7 0
split_gain=171034 170545 37067.9 4161.44 853.153 530.736 494.324 105.505 35.6024
threshold=28.222402597402603 -0.25881904510252113 0.55438071450436044 -0.82968937203783699 109.75000000000001 0.94490267940017769 -0.5 -0.60785761079279388 19.850000000000005
decision_type=2 2 2 2 2 2 2 2 2
left_child=1 4 -3 -2 -1 6 -5 -8 -9
right_child=3 2 -4 5 -6 -7 7 8 -10
leaf_value=1.759799285888672 -0.75222389005479362 0.44320607635524728 -0.77453937605694612 -0.34256638083606961 1.9663365482985975 -0.31425918973652667 -0.43136536407729853 -0.46354333112219809 -0.50328980851396221
leaf_weight=100 105 143 111 116 100 113 184 119 107
leaf_count=100 105 143 111 116 100 113 184 119 107
internal_value=0.00617762 0.770965 -0.0889583 -0.460507 1.86307 -0.412573 -0.433693 -0.459475 -0.482361
internal_weight=1198 454 254 744 200 639 526 410 226
internal_count=1198 454 254 744 200 639 526 410 226
is_linear=0
shrinkage=0.05


Tree=59
num_leaves=10
num_cat=0
split_feature=12 0 7 1 7 0 1 6 1
split_gain=176042 76065.3 28236.6 11662.9 3477.59 1180.6 1074.61 976.53 254.709
threshold=28.222402597402603 20.450000000000003 0.6078576107927941 80.500000000000014 -0.60785761079279388 23.150000000000002 84.500000000000014 0.89495246814786289 89.500000000000014
decision_type=2 2 2 2 2 2 2 2 2
left_child=1 -1 3 -3 5 6 -2 8 -6
right_child=4 2 -4 -5 7 -7 -8 -9 -10
leaf_value=-0.31659407118092414 -0.60653576260312991 0.49031796832879393 1.7570136442780495 1.2156162838334019 -0.22935971435724276 -0.68582797783320071 -0.38922799384894491 -0.46574514844200832 -0.3295143270465945
leaf_weight=115 109 120 128 103 108 122 119 110 154
leaf_count=115 109 120 128 103 108 122 119 110 154
internal_value=0.0418237 0.799434 1.16508 0.825321 -0.44716 -0.56029 -0.493116 -0.34072 -0.288229
internal_weight=1188 466 351 223 722 350 228 372 262
internal_count=1188 466 351 223 722 350 228 372 262
is_linear=0
shrinkage=0.05


Tree=60
num_leaves=10
num_cat=0
split_feature=12 5 5 5 5 5 7 6 5
split_gain=198265 300818 130118 102752 3741.39 491.916 396.679 618.381 333.886
threshold=28.222402597402603 0.65793410509763428 1.0000000180025095e-35 -0.70710678118654735 -0.82968937203783699 0.94490267940017769 -0.60785761079279388 0.89495246814786289 -1.0000000180025095e-35
decision_type=2 2 2 2 2 2 2 2 2
left_child=1 2 3 -1 -2 6 8 -8 -6
right_child=4 -3 -4 -5 5 -7 7 -9 -10
leaf_value=1.7314581823005952 -0.70055732626781286 -1.5184495862247875 2.7743024789514368 -0.34086973837443763 -0.51277012736709027 -0.27901455432176592 -0.30065196964437568 -0.44947869512769911 -0.39381754352496223
leaf_weight=139 107 103 135 105 108 100 173 117 130
leaf_count=139 107 103 135 105 108 100 173 117 130
internal_value=0.0895428 0.877618 1.52879 0.839678 -0.427263 -0.380699 -0.399957 -0.360696 -0.447796
internal_weight=1217 482 379 244 735 628 528 290 238
internal_count=1217 482 379 244 735 628 528 290 238
is_linear=0
shrinkage=0.05


Tree=61
num_leaves=9
num_cat=0
split_feature=6 12 5 6 5 6 7 6
split_gain=173072 279615 174506 115188 12493 2568.79 104.735 242.082
threshold=-0.065263096110025884 25.251623376623382 -0.25881904510252113 0.19467261866128602 -0.65793410509763384 -0.5 -0.60785761079279388 0.89495246814786289
decision_type=2 2 2 2 2 2 2 2
left_child=1 2 -1 -2 -5 -3 -6 -8
right_child=3 5 -4 4 6 -7 7 -9
leaf_value=2.76960231950678 -2.0643813447007591 -0.43726464626581774 0.44878671954137195 0.18335064306194265 -0.42997501912967179 -0.75218526935968244 -0.33230546915469922 -0.42977877781454438
leaf_weight=163 106 138 161 124 129 122 146 113
leaf_count=163 106 138 161 124 129 122 146 113
internal_value=0.019096 0.636285 1.61636 -0.564138 -0.253541 -0.585035 -0.393166 -0.374832
internal_weight=1202 584 324 618 512 260 388 259
internal_count=1202 584 324 618 512 260 388 259
is_linear=0
shrinkage=0.05


Tree=62
num_leaves=9
num_cat=0
split_feature=6 12 5 6 5 6 7 6
split_gain=113489 198237 181682 79009.3 12256.7 2332.26 252.894 399.81
threshold=-0.065263096110025884 25.251623376623382 -0.25881904510252113 0.19467261866128602 -0.7502300607388912 -0.5 -0.60785761079279388 0.89495246814786289
decision_type=2 2 2 2 2 2 2 2
left_child=1 2 -1 -2 -5 -3 -6 -8
right_child=3 5 -4 4 6 -7 7 -9
leaf_value=2.5432638522044022 -1.7509630092348045 -0.41186782126314941 0.17565778821532491 0.22712117298082873 -0.42246212963640262 -0.71370181338861594 -0.29045957097985659 -0.41371210518233276
leaf_weight=154 104 128 171 110 137 128 166 109
leaf_count=154 104 128 171 110 137 128 166 109
internal_value=-0.0254166 0.477844 1.29754 -0.4925 -0.241772 -0.562785 -0.366962 -0.339312
internal_weight=1207 581 325 626 522 256 412 275
internal_count=1207 581 325 626 522 256 412 275
is_linear=0
shrinkage=0.05


Tree=63
num_leaves=9
num_cat=0
split_feature=6 12 5 0 6 6 7 5
split_gain=108212 205939 128000 58578.7 14216.4 2145.04 850.356 629.312
threshold=-0.065263096110025884 25.251623376623382 -0.25881904510252113 23.550000000000004 0.32075123873380501 -0.5 -0.60785761079279388 -1.0000000180025095e-35
decision_type=2 2 2 2 2 2 2 2
left_child=1 2 -1 4 -2 -3 -6 -8
right_child=3 5 -4 -5 6 -7 7 -9
leaf_value=2.398436180345322 0.30554546849979536 -0.41268291380400807 0.40972130064330348 -1.45822555176143 -0.45443808720447126 -0.70215755316216177 -0.20861992545491248 -0.36275683747062204
leaf_weight=152 105 129 173 116 128 127 114 158
leaf_count=152 105 129 173 116 128 127 114 158
internal_value=0.01389 0.504361 1.33983 -0.444989 -0.212246 -0.556289 -0.348166 -0.298155
internal_weight=1202 581 325 621 505 256 400 272
internal_count=1202 581 325 621 505 256 400 272
is_linear=0
shrinkage=0.05


Tree=64
num_leaves=9
num_cat=0
split_feature=6 5 7 5 0 6 7 5
split_gain=93304.2 168843 170600 189791 45484.6 5556.17 655.107 741.885
threshold=-0.065263096110025884 0.65793410509763428 -0.60785761079279388 1.0000000180025095e-35 23.750000000000004 0.32075123873380501 -0.60785761079279388 -0.13052619222005171
decision_type=2 2 2 2 2 2 2 2
left_child=1 2 -1 -4 5 -2 -7 -8
right_child=4 -3 3 -5 -6 6 7 -9
leaf_value=-0.49768978346517123 0.084146715786626886 -0.99797813476332087 0.72398174836085394 3.4031610441207891 -1.3524049233064193 -0.40413799603634026 -0.16457030763144409 -0.33336917525050286
leaf_weight=138 111 149 195 100 109 136 104 174
leaf_count=138 111 149 195 100 109 136 104 174
internal_value=-0.00332529 0.453802 0.953375 1.63218 -0.422959 -0.229989 -0.314213 -0.270221
internal_weight=1216 582 433 295 634 525 414 278
internal_count=1216 582 433 295 634 525 414 278
is_linear=0
shrinkage=0.05


Tree=65
num_leaves=9
num_cat=0
split_feature=6 5 7 5 6 5 5 7
split_gain=71017.7 152431 147312 167748 43838.9 9167.74 183.157 105.156
threshold=-0.065263096110025884 0.65793410509763428 -0.60785761079279388 1.0000000180025095e-35 0.19467261866128602 -0.65793410509763384 0.44134171618254497 -1.0000000180025095e-35
decision_type=2 2 2 2 2 2 2 2
left_child=1 2 -1 -4 -2 -6 7 -7
right_child=4 -3 3 -5 5 6 -8 -9
leaf_value=-0.47719121200568754 -1.3229467821919232 -0.96316693856318791 0.63375590879823918 3.1904228601455689 0.1942466574860737 -0.31045490423931144 -0.34312223561237315 -0.24187052788165136
leaf_weight=132 102 150 179 100 120 107 173 117
leaf_count=132 102 150 179 100 120 107 173 117
internal_value=-0.00634605 0.401106 0.899015 1.55012 -0.37562 -0.18872 -0.304478 -0.274632
internal_weight=1180 561 411 279 619 517 397 224
internal_count=1180 561 411 279 619 517 397 224
is_linear=0
shrinkage=0.05


Tree=66
num_leaves=9
num_cat=0
split_feature=6 5 7 6 0 7 6 5
split_gain=86659.3 142748 146006 122627 49125.4 3795.84 4625.74 1676.44
threshold=-0.065263096110025884 0.65793410509763428 -0.60785761079279388 -0.89495246814786256 23.550000000000004 -1.0000000180025095e-35 0.60876142900872032 0.065263096110025856
decision_type=2 2 2 2 2 2 2 2
left_child=1 2 -1 -4 5 7 -7 -2
right_child=4 -3 3 -5 -6 6 -8 -9
leaf_value=-0.46165643180961963 -0.5282267093920664 -0.90614971791786203 0.33151214002561169 2.4567181563830074 -1.3609022401894133 0.1550766915411112 -0.27822409824236932 -0.26516538210352569
leaf_weight=135 103 152 119 158 120 105 149 147
leaf_count=135 103 152 119 158 120 105 149 147
internal_value=-0.045719 0.403463 0.886621 1.54372 -0.45171 -0.235236 -0.0991037 -0.373547
internal_weight=1188 564 412 277 624 504 254 250
internal_count=1188 564 412 277 624 504 254 250
is_linear=0
shrinkage=0.05


Tree=67
num_leaves=10
num_cat=0
split_feature=6 5 5 5 5 5 5 5 4
split_gain=68688.3 130025 53761.7 153938 23377.8 11450.3 352.276 219.069 70.4605
threshold=-0.065263096110025884 -0.25881904510252113 0.25881904510252091 0.65793410509763428 -0.82968937203783699 -0.70710678118654735 0.89495246814786289 0.44134171618254497 45.000000000000007
decision_type=2 2 2 2 2 2 2 2 2
left_child=1 5 -3 -4 -2 -1 7 8 -6
right_child=4 2 3 -5 6 -7 -8 -9 -10
leaf_value=1.6507814394035301 -1.0108922005451026 -1.2019593858718873 1.685550938844681 -0.85736651440708567 -0.25702284225090238 0.92905195593833934 -0.14667888895235956 -0.30520934559578122 -0.20468833697901206
leaf_weight=122 119 100 100 147 108 100 100 129 159
leaf_count=122 119 100 100 147 108 100 100 129 159
internal_value=-0.0152138 0.380715 -0.223844 0.172155 -0.381528 1.32568 -0.230532 -0.251707 -0.225857
internal_weight=1184 569 347 247 615 222 496 396 267
internal_count=1184 569 347 247 615 222 496 396 267
is_linear=0
shrinkage=0.05


Tree=68
num_leaves=10
num_cat=0
split_feature=6 5 7 6 5 2 5 5 7
split_gain=73191.1 119901 95819.8 71238.1 42183.7 45575.6 9695.83 161.819 72.9911
threshold=-0.065263096110025884 -0.25881904510252113 -1.0000000180025095e-35 0.19467261866128602 0.65793410509763428 131.50000000000003 -0.65793410509763384 0.44134171618254497 -1.0000000180025095e-35
decision_type=2 2 2 2 2 2 2 2 2
left_child=1 2 -1 -2 5 -3 -5 8 -8
right_child=3 4 -4 6 -6 -7 7 -9 -10
leaf_value=0.19696740975173621 -1.5720887244379682 1.043967512788454 2.274558105563917 0.2534907833806106 -0.81535706407571795 -0.46185456061363217 -0.2634865862846959 -0.29774396494030952 -0.20489528844015556
leaf_weight=104 105 101 119 119 149 100 102 176 111
leaf_count=104 105 101 119 119 149 100 102 176 111
internal_value=-0.00674686 0.399518 1.30564 -0.386502 -0.177808 0.294802 -0.14145 -0.262267 -0.232953
internal_weight=1186 573 223 613 350 201 508 389 213
internal_count=1186 573 223 613 350 201 508 389 213
is_linear=0
shrinkage=0.05


Tree=69
num_leaves=9
num_cat=0
split_feature=6 5 7 6 5 5 5 1
split_gain=61379.7 98330 86458.2 72551.4 30741.3 11157.9 169.541 59.9869
threshold=-0.065263096110025884 -0.25881904510252113 -1.0000000180025095e-35 0.19467261866128602 0.65793410509763428 -0.65793410509763384 0.44134171618254497 91.500000000000014
decision_type=2 2 2 2 2 2 2 2
left_child=1 2 -1 -2 -3 -5 7 -7
right_child=3 4 -4 5 -6 6 -8 -9
leaf_value=0.15345185216110532 -1.5710010894216024 0.24184981775346889 2.1839796451253632 0.30152771937960793 -0.73172636808643876 -0.19698321230587412 -0.28577310118410326 -0.24731514656997247
leaf_weight=101 104 189 109 118 142 122 180 115
leaf_count=101 104 189 109 118 142 122 180 115
internal_value=-0.030813 0.361103 1.20739 -0.362623 -0.175817 -0.127724 -0.24919 -0.221406
internal_weight=1180 541 210 639 331 535 417 237
internal_count=1180 541 210 639 331 535 417 237
is_linear=0
shrinkage=0.05


Tree=70
num_leaves=10
num_cat=0
split_feature=12 5 5 2 5 5 7 5 5
split_gain=53385.4 127533 134091 51616.9 4166.28 2471.89 142.482 435.555 329.921
threshold=28.222402597402603 0.65793410509763428 1.0000000180025095e-35 105.50000000000001 0.94490267940017769 -0.82968937203783699 -0.60785761079279388 -1.0000000180025095e-35 0.44134171618254497
decision_type=2 2 2 2 2 2 2 2 2
left_child=1 2 3 -1 5 -2 7 -7 -8
right_child=4 -3 -4 -5 -6 6 8 -9 -10
leaf_value=1.044225390650332 -0.49033085615546618 -1.1226173377037048 2.1816687515148749 -0.45219121792298911 0.071859407833978248 -0.33486680883434738 -0.16344250922238893 -0.19714179180170363 -0.27429496094865619
leaf_weight=100 108 100 130 136 102 101 183 133 106
leaf_count=100 108 100 130 136 102 101 183 133 106
internal_value=0.0413903 0.459828 0.89219 0.181884 -0.224629 -0.272555 -0.227584 -0.256587 -0.204101
internal_weight=1199 466 366 236 733 631 523 234 289
internal_count=1199 466 366 236 733 631 523 234 289
is_linear=0
shrinkage=0.05


Tree=71
num_leaves=10
num_cat=0
split_feature=6 12 5 6 5 3 5 5 7
split_gain=59316.8 103585 106996 52474 11377.5 4022.71 2492.41 229.122 166.731
threshold=-0.065263096110025884 25.251623376623382 -0.5 0.19467261866128602 -0.7502300607388912 2.7400000000000007 0.65793410509763428 0.44134171618254497 -1.0000000180025095e-35
decision_type=2 2 2 2 2 2 2 2 2
left_child=1 2 -1 -2 -5 -4 -3 8 -6
right_child=3 6 5 4 7 -7 -8 -9 -10
leaf_value=2.2009595379042319 -1.3547707202956083 -0.50889795514690961 0.085538561888111458 0.36117323016825442 -0.23334075753310965 0.52852191854925723 -0.19482962097056578 -0.26471995048308639 -0.14868540177121758
leaf_weight=117 100 131 103 105 112 102 122 178 121
leaf_count=117 100 131 103 105 112 102 122 178 121
internal_value=0.0344232 0.399647 0.994509 -0.306492 -0.103337 0.30595 -0.35745 -0.222008 -0.189378
internal_weight=1191 575 322 616 516 205 253 411 233
internal_count=1191 575 322 616 516 205 253 411 233
is_linear=0
shrinkage=0.05


Tree=72
num_leaves=10
num_cat=0
split_feature=5 5 11 5 12 2 7 1 7
split_gain=21611 80685.2 233554 199985 74449.2 20761.8 5569.47 3467.24 153.088
threshold=0.65793410509763428 1.0000000180025095e-35 1.0000000180025095e-35 -0.32075123873380551 28.222402597402603 1.0000000180025095e-35 -0.60785761079279388 69.500000000000014 -1.0000000180025095e-35
decision_type=2 2 2 2 2 2 2 2 2
left_child=1 3 -3 4 7 8 -6 -1 -2
right_child=5 2 -4 -5 6 -7 -8 -9 -10
leaf_value=0.74247371903061865 -0.074473459991541785 -0.31310797251890166 2.7127944903798622 -2.0883830870497717 -0.49893553114224298 -0.98719845435023312 -0.054107461389899261 1.1578097193547996 -0.15867476035963815
leaf_weight=100 110 173 101 117 161 100 125 101 106
leaf_count=100 110 173 101 117 161 100 125 101 106
internal_value=-0.0369796 0.0906354 0.802279 -0.232197 0.213746 -0.391555 -0.304518 0.951175 -0.115794
internal_weight=1194 878 274 604 487 316 286 201 216
internal_count=1194 878 274 604 487 316 286 201 216
is_linear=0
shrinkage=0.05


Tree=73
num_leaves=10
num_cat=0
split_feature=6 5 7 5 5 6 5 5 7
split_gain=39046.6 81829.7 61928 49848.5 103689 47943.3 7741.1 292.842 167.047
threshold=-0.065263096110025884 -0.25881904510252113 -1.0000000180025095e-35 0.25881904510252091 0.65793410509763428 0.19467261866128602 -0.7502300607388912 0.44134171618254497 -1.0000000180025095e-35
decision_type=2 2 2 2 2 2 2 2 2
left_child=1 2 -1 -3 -5 -2 -7 8 -8
right_child=5 3 -4 4 -6 6 7 -9 -10
leaf_value=0.17979690710317742 -1.2599934359675364 -1.1197982410835747 1.8858332181925126 1.4059784732976006 -0.68406830916447303 0.30495763838586243 -0.1951763176071373 -0.23533031166326712 -0.11257655430868592
leaf_weight=103 105 101 110 103 140 101 110 164 138
leaf_count=103 105 101 110 103 140 101 110 164 138
internal_value=-0.012928 0.290677 1.06085 -0.186202 0.201836 -0.286566 -0.0873263 -0.183493 -0.149214
internal_weight=1175 557 213 344 243 618 513 412 248
internal_count=1175 557 213 344 243 618 513 412 248
is_linear=0
shrinkage=0.05


Tree=74
num_leaves=10
num_cat=0
split_feature=6 5 7 6 5 5 5 5 7
split_gain=38478.1 81581.7 67026.8 51193.9 39916.9 80341.2 7325.79 295.513 14.3666
threshold=-0.065263096110025884 -0.25881904510252113 -1.0000000180025095e-35 0.19467261866128602 0.25881904510252091 0.65793410509763428 -0.65793410509763384 0.44134171618254497 -1.0000000180025095e-35
decision_type=2 2 2 2 2 2 2 2 2
left_child=1 2 -1 -2 -3 -6 -5 8 -8
right_child=3 4 -4 6 5 -7 7 -9 -10
leaf_value=0.13072448269678996 -1.2991063452234455 -1.0253580692633988 1.8823885765542157 0.2733587199095952 1.2312779342426974 -0.6081802028165737 -0.15063142890166664 -0.22510327426500099 -0.12507284862554766
leaf_weight=104 102 100 115 118 102 142 108 172 112
leaf_count=104 102 100 115 118 102 142 108 172 112
internal_value=-0.00211374 0.296204 1.05055 -0.276547 -0.184032 0.160774 -0.0720349 -0.176005 -0.13762
internal_weight=1175 563 219 612 344 244 510 392 220
internal_count=1175 563 219 612 344 244 510 392 220
is_linear=0
shrinkage=0.05


Tree=75
num_leaves=10
num_cat=0
split_feature=6 5 7 6 5 2 6 7 5
split_gain=27988.6 80693.3 52696.9 46018.2 33964.2 37408.5 8228.86 845.789 613.055
threshold=-0.065263096110025884 -0.25881904510252113 -1.0000000180025095e-35 0.19467261866128602 0.25881904510252091 42.750000000000007 0.44134171618254503 -0.60785761079279388 -1.0000000180025095e-35
decision_type=2 2 2 2 2 2 2 2 2
left_child=1 2 -1 -2 -3 -6 -5 -8 -9
right_child=3 4 -4 6 5 -7 7 8 -10
leaf_value=0.2160454082138398 -1.2127403524778959 -1.0312765912032953 1.7306226458903904 0.33803497850894931 -0.44430967296985602 0.79879149859494503 -0.26868130194879797 -0.040318914880907095 -0.18789596870845679
leaf_weight=119 106 101 111 100 151 101 137 135 147
leaf_count=119 106 101 111 100 151 101 137 135 147
internal_value=-0.0309465 0.218245 0.946994 -0.263392 -0.256577 0.0539174 -0.0694983 -0.166762 -0.117247
internal_weight=1208 583 230 625 353 252 519 419 282
internal_count=1208 583 230 625 353 252 519 419 282
is_linear=0
shrinkage=0.05


Tree=76
num_leaves=9
num_cat=0
split_feature=12 5 3 5 5 6 7 5
split_gain=26072 93961.2 11900.4 7311.77 3093.08 226.044 249.68 506.847
threshold=28.222402597402603 -0.25881904510252113 2.5750000000000006 0.94490267940017769 -0.82968937203783699 0.94490267940017758 -0.60785761079279388 0.44134171618254497
decision_type=2 2 2 2 2 2 2 2
left_child=1 -1 -3 4 -2 6 -6 -8
right_child=3 2 -4 -5 5 -7 7 -9
leaf_value=1.1841448773108227 -0.44578367265042024 -0.67839565027970827 0.0089905845408408055 0.24269861241556565 -0.21549668736735603 -0.094915247057018093 -0.056066396710115908 -0.21256081044673919
leaf_weight=191 111 108 151 106 184 121 102 105
leaf_count=191 111 108 151 106 184 121 102 105
internal_value=0.0435393 0.342806 -0.277642 -0.141193 -0.20651 -0.154636 -0.173118 -0.135448
internal_weight=1179 450 259 729 623 512 391 207
internal_count=1179 450 259 729 623 512 391 207
is_linear=0
shrinkage=0.05


Tree=77
num_leaves=10
num_cat=0
split_feature=6 5 6 5 5 1 6 6 3
split_gain=34402.3 67147.7 52227.4 45187.4 66394 12046.8 4833.44 222.661 112.186
threshold=-0.065263096110025884 -0.25881904510252113 0.19467261866128602 0.25881904510252091 0.65793410509763428 68.500000000000014 0.44134171618254503 0.94490267940017758 2.4300000000000002
decision_type=2 2 2 2 2 2 2 2 2
left_child=1 5 -2 -3 -5 -1 -4 8 -8
right_child=2 3 6 4 -6 -7 7 -9 -10
leaf_value=0.5677230724719643 -1.3266005348861218 -1.0690306042090503 0.2335155986249447 1.1383819388893417 -0.49414239198166804 1.2947259733985579 -0.14390051121944966 -0.097026906676229929 -0.20560518446602402
leaf_weight=116 100 101 100 106 151 112 138 124 158
leaf_count=116 100 101 100 106 151 112 138 124 158
internal_value=-0.0205121 0.254174 -0.280135 -0.172958 0.179194 0.924847 -0.0788917 -0.153274 -0.176837
internal_weight=1206 586 620 358 257 228 520 420 296
internal_count=1206 586 620 358 257 228 520 420 296
is_linear=0
shrinkage=0.05


Tree=78
num_leaves=9
num_cat=0
split_feature=6 5 5 5 5 5 7 6
split_gain=24365 54349 64038.6 85874 18911.7 1573.18 526.356 417.15
threshold=-0.065263096110025884 -0.44134171618254464 0.13052619222005182 0.65793410509763428 -0.89495246814786256 0.82968937203783699 -0.60785761079279388 0.89495246814786289
decision_type=2 2 2 2 2 2 2 2
left_child=1 -1 -3 -4 -2 6 -6 -8
right_child=4 2 3 -5 5 -7 7 -9
leaf_value=0.92955294152100887 -0.8415699589665574 -1.1858482891970341 1.2756619864997785 -0.53130341602696318 -0.23048029117448177 0.068999545385354563 -0.05051649042172357 -0.17354800820212105
leaf_weight=189 101 101 121 144 115 116 160 121
leaf_count=189 101 101 121 144 115 116 160 121
internal_value=0.00101065 0.241013 -0.114544 0.293764 -0.216284 -0.092936 -0.140372 -0.103494
internal_weight=1168 555 366 265 613 512 396 281
internal_count=1168 555 366 265 613 512 396 281
is_linear=0
shrinkage=0.05


Tree=79
num_leaves=10
num_cat=0
split_feature=6 12 5 6 0 5 5 5 4
split_gain=33032.5 78306.9 59610 31995.5 19169.5 8916.02 5248.85 342.854 117.812
threshold=-0.065263096110025884 25.251623376623382 -0.65793410509763384 0.19467261866128602 22.950000000000003 -0.65793410509763384 0.65793410509763428 0.75023006073889154 45.000000000000007
decision_type=2 2 2 2 2 2 2 2 2
left_child=1 2 -1 -2 -4 -5 -3 8 -7
right_child=3 6 4 5 -6 7 -8 -9 -10
leaf_value=1.8012501967062644 -1.003875557241021 -0.51836313576020043 -0.082793583054985631 0.33460038646848667 0.85326977327184861 -0.16470954746007921 -0.062666614460093639 -0.22654462827242985 -0.097958500962943229
leaf_weight=109 101 145 113 126 106 100 112 103 195
leaf_count=109 101 145 113 126 106 100 112 103 195
internal_value=0.0637249 0.333754 0.845815 -0.189022 0.370278 -0.0319605 -0.319772 -0.148007 -0.120586
internal_weight=1210 585 328 625 219 524 257 398 295
internal_count=1210 585 328 625 219 524 257 398 295
is_linear=0
shrinkage=0.05


Tree=80
num_leaves=10
num_cat=0
split_feature=5 5 6 6 7 0 2 6 5
split_gain=21760.1 117676 114348 54985 37076.1 18064.2 13613.9 5892.22 143.787
threshold=1.0000000180025095e-35 -0.25881904510252113 -0.70710678118654757 -0.065263096110025884 -1.0000000180025095e-35 23.450000000000003 1.0000000180025095e-35 0.25881904510252057 0.75023006073889154
decision_type=2 2 2 2 2 2 2 2 2
left_child=1 3 -2 4 -1 -5 7 -4 -9
right_child=2 -3 6 5 -6 -7 -8 8 -10
leaf_value=0.048663525520700274 1.4051802554436579 -1.7872361829550938 0.2710836727664156 -0.065668066669209504 1.3473280405886821 -0.92028793094493455 -0.69156587857466478 -0.14270335207662441 -0.22000324502587321
leaf_weight=113 149 100 106 162 107 100 104 151 100
leaf_count=113 149 100 106 162 107 100 104 151 100
internal_value=-0.0076277 -0.226336 0.201042 0.0975022 0.680287 -0.391859 -0.188149 -0.0414948 -0.1735
internal_weight=1192 582 610 482 220 262 461 357 251
internal_count=1192 582 610 482 220 262 461 357 251
is_linear=0
shrinkage=0.05


Tree=81
num_leaves=10
num_cat=0
split_feature=5 6 5 6 7 0 2 5 5
split_gain=20475.1 121507 112415 54861.1 40036.6 32079.3 13719.7 2266.45 365.354
threshold=-0.13052619222005171 -0.70710678118654757 -0.44134171618254464 -0.065263096110025884 -1.0000000180025095e-35 23.250000000000004 1.0000000180025095e-35 0.94490267940017769 0.32075123873380545
decision_type=2 2 2 2 2 2 2 2 2
left_child=2 -2 3 4 -1 -5 7 8 -3
right_child=1 6 -4 5 -6 -7 -8 -9 -10
leaf_value=0.057360411516510612 1.4994290876261731 -0.035930530493165934 -1.5660370711462264 0.1473343518611632 1.4617442044557309 -1.0379824216365814 -0.68748153769969944 0.14943989450732867 -0.15523864176188937
leaf_weight=101 141 102 120 133 102 100 100 120 173
leaf_count=101 141 102 120 133 102 100 100 120 173
internal_value=0.0107777 0.204533 -0.210856 0.16213 0.763011 -0.361385 -0.164316 -0.0318694 -0.110986
internal_weight=1192 636 556 436 203 233 495 395 275
internal_count=1192 636 556 436 203 233 495 395 275
is_linear=0
shrinkage=0.05


Tree=82
num_leaves=9
num_cat=0
split_feature=6 5 5 5 6 7 5 5
split_gain=18059.2 44160.6 73754.5 106154 24835.9 4528.06 13579 188.842
threshold=-0.065263096110025884 -0.70710678118654735 1.0000000180025095e-35 0.65793410509763428 0.19467261866128602 -0.60785761079279388 -0.44134171618254464 0.44134171618254497
decision_type=2 2 2 2 2 2 2 2
left_child=1 -1 -3 -4 -2 -6 -7 -8
right_child=4 2 3 -5 5 6 7 -9
leaf_value=1.0307143954602818 -0.8775963843453165 -0.91717739295035905 1.3859204119096367 -0.50146138508047844 -0.23779708169303229 0.50098702420548702 -0.1005815990538575 -0.18910212862615786
leaf_weight=131 102 150 149 149 172 123 121 120
leaf_count=131 102 150 149 149 172 123 121 120
internal_value=0.0210141 0.223198 -0.012929 0.44223 -0.162472 -0.0263849 0.0735131 -0.144658
internal_weight=1217 579 448 298 638 536 364 241
internal_count=1217 579 448 298 638 536 364 241
is_linear=0
shrinkage=0.05


Tree=83
num_leaves=9
num_cat=0
split_feature=5 6 6 6 1 6 5 5
split_gain=27342.1 138416 89284.9 58269.6 25730.6 12686.3 2882.63 196.754
threshold=-0.13052619222005171 -0.82968937203783677 -0.70710678118654757 -0.065263096110025884 82.500000000000014 -0.19467261866128607 0.89495246814786289 0.44134171618254497
decision_type=2 2 2 2 2 2 2 2
left_child=1 -1 -2 -3 -5 -4 7 -7
right_child=2 3 5 4 -6 6 -8 -9
leaf_value=-1.9717160353213548 1.2407688058041908 0.79482947880910204 -0.58224045487700915 -0.94073099482966505 0.039779103298205887 -0.047116712676060782 0.20887193559598521 -0.13692682038216542
leaf_weight=100 154 176 122 115 160 124 119 120
leaf_count=100 154 176 122 115 160 124 119 120
internal_value=-0.0306503 -0.28875 0.191905 0.0844137 -0.370252 -0.141137 0.00711314 -0.0912856
internal_weight=1190 551 639 451 275 485 363 244
internal_count=1190 551 639 451 275 485 363 244
is_linear=0
shrinkage=0.05


Tree=84
num_leaves=9
num_cat=0
split_feature=5 6 6 6 0 2 6 5
split_gain=20848.2 99832.5 81351.6 42204 31355.4 11075.2 5780.85 497.596
threshold=-0.13052619222005171 -0.82968937203783677 -0.70710678118654757 -0.065263096110025884 23.350000000000005 1.0000000180025095e-35 0.25881904510252057 0.44134171618254497
decision_type=2 2 2 2 2 2 2 2
left_child=1 -1 -2 -3 -5 6 -4 -8
right_child=2 3 5 4 -6 -7 7 -9
leaf_value=-1.6397249456714182 1.2114858242074649 0.69347618431336977 0.32015251123680261 0.15810090327369317 -0.94426835760608463 -0.58006108835631731 -0.036108247437622663 -0.16667635463887739
leaf_weight=102 150 177 106 154 111 102 129 168
leaf_count=102 150 177 106 154 111 102 129 168
internal_value=-0.000950535 -0.22973 0.189058 0.0956539 -0.303646 -0.114633 0.00316768 -0.109965
internal_weight=1199 544 655 442 265 505 403 297
internal_count=1199 544 655 442 265 505 403 297
is_linear=0
shrinkage=0.05


Tree=85
num_leaves=10
num_cat=0
split_feature=6 6 6 0 5 5 6 7 5
split_gain=19145.1 82842.8 74122 43475.5 32751.1 55994.5 898.847 761.849 436.987
threshold=1.0000000180025095e-35 0.32075123873380501 -0.32075123873380501 26.050000000000004 1.0000000180025095e-35 0.65793410509763428 0.75023006073889131 -1.0000000180025095e-35 0.065263096110025856
decision_type=2 2 2 2 2 2 2 2 2
left_child=2 -2 3 4 -1 -6 7 -3 -8
right_child=1 6 -4 -5 5 -7 8 -9 -10
leaf_value=-0.82812295545908532 1.3520291628148102 -0.27700565096478319 -1.2989366935400835 0.89206796721978621 0.97252896505373509 -0.65295244730435886 0.012589746257480312 -0.086026684048713428 -0.11350743876149257
leaf_weight=132 122 107 124 121 108 104 147 102 129
leaf_count=132 122 107 124 121 108 104 147 102 129
internal_value=-0.0096761 0.187383 -0.212757 0.0768905 -0.209843 0.175123 -0.10558 -0.183801 -0.046347
internal_weight=1196 607 589 465 344 212 485 209 276
internal_count=1196 607 589 465 344 212 485 209 276
is_linear=0
shrinkage=0.05


Tree=86
num_leaves=9
num_cat=0
split_feature=5 5 12 12 2 5 5 5
split_gain=12390 84312.8 56362.8 39697.2 6501.53 1851.87 1309.22 207.843
threshold=-0.13052619222005171 -0.44134171618254464 25.251623376623382 28.222402597402603 3.2500000000000004 0.94490267940017769 -0.79335334029123528 0.32075123873380545
decision_type=2 2 2 2 2 2 2 2
left_child=1 3 -2 -1 5 7 -5 -4
right_child=2 -3 4 6 -6 -7 -8 -9
leaf_value=0.72022459708674946 1.0570109218141459 -1.2947793378458015 -0.0097338989888336152 -0.36770299025053205 -0.43408897260449963 0.16493432181222101 -0.12733073425894179 -0.099625157184856039
leaf_weight=186 137 127 102 129 106 126 101 174
leaf_count=186 137 127 102 129 106 126 101 174
internal_value=0.00882312 -0.167163 0.156979 0.177086 -0.0857467 0.0061047 -0.262148 -0.0664045
internal_weight=1188 543 645 416 508 402 230 276
internal_count=1188 543 645 416 508 402 230 276
is_linear=0
shrinkage=0.05


Tree=87
num_leaves=8
num_cat=0
split_feature=6 6 5 5 5 6 5
split_gain=16771.2 116243 67457.6 63413.5 17600.9 1305.69 510.505
threshold=1.0000000180025095e-35 0.25881904510252057 1.0000000180025095e-35 0.65793410509763428 -0.65793410509763384 0.60876142900872032 0.065263096110025856
decision_type=2 2 2 2 2 2 2
left_child=2 -2 4 -4 -1 -3 -7
right_child=1 5 3 -5 -6 6 -8
leaf_value=-0.36381925111075486 1.7559316500948343 -0.21798180232058889 1.100311728041844 -0.34425843223448727 -1.1493714810252189 0.016984111095867095 -0.1032856433609522
leaf_weight=166 102 151 149 155 125 179 174
leaf_count=166 102 151 149 155 125 179 174
internal_value=0.0314564 0.216598 -0.157108 0.363771 -0.701256 -0.0949341 -0.042299
internal_weight=1201 606 595 304 291 504 353
internal_count=1201 606 595 304 291 504 353
is_linear=0
shrinkage=0.05


Tree=88
num_leaves=8
num_cat=0
split_feature=6 6 5 5 0 6 5
split_gain=21956 96264.8 96012.3 56593 43879.9 1188.72 443.335
threshold=1.0000000180025095e-35 0.25881904510252057 1.0000000180025095e-35 0.65793410509763428 26.050000000000004 0.60876142900872032 0.065263096110025856
decision_type=2 2 2 2 2 2 2
left_child=2 -2 4 -4 -1 -3 -7
right_child=1 5 3 -5 -6 6 -8
leaf_value=-1.3238418752050147 1.5460965158742503 -0.21391601128805734 1.0820914377233171 -0.28928976413365959 -0.087234305153632993 0.014685355462133884 -0.098482461623683737
leaf_weight=188 109 148 153 148 116 165 182
leaf_count=188 109 148 153 148 116 165 182
internal_value=-0.0123177 0.200934 -0.225217 0.407791 -0.851978 -0.0952733 -0.0446707
internal_weight=1209 604 605 301 304 495 347
internal_count=1209 604 605 301 304 495 347
is_linear=0
shrinkage=0.05


Tree=89
num_leaves=10
num_cat=0
split_feature=5 12 5 3 6 12 6 7 3
split_gain=15720.1 49666.9 29523.5 24546.1 22036.9 16522 3569.16 3402.02 13.0248
threshold=-0.25881904510252113 28.222402597402603 0.065263096110025856 3.0300000000000007 -0.70710678118654757 28.222402597402603 0.38268343236508956 -0.60785761079279388 2.3950000000000005
decision_type=2 2 2 2 2 2 2 2 2
left_child=1 3 -2 -1 -4 -6 -7 -3 -8
right_child=2 7 4 -5 5 6 8 -9 -10
leaf_value=1.3905586062291384 -0.83354028709629768 -0.32391641118083941 0.6041193645535492 0.28816361951828007 -0.7084989328384399 0.24036113802066522 -0.11020083567037167 0.018831847159033136 -0.085915700807979625
leaf_weight=102 122 165 127 100 100 121 103 129 119
leaf_count=102 122 165 127 100 100 121 103 129 119
internal_value=0.0263694 0.241203 -0.127615 0.844819 0.0234777 -0.142982 0.0218923 -0.173527 -0.0971831
internal_weight=1188 496 692 202 570 443 343 294 222
internal_count=1188 496 692 202 570 443 343 294 222
is_linear=0
shrinkage=0.05


Tree=90
num_leaves=8
num_cat=0
split_feature=5 12 5 12 5 7 7
split_gain=27460.2 74752.4 46018.3 20167.8 8212.44 3786.86 3578.78
threshold=-0.25881904510252113 28.222402597402603 0.065263096110025856 25.251623376623382 0.65793410509763428 -0.60785761079279388 -0.60785761079279388
decision_type=2 2 2 2 2 2 2
left_child=1 -1 -2 -4 -5 -3 -6
right_child=2 5 3 4 6 -7 -8
leaf_value=1.0919426101124168 -1.0543012699706418 -0.33127457162785917 0.63031086258246039 -0.39908949222415685 0.28614828311929513 0.026144712809210931 -0.085688846175279998
leaf_weight=199 116 155 115 160 102 142 177
leaf_count=199 116 155 115 160 102 142 177
internal_value=0.0600465 0.34206 -0.148727 0.0408874 -0.113517 -0.160387 0.0502516
internal_weight=1166 496 670 554 439 297 279
internal_count=1166 496 670 554 439 297 279
is_linear=0
shrinkage=0.05


Tree=91
num_leaves=10
num_cat=0
split_feature=6 5 6 5 1 0 6 5 0
split_gain=20523.1 94919.6 43440.8 29483.3 14221.8 4805.37 857.433 452.532 36.834
threshold=1.0000000180025095e-35 -0.89495246814786256 0.32075123873380501 -0.25881904510252113 87.500000000000014 20.750000000000004 0.75023006073889131 0.065263096110025856 20.950000000000003
decision_type=2 2 2 2 2 2 2 2 2
left_child=1 -1 -2 -3 5 -5 8 -8 -4
right_child=2 3 6 4 -6 -7 7 -9 -10
leaf_value=-1.6554400773331672 1.0103527008986273 0.60646909172585428 -0.15595365947484971 -0.24215684261136841 0.19225208071189198 -0.72170823182699817 0.056924179326035551 -0.069562337882962316 -0.11314497358433091
leaf_weight=101 119 152 100 103 123 106 158 128 101
leaf_count=101 119 152 100 103 123 106 158 128 101
internal_value=-0.0499692 -0.261218 0.153959 0.0297254 -0.234326 -0.485374 -0.0553038 0.000314829 -0.134443
internal_weight=1191 585 606 484 332 209 487 286 201
internal_count=1191 585 606 484 332 209 487 286 201
is_linear=0
shrinkage=0.05


Tree=92
num_leaves=10
num_cat=0
split_feature=6 5 1 7 1 0 0 1 6
split_gain=16645.7 42020.7 24886.5 23238.4 12687.4 7589.87 6299.78 729.799 45.1366
threshold=-0.065263096110025884 -0.25881904510252113 80.500000000000014 -1.0000000180025095e-35 86.500000000000014 23.550000000000004 20.750000000000004 92.500000000000014 0.75023006073889131
decision_type=2 2 2 2 2 2 2 2 2
left_child=1 3 -2 -1 6 7 -3 -4 -9
right_child=2 4 5 -5 -6 -7 -8 8 -10
leaf_value=0.20764727254143162 -0.73268178572381537 -0.094662282526493072 -0.18620950063700115 1.2386232435572566 0.24846775224432349 0.38605671784596396 -0.64181976930515194 -0.064584804051800782 -0.019688592458313163
leaf_weight=105 150 100 146 114 128 103 111 114 110
leaf_count=105 150 100 146 114 128 103 111 114 110
internal_value=0.00613737 0.204483 -0.171514 0.74432 -0.144261 0.00644575 -0.382503 -0.0992297 -0.0425376
internal_weight=1181 558 623 219 339 473 211 370 224
internal_count=1181 558 623 219 339 473 211 370 224
is_linear=0
shrinkage=0.05


Tree=93
num_leaves=9
num_cat=0
split_feature=6 6 5 5 0 6 7 5
split_gain=18973.7 78680.3 52762.2 48359.4 35336 1417.89 555.611 515.183
threshold=1.0000000180025095e-35 0.25881904510252057 1.0000000180025095e-35 0.65793410509763428 26.050000000000004 0.75023006073889131 -1.0000000180025095e-35 0.065263096110025856
decision_type=2 2 2 2 2 2 2 2
left_child=2 -2 4 -4 -1 6 -3 -7
right_child=1 5 3 -5 -6 7 -8 -9
leaf_value=-1.0992247402627509 1.4802881255447866 -0.23057569826038879 0.93096283565585825 -0.32652791146120413 0.021052476704904909 0.083128066360950478 -0.073356923595841589 -0.054734503448009487
leaf_weight=184 100 109 144 163 114 148 116 125
leaf_count=184 100 109 144 163 114 148 116 125
internal_value=0.000685809 0.200414 -0.196732 0.263305 -0.670662 -0.0565884 -0.149521 0.0200042
internal_weight=1203 598 605 307 298 498 225 273
internal_count=1203 598 605 307 298 498 225 273
is_linear=0
shrinkage=0.05


Tree=94
num_leaves=9
num_cat=0
split_feature=6 5 5 12 3 5 5 0
split_gain=12583.3 35388.2 46411.6 49573.3 16937.8 42366.8 5729.21 241.149
threshold=-0.065263096110025884 -0.70710678118654735 1.0000000180025095e-35 25.251623376623382 2.3950000000000005 -0.65793410509763384 -0.32075123873380551 22.350000000000005
decision_type=2 2 2 2 2 2 2 2
left_child=1 -1 -3 -4 6 -6 -2 -7
right_child=4 2 3 -5 5 7 -8 -9
leaf_value=0.9516330340830218 0.45324776796251537 -0.75251671132471032 1.0598464935566441 -0.24549145477789419 -1.217605593872185 -0.051692575754079609 -0.021669645696321779 0.04994265501602338
leaf_weight=119 100 145 132 162 104 133 174 104
leaf_count=119 100 145 132 162 104 133 174 104
internal_value=0.0149205 0.186845 -0.0204665 0.340579 -0.14107 -0.376282 0.151658 -0.00709315
internal_weight=1173 558 439 294 615 341 274 237
internal_count=1173 558 439 294 615 341 274 237
is_linear=0
shrinkage=0.05


Tree=95
num_leaves=10
num_cat=0
split_feature=6 6 6 0 2 0 6 7 1
split_gain=19293.7 66816.6 36745.9 27011.3 21097.3 18946.2 731.137 645.966 300.399
threshold=1.0000000180025095e-35 -0.32075123873380501 0.32075123873380501 26.050000000000004 117.00000000000001 20.450000000000003 0.94490267940017758 -0.60785761079279388 91.500000000000014
decision_type=2 2 2 2 2 2 2 2 2
left_child=1 3 -2 4 5 -1 7 -4 -9
right_child=2 -3 6 -5 -6 -7 -8 8 -10
leaf_value=-0.39902551098197114 0.95647153401763263 -1.2371091731177033 -0.17077102655322729 0.71842735705098937 -0.71756148012512821 0.51928255612552165 0.069871553330449393 0.026608180543619464 -0.085833220566726404
leaf_weight=102 117 131 109 112 118 125 128 132 108
leaf_count=102 117 131 109 112 118 125 128 132 108
internal_value=-0.0385626 -0.241599 0.162423 0.0437666 -0.175254 0.106651 -0.0323442 -0.0698331 -0.0239904
internal_weight=1182 588 594 457 345 227 477 349 240
internal_count=1182 588 594 457 345 227 477 349 240
is_linear=0
shrinkage=0.05


Tree=96
num_leaves=10
num_cat=0
split_feature=12 5 5 5 0 5 5 5 8
split_gain=15099.4 67566.5 42453.5 35009 19099 580.85 1388.37 1984.38 482.348
threshold=26.24188311688312 1.0000000180025095e-35 0.55438071450436044 -0.89495246814786256 24.850000000000005 0.89495246814786289 1.0000000180025095e-35 -0.5 1.0000000180025095e-35
decision_type=2 2 2 2 2 2 2 2 2
left_child=1 4 -3 -2 -1 6 7 -5 -8
right_child=3 2 -4 5 -6 -7 8 -9 -10
leaf_value=-1.347596453687298 0.95651656087149284 1.1007304357347036 -0.28698062290405407 -0.073848133733676324 -0.39609927844542725 0.084469502521075795 -0.041162272890518728 0.19390852379202844 -0.18165461615960402
leaf_weight=107 110 105 116 155 104 139 113 125 133
leaf_count=107 110 105 116 155 104 139 113 125 133
internal_value=-0.00179073 -0.238658 0.372339 0.130244 -0.878612 -0.00643314 -0.0304549 0.0456861 -0.11712
internal_weight=1207 432 221 775 211 665 526 280 246
internal_count=1207 432 221 775 211 665 526 280 246
is_linear=0
shrinkage=0.05


Tree=97
num_leaves=10
num_cat=0
split_feature=6 6 5 5 5 2 6 6 7
split_gain=18792.1 67891.8 57004.2 50657.5 26196.8 7679.58 1316.34 413.456 62.1523
threshold=1.0000000180025095e-35 0.25881904510252057 1.0000000180025095e-35 0.65793410509763428 -0.5 110.25000000000001 0.60876142900872032 0.94490267940017758 -1.0000000180025095e-35
decision_type=2 2 2 2 2 2 2 2 2
left_child=2 -2 4 -4 5 -1 -3 8 -8
right_child=1 6 3 -5 -6 -7 7 -9 -10
leaf_value=-0.67058555474965886 1.3236207291483879 -0.18096034720442014 0.93763051017018784 -0.3597286411021885 -1.3406327840452101 -0.058463142038537912 -0.070857398011139591 0.069999190007359532 -0.018856315829364933
leaf_weight=101 108 152 149 152 102 104 112 121 118
leaf_count=101 108 152 149 152 102 104 112 121 118
internal_value=-0.0096569 0.186177 -0.206457 0.282486 -0.685843 -0.360045 -0.058046 -0.00481815 -0.0441786
internal_weight=1219 611 608 301 307 205 503 351 230
internal_count=1219 611 608 301 307 205 503 351 230
is_linear=0
shrinkage=0.05


Tree=98
num_leaves=10
num_cat=0
split_feature=12 6 6 0 2 6 6 7 1
split_gain=17446.3 35556.9 28474.7 32038.2 18479.7 357.489 553.355 707.26 236.829
threshold=26.24188311688312 -0.44134171618254464 -0.94490267940017736 23.350000000000005 2.0000000000000004 0.32075123873380501 0.94490267940017758 -0.60785761079279388 91.500000000000014
decision_type=2 2 2 2 2 2 2 2 2
left_child=1 2 -1 -4 5 -2 7 -7 -9
right_child=4 -3 3 -5 -6 6 -8 8 -10
leaf_value=-0.7145335100229504 0.061919966168252051 -1.0940002152367549 -0.26604208908051502 0.92759149382511785 0.55917415900544809 -0.17241337127809728 0.051573564242998152 0.026542626154117701 -0.074429571743462694
leaf_weight=103 116 102 121 105 182 112 131 127 107
leaf_count=103 116 102 121 105 182 112 131 127 107
internal_value=-0.0233613 -0.278373 -0.0255044 0.288522 0.118458 -0.0168035 -0.035948 -0.0690848 -0.0196284
internal_weight=1206 431 329 226 775 593 477 346 234
internal_count=1206 431 329 226 775 593 477 346 234
is_linear=0
shrinkage=0.05


Tree=99
num_leaves=9
num_cat=0
split_feature=6 6 0 12 2 7 6 1
split_gain=18605 59804.4 24710.6 42073.9 32334.9 4464.84 6817.13 163.205
threshold=-0.065263096110025884 0.19467261866128602 20.950000000000003 25.251623376623382 168.50000000000003 -0.60785761079279388 0.55438071450436011 91.500000000000014
decision_type=2 2 2 2 2 2 2 2
left_child=2 -2 -1 4 -4 -3 -7 -8
right_child=1 5 3 -5 -6 6 7 -9
leaf_value=-0.24525948816139975 -1.2814355415894705 -0.16965037875096589 1.3269667784234027 -0.25768881991286491 0.17771343681439061 0.49194894929043953 0.044463683511237154 -0.035240781984277186
leaf_weight=191 102 170 143 136 107 100 131 126
leaf_count=191 102 170 143 136 107 100 131 126
internal_value=0.0148538 -0.17324 0.219898 0.450067 0.835086 0.04125 0.141679 0.00538679
internal_weight=1206 629 577 386 250 527 357 257
internal_count=1206 629 577 386 250 527 357 257
is_linear=0
shrinkage=0.05


Tree=100
num_leaves=10
num_cat=0
split_feature=6 5 7 0 1 3 1 3 3
split_gain=14387.3 37238.4 22106.4 18348.1 9765.72 5239.02 2174.27 1165.41 907.76
threshold=-0.065263096110025884 -0.25881904510252113 -1.0000000180025095e-35 23.550000000000004 86.500000000000014 3.1050000000000004 77.500000000000014 2.5550000000000002 1.7950000000000002
decision_type=2 2 2 2 2 2 2 2 2
left_child=1 2 -1 6 5 -3 -2 8 -8
right_child=3 4 -4 -5 -6 -7 7 -9 -10
leaf_value=0.1696167876161816 0.19596551319956779 -0.59868391857296233 1.1701085851848627 -0.69680218811711825 0.21472494432559383 -0.099713458886017681 -0.080721026227680334 -0.17191822893436881 0.11520270118489861
leaf_weight=103 100 100 119 122 130 111 137 155 104
leaf_count=103 100 100 119 122 130 111 137 155 104
internal_value=0.0190963 0.201938 0.705916 -0.147473 -0.126165 -0.336192 -0.0123558 -0.0649622 0.00382697
internal_weight=1181 563 222 618 341 211 496 396 241
internal_count=1181 563 222 618 341 211 496 396 241
is_linear=0
shrinkage=0.05


Tree=101
num_leaves=10
num_cat=0
split_feature=12 5 5 0 0 5 5 5 6
split_gain=23982.3 92766.4 31502.8 27408.6 14329.8 840.511 1751.72 2208.24 4580.7
threshold=26.24188311688312 1.0000000180025095e-35 -0.89495246814786256 20.650000000000002 24.450000000000003 -0.55438071450436044 1.0000000180025095e-35 0.65793410509763428 0.25881904510252057
decision_type=2 2 2 2 2 2 2 2 2
left_child=1 4 -2 -3 -1 -4 -7 -8 -9
right_child=2 3 5 -5 -6 6 7 8 -10
leaf_value=-1.4830217683894766 0.90740446094926952 -0.18782355960677655 -0.11917980944723353 0.95253435176446899 -0.66072429369848518 0.1672373294035594 -0.19506108453223373 0.30542426251092003 -0.14825480936464569
leaf_weight=108 111 102 129 109 104 150 136 103 121
leaf_count=108 111 102 129 109 104 150 136 103 121
internal_value=-0.039888 -0.34093 0.1299 0.401271 -1.07963 -0.00515968 0.0236807 -0.0361346 0.0603565
internal_weight=1173 423 750 211 212 639 510 360 224
internal_count=1173 423 750 211 212 639 510 360 224
is_linear=0
shrinkage=0.05


Tree=102
num_leaves=10
num_cat=0
split_feature=6 5 5 7 5 0 6 5 7
split_gain=20419.2 47984.2 41564.6 26560 13816.5 4859.41 462.41 259.898 33.3308
threshold=-0.065263096110025884 -0.25881904510252113 -0.82968937203783699 -1.0000000180025095e-35 0.25881904510252091 19.950000000000003 0.75023006073889131 0.065263096110025856 -1.0000000180025095e-35
decision_type=2 2 2 2 2 2 2 2 2
left_child=1 3 -2 -1 -3 -6 8 -8 -4
right_child=2 4 6 -5 5 -7 7 -9 -10
leaf_value=0.20751981754363938 -1.0880590829092103 -0.65529625369053268 -0.088021210746736411 1.287496645931723 -0.22736271987262283 0.22114143555294979 0.075780686035027939 -0.02454623894001811 -0.048819189404582124
leaf_weight=110 111 102 106 118 103 146 144 117 111
leaf_count=110 111 102 106 118 103 146 144 117 111
